{
    "generation": 472,
    "totalTime": 21171.033333109404,
    "allTimeBestScore": 959.1820569992493,
    "brains": [
        {
            "inputNodes": 17,
            "hiddenNodes": 16,
            "outputNodes": 2,
            "weightsIH": [
                [
                    -2.074096918106079,
                    -5.3251166343688965,
                    1.627590537071228,
                    -2.5853641033172607,
                    4.772243976593018,
                    0.831929087638855,
                    -0.6055571436882019,
                    0.25061678886413574,
                    2.2771449089050293,
                    0.20739439129829407,
                    1.732597827911377,
                    -4.446428298950195,
                    1.714903473854065,
                    -2.4655990600585938,
                    0.6276124119758606,
                    -4.315204620361328,
                    -0.7285845279693604
                ],
                [
                    -0.2573015093803406,
                    1.3702858686447144,
                    -0.5543167591094971,
                    -3.927446126937866,
                    1.002076268196106,
                    -0.14548401534557343,
                    -0.38300690054893494,
                    -1.2707198858261108,
                    3.6544363498687744,
                    -1.7918521165847778,
                    -2.9911627769470215,
                    -1.181370496749878,
                    0.859175980091095,
                    -1.4787108898162842,
                    -2.281386137008667,
                    -1.9209208488464355,
                    -1.3293887376785278
                ],
                [
                    2.526834011077881,
                    -0.261006623506546,
                    0.8801831603050232,
                    2.209482431411743,
                    4.587663173675537,
                    1.5495574474334717,
                    0.997377336025238,
                    -2.6300055980682373,
                    0.03248152509331703,
                    0.16246117651462555,
                    0.8492410778999329,
                    -0.9387597441673279,
                    1.4933720827102661,
                    1.4619706869125366,
                    1.552419900894165,
                    0.35930392146110535,
                    1.9055672883987427
                ],
                [
                    1.7863459587097168,
                    -1.7753386497497559,
                    0.6124491095542908,
                    1.6228560209274292,
                    2.1300559043884277,
                    1.3894214630126953,
                    2.3910880088806152,
                    -3.949237585067749,
                    1.6228814125061035,
                    0.6965653300285339,
                    2.4764199256896973,
                    -3.7887744903564453,
                    6.287622451782227,
                    2.6465792655944824,
                    0.9478008151054382,
                    -1.1735862493515015,
                    -3.4873080253601074
                ],
                [
                    -3.0382297039031982,
                    1.1763006448745728,
                    0.8203638792037964,
                    -1.7054208517074585,
                    1.162785530090332,
                    0.5283854603767395,
                    -3.106358528137207,
                    2.0766427516937256,
                    -2.6175954341888428,
                    -1.1901699304580688,
                    0.6668916940689087,
                    -2.523320436477661,
                    2.6628458499908447,
                    -1.586436152458191,
                    -2.536078929901123,
                    0.01143750548362732,
                    -0.6385847926139832
                ],
                [
                    -3.690551996231079,
                    0.19532468914985657,
                    -1.0104273557662964,
                    -4.041662693023682,
                    -0.08437438309192657,
                    -3.062568187713623,
                    -0.853222131729126,
                    1.0948153734207153,
                    -0.6703835129737854,
                    -0.13313411176204681,
                    -1.8945157527923584,
                    0.3573617935180664,
                    2.0839483737945557,
                    -3.009483814239502,
                    -0.7325027585029602,
                    1.0894367694854736,
                    -0.06481116265058517
                ],
                [
                    2.998455762863159,
                    -1.0116912126541138,
                    2.8374180793762207,
                    -0.8210029006004333,
                    -2.556551456451416,
                    -2.551276445388794,
                    -2.0070486068725586,
                    -1.8464423418045044,
                    1.4841487407684326,
                    -4.3207106590271,
                    -2.0900650024414062,
                    1.7587146759033203,
                    -1.4298381805419922,
                    -1.4607429504394531,
                    -0.9731770753860474,
                    2.3406195640563965,
                    -0.7209522724151611
                ],
                [
                    0.7983804941177368,
                    -0.561061680316925,
                    4.288281440734863,
                    -3.5075814723968506,
                    8.029848098754883,
                    -3.1587839126586914,
                    -1.5902185440063477,
                    -2.176170587539673,
                    0.6450963616371155,
                    0.7661051154136658,
                    1.2196847200393677,
                    0.17431782186031342,
                    -1.5317888259887695,
                    -0.4350288510322571,
                    -1.5294193029403687,
                    0.7212309837341309,
                    -1.0634377002716064
                ],
                [
                    -0.8354927897453308,
                    1.3168538808822632,
                    0.8800842761993408,
                    0.8117364645004272,
                    -0.6162448525428772,
                    -0.008651668205857277,
                    -1.618727684020996,
                    -4.478399753570557,
                    -1.4039709568023682,
                    -0.21292459964752197,
                    -0.281075119972229,
                    5.415223121643066,
                    0.12581683695316315,
                    -2.995147943496704,
                    -0.6599669456481934,
                    2.102609634399414,
                    0.19317927956581116
                ],
                [
                    -1.65794038772583,
                    -2.6828970909118652,
                    1.1363780498504639,
                    -4.612441539764404,
                    0.29258543252944946,
                    -0.7827078104019165,
                    0.1970735788345337,
                    0.004036922939121723,
                    2.6821866035461426,
                    2.8846726417541504,
                    2.5418622493743896,
                    -2.1687309741973877,
                    2.7353451251983643,
                    -1.5949385166168213,
                    1.053044080734253,
                    1.1936191320419312,
                    2.8000214099884033
                ],
                [
                    0.7272987961769104,
                    -1.0605785846710205,
                    -2.6363797187805176,
                    -0.6686696410179138,
                    -1.708863615989685,
                    -0.16445529460906982,
                    0.16002285480499268,
                    -1.2397176027297974,
                    1.7073651552200317,
                    -0.7477242350578308,
                    -0.7973794937133789,
                    2.967564344406128,
                    1.7688002586364746,
                    2.997955322265625,
                    -5.552786827087402,
                    -0.6327206492424011,
                    2.4484057426452637
                ],
                [
                    4.804139614105225,
                    -4.76555061340332,
                    0.9825255274772644,
                    2.452148675918579,
                    -0.8242188096046448,
                    0.6734530925750732,
                    -0.9145269989967346,
                    -2.536205768585205,
                    1.3233816623687744,
                    -7.055233001708984,
                    -7.455575466156006,
                    0.7937894463539124,
                    -3.9612226486206055,
                    -0.8015397787094116,
                    -1.5846010446548462,
                    -0.023277699947357178,
                    1.2394708395004272
                ],
                [
                    -1.370750069618225,
                    0.8247647285461426,
                    2.239672899246216,
                    0.2504350543022156,
                    2.6458587646484375,
                    -3.9120495319366455,
                    3.3053369522094727,
                    0.14756034314632416,
                    1.8816982507705688,
                    -4.20600700378418,
                    1.3655904531478882,
                    -1.387769103050232,
                    -1.8601707220077515,
                    1.6838167905807495,
                    -0.5472608208656311,
                    1.0406373739242554,
                    -1.8667372465133667
                ],
                [
                    -2.9483447074890137,
                    -5.123323440551758,
                    -0.4023466110229492,
                    -0.8882009983062744,
                    2.9506278038024902,
                    1.8771402835845947,
                    -0.8430784940719604,
                    0.7345860004425049,
                    1.4992445707321167,
                    -3.957350969314575,
                    -3.693587303161621,
                    5.594339370727539,
                    0.9350072741508484,
                    2.100289821624756,
                    1.5623520612716675,
                    5.4603495597839355,
                    2.3687527179718018
                ],
                [
                    1.3939883708953857,
                    0.09364408999681473,
                    -1.431288719177246,
                    0.791553258895874,
                    -0.8813595175743103,
                    1.4399545192718506,
                    -0.21555310487747192,
                    -0.5545966625213623,
                    3.6741228103637695,
                    0.4804973006248474,
                    -3.174713134765625,
                    1.3463289737701416,
                    -3.2656264305114746,
                    -1.2595540285110474,
                    -2.29465389251709,
                    0.9049287438392639,
                    2.6318109035491943
                ],
                [
                    -1.1647069454193115,
                    2.1932826042175293,
                    -2.3831429481506348,
                    0.42259347438812256,
                    -1.6422300338745117,
                    0.5021030306816101,
                    0.29256463050842285,
                    -0.06941861659288406,
                    5.967678546905518,
                    -1.0225107669830322,
                    -2.9488656520843506,
                    -0.7678719758987427,
                    3.230475902557373,
                    -0.06947214901447296,
                    -0.46640506386756897,
                    6.005834102630615,
                    -0.7215831875801086
                ]
            ],
            "weightsHO": [
                [
                    -1.2289576530456543,
                    -5.156757831573486,
                    0.30566826462745667,
                    -0.5447676181793213,
                    3.795987844467163,
                    2.1012794971466064,
                    4.325740814208984,
                    1.861268162727356,
                    2.8161871433258057,
                    -2.8505032062530518,
                    2.8642165660858154,
                    1.2824968099594116,
                    -4.537280559539795,
                    -1.0628559589385986,
                    -0.23594653606414795,
                    -1.167534589767456
                ],
                [
                    1.682111144065857,
                    -5.4850382804870605,
                    -0.9999738931655884,
                    -0.09226276725530624,
                    4.158059120178223,
                    3.6265769004821777,
                    0.868661642074585,
                    1.4843711853027344,
                    -0.7159364223480225,
                    4.146816730499268,
                    -1.7708100080490112,
                    0.4531533718109131,
                    -2.112318992614746,
                    -1.0294597148895264,
                    1.639400601387024,
                    -1.5345910787582397
                ]
            ],
            "biasH": [
                1.9284640550613403,
                -0.6292399168014526,
                1.141217827796936,
                -1.343872308731079,
                0.2655125856399536,
                -0.03617912903428078,
                2.926969528198242,
                -0.5395987629890442,
                1.2810946702957153,
                0.45393726229667664,
                -0.3756605088710785,
                0.9006422758102417,
                1.2170010805130005,
                4.523680210113525,
                -0.5615862011909485,
                0.6210213899612427
            ],
            "biasO": [
                0.7420204281806946,
                -0.9398682713508606
            ]
        },
        {
            "inputNodes": 17,
            "hiddenNodes": 16,
            "outputNodes": 2,
            "weightsIH": [
                [
                    -2.1507568359375,
                    -5.295976638793945,
                    1.627590537071228,
                    -2.662275552749634,
                    4.735683441162109,
                    0.831929087638855,
                    -0.7317659258842468,
                    0.25061678886413574,
                    2.3074772357940674,
                    0.08377398550510406,
                    1.820480465888977,
                    -4.510334014892578,
                    1.714903473854065,
                    -2.5626821517944336,
                    0.6047315001487732,
                    -4.315204620361328,
                    -0.5367636680603027
                ],
                [
                    -0.1520860344171524,
                    1.330010175704956,
                    -0.5952737927436829,
                    -3.8432655334472656,
                    0.9937684535980225,
                    -0.10851707309484482,
                    -0.40839168429374695,
                    -1.2462353706359863,
                    3.6544363498687744,
                    -1.9522104263305664,
                    -2.7597832679748535,
                    -1.181370496749878,
                    0.7532384395599365,
                    -1.6397603750228882,
                    -2.4150869846343994,
                    -1.8430893421173096,
                    -1.3293887376785278
                ],
                [
                    2.4866204261779785,
                    -0.25608497858047485,
                    0.6775941848754883,
                    2.163820266723633,
                    4.834625244140625,
                    1.3751469850540161,
                    0.997377336025238,
                    -2.571502447128296,
                    0.03248152509331703,
                    0.23681600391864777,
                    0.6725029349327087,
                    -0.9005469083786011,
                    1.3637667894363403,
                    1.2502689361572266,
                    1.634867787361145,
                    0.43304312229156494,
                    2.1344058513641357
                ],
                [
                    1.708990454673767,
                    -1.8564656972885132,
                    0.5979811549186707,
                    1.6400845050811768,
                    2.1300559043884277,
                    1.249023199081421,
                    2.3910880088806152,
                    -3.8957321643829346,
                    2.004542827606201,
                    0.7029772996902466,
                    2.3890039920806885,
                    -3.863675832748413,
                    6.287622451782227,
                    2.373975992202759,
                    0.9643104672431946,
                    -1.1979491710662842,
                    -3.518791675567627
                ],
                [
                    -3.0965023040771484,
                    1.1763006448745728,
                    0.8839856386184692,
                    -1.5432236194610596,
                    1.162785530090332,
                    0.4493468999862671,
                    -3.106358528137207,
                    2.2846407890319824,
                    -2.5583598613739014,
                    -1.2223533391952515,
                    0.7512769103050232,
                    -2.4815757274627686,
                    2.6628458499908447,
                    -1.5696525573730469,
                    -2.486660957336426,
                    0.29855984449386597,
                    -0.7417519092559814
                ],
                [
                    -3.6883633136749268,
                    0.30125653743743896,
                    -1.0104273557662964,
                    -4.041662693023682,
                    -0.08437438309192657,
                    -3.1062915325164795,
                    -0.9627799391746521,
                    1.0686888694763184,
                    -0.695533037185669,
                    -0.13313411176204681,
                    -1.8945157527923584,
                    0.37015974521636963,
                    2.100925922393799,
                    -2.9479880332946777,
                    -0.87384033203125,
                    1.1350809335708618,
                    -0.2529384195804596
                ],
                [
                    3.0101935863494873,
                    -1.0116912126541138,
                    2.8476643562316895,
                    -0.830478310585022,
                    -2.487271547317505,
                    -2.551276445388794,
                    -2.0381319522857666,
                    -2.0926365852355957,
                    1.5007497072219849,
                    -4.320674896240234,
                    -2.180114984512329,
                    1.7128443717956543,
                    -1.5490199327468872,
                    -1.5085391998291016,
                    -1.0973029136657715,
                    2.4045374393463135,
                    -0.7816200256347656
                ],
                [
                    0.5389219522476196,
                    -0.4891354739665985,
                    4.288281440734863,
                    -3.453183174133301,
                    8.029848098754883,
                    -3.171342611312866,
                    -1.8601171970367432,
                    -2.10688853263855,
                    0.4173879623413086,
                    0.910940408706665,
                    1.2196847200393677,
                    0.24799150228500366,
                    -1.570754885673523,
                    -0.463566392660141,
                    -1.5549019575119019,
                    0.6803048253059387,
                    -0.9553733468055725
                ],
                [
                    -0.7932351231575012,
                    1.3168538808822632,
                    0.8765736818313599,
                    0.861086905002594,
                    -0.6162448525428772,
                    -0.008651668205857277,
                    -1.5523861646652222,
                    -4.366772651672363,
                    -1.4039709568023682,
                    -0.2724490463733673,
                    -0.281075119972229,
                    5.309137344360352,
                    0.15162792801856995,
                    -3.0301969051361084,
                    -0.6538788080215454,
                    2.2231087684631348,
                    0.280600368976593
                ],
                [
                    -1.615596890449524,
                    -2.6828970909118652,
                    1.1363780498504639,
                    -4.612441539764404,
                    0.24934285879135132,
                    -0.7827078104019165,
                    0.20549245178699493,
                    0.3835388123989105,
                    2.622021436691284,
                    2.734734535217285,
                    2.4782490730285645,
                    -2.3460047245025635,
                    2.745180606842041,
                    -1.0483242273330688,
                    1.0694117546081543,
                    1.2602537870407104,
                    2.872187852859497
                ],
                [
                    0.8217322826385498,
                    -1.174506425857544,
                    -2.6363797187805176,
                    -0.6686696410179138,
                    -1.8393679857254028,
                    -0.24328143894672394,
                    -0.0646917074918747,
                    -1.1625040769577026,
                    1.7073651552200317,
                    -0.7477242350578308,
                    -0.7973794937133789,
                    3.0874931812286377,
                    1.7113056182861328,
                    2.997955322265625,
                    -5.740818977355957,
                    -0.6242606043815613,
                    2.407384157180786
                ],
                [
                    4.841367244720459,
                    -4.76555061340332,
                    0.9783998727798462,
                    2.105943202972412,
                    -0.9539235234260559,
                    0.7261775135993958,
                    -1.0494585037231445,
                    -2.641408920288086,
                    1.6480765342712402,
                    -6.997696399688721,
                    -7.470428466796875,
                    0.9480983018875122,
                    -3.9807658195495605,
                    -1.0812838077545166,
                    -1.5846010446548462,
                    -0.07961605489253998,
                    1.2394708395004272
                ],
                [
                    -1.3856377601623535,
                    0.614183783531189,
                    2.3117196559906006,
                    0.26404866576194763,
                    2.64943528175354,
                    -3.819139242172241,
                    3.2723798751831055,
                    0.14756034314632416,
                    1.6681970357894897,
                    -4.20600700378418,
                    1.2424671649932861,
                    -1.387769103050232,
                    -1.8325973749160767,
                    1.6681406497955322,
                    -0.3582369387149811,
                    1.0406373739242554,
                    -2.000844717025757
                ],
                [
                    -3.049046277999878,
                    -5.034320831298828,
                    -0.431713730096817,
                    -0.7893036603927612,
                    3.15937876701355,
                    1.7906372547149658,
                    -0.9296780824661255,
                    0.4913398027420044,
                    1.4992445707321167,
                    -4.097527980804443,
                    -3.856602907180786,
                    5.477284908294678,
                    0.8838949799537659,
                    2.100289821624756,
                    1.5623520612716675,
                    5.41207218170166,
                    2.2726175785064697
                ],
                [
                    1.4704009294509888,
                    -0.09736243635416031,
                    -1.349352478981018,
                    0.6190281510353088,
                    -0.8641976714134216,
                    1.0911401510238647,
                    -0.21555310487747192,
                    -0.5342270731925964,
                    3.6648385524749756,
                    0.4258776009082794,
                    -3.174713134765625,
                    1.3463289737701416,
                    -3.2656264305114746,
                    -1.349176287651062,
                    -2.2447683811187744,
                    0.8576303720474243,
                    2.637380838394165
                ],
                [
                    -1.0371352434158325,
                    2.4443910121917725,
                    -2.4346776008605957,
                    0.38524505496025085,
                    -1.6422300338745117,
                    0.5021030306816101,
                    0.29256463050842285,
                    -0.0522923581302166,
                    5.95265007019043,
                    -1.2356982231140137,
                    -2.8411664962768555,
                    -0.6947153210639954,
                    3.145063638687134,
                    -0.03782431036233902,
                    -0.42300450801849365,
                    5.927264213562012,
                    -0.7215831875801086
                ]
            ],
            "weightsHO": [
                [
                    -1.3288013935089111,
                    -5.415889739990234,
                    0.284628689289093,
                    -0.9086670279502869,
                    3.633054494857788,
                    2.0708067417144775,
                    4.401899337768555,
                    1.9385895729064941,
                    2.9375569820404053,
                    -2.8846399784088135,
                    2.8505990505218506,
                    1.2234952449798584,
                    -4.3866119384765625,
                    -1.25606369972229,
                    0.03212272748351097,
                    -1.04854416847229
                ],
                [
                    1.4959189891815186,
                    -5.4850382804870605,
                    -0.9436014294624329,
                    -0.07437203079462051,
                    4.215846061706543,
                    3.5120036602020264,
                    0.868661642074585,
                    1.3816593885421753,
                    -0.6686277389526367,
                    4.0847578048706055,
                    -1.723016381263733,
                    0.5945863723754883,
                    -2.108428716659546,
                    -1.079671025276184,
                    1.381618857383728,
                    -1.5646636486053467
                ]
            ],
            "biasH": [
                2.0246331691741943,
                -0.6306713223457336,
                1.141217827796936,
                -1.3371891975402832,
                0.3422481417655945,
                0.13300581276416779,
                2.9265551567077637,
                -0.7177940011024475,
                1.3180792331695557,
                0.36493027210235596,
                -0.19723160564899445,
                0.8123447299003601,
                1.206987977027893,
                4.644558429718018,
                -0.8290335536003113,
                0.6995391845703125
            ],
            "biasO": [
                0.8688191175460815,
                -0.9398682713508606
            ]
        },
        {
            "inputNodes": 17,
            "hiddenNodes": 16,
            "outputNodes": 2,
            "weightsIH": [
                [
                    -2.185749053955078,
                    -5.357424736022949,
                    1.4700648784637451,
                    -2.5530130863189697,
                    4.772243976593018,
                    0.8164517879486084,
                    -0.8521762490272522,
                    0.2736038863658905,
                    2.5564393997192383,
                    0.20739439129829407,
                    1.5251315832138062,
                    -4.577592849731445,
                    1.8421622514724731,
                    -2.620011568069458,
                    0.7259185910224915,
                    -4.304782867431641,
                    -0.667327880859375
                ],
                [
                    -0.1520860344171524,
                    1.400127649307251,
                    -0.5952737927436829,
                    -3.927446126937866,
                    1.002076268196106,
                    -0.14548401534557343,
                    -0.40839168429374695,
                    -1.1479463577270508,
                    3.5649421215057373,
                    -1.9490883350372314,
                    -2.872471809387207,
                    -1.0878428220748901,
                    0.8272306323051453,
                    -1.6397603750228882,
                    -2.357532501220703,
                    -1.9209208488464355,
                    -1.3546096086502075
                ],
                [
                    2.4720652103424072,
                    -0.25199976563453674,
                    0.9308503866195679,
                    2.215364933013916,
                    4.888315677642822,
                    1.5155903100967407,
                    0.9285153150558472,
                    -2.6861793994903564,
                    0.054192278534173965,
                    0.23681600391864777,
                    0.7560029029846191,
                    -0.8628616333007812,
                    1.459060549736023,
                    1.3969382047653198,
                    1.4533183574676514,
                    0.4921116232872009,
                    2.1299548149108887
                ],
                [
                    1.7863459587097168,
                    -1.863236427307129,
                    0.583893358707428,
                    1.6130865812301636,
                    2.255915641784668,
                    1.2859086990356445,
                    2.473565101623535,
                    -3.8957321643829346,
                    2.0513601303100586,
                    0.5310398936271667,
                    2.4764199256896973,
                    -3.7181737422943115,
                    6.378990650177002,
                    2.6435153484344482,
                    0.9478008151054382,
                    -1.2011429071426392,
                    -3.518791675567627
                ],
                [
                    -3.0965023040771484,
                    1.1763006448745728,
                    0.9755260944366455,
                    -1.6594136953353882,
                    1.162785530090332,
                    0.38785526156425476,
                    -3.085937976837158,
                    2.3084876537323,
                    -2.610278367996216,
                    -1.2223533391952515,
                    0.329314649105072,
                    -2.390817880630493,
                    2.6602978706359863,
                    -1.6165308952331543,
                    -2.934058427810669,
                    0.20411325991153717,
                    -0.628156840801239
                ],
                [
                    -3.704313278198242,
                    0.32137417793273926,
                    -1.0104273557662964,
                    -3.9900290966033936,
                    -0.06856460124254227,
                    -3.062568187713623,
                    -0.8057223558425903,
                    1.2053003311157227,
                    -0.629619300365448,
                    -0.07569733262062073,
                    -1.9095908403396606,
                    0.37148237228393555,
                    2.0631821155548096,
                    -2.989847421646118,
                    -0.8246792554855347,
                    1.0572811365127563,
                    -0.03315974026918411
                ],
                [
                    3.010896682739258,
                    -1.2600905895233154,
                    2.8150439262390137,
                    -0.830478310585022,
                    -2.4990627765655518,
                    -2.551276445388794,
                    -2.0381319522857666,
                    -1.8947526216506958,
                    1.562199354171753,
                    -4.320674896240234,
                    -2.2211079597473145,
                    1.6101887226104736,
                    -1.7460250854492188,
                    -1.3753279447555542,
                    -1.0357167720794678,
                    2.3406195640563965,
                    -0.6796976327896118
                ],
                [
                    0.713417112827301,
                    -0.561061680316925,
                    4.288281440734863,
                    -3.5240750312805176,
                    8.029848098754883,
                    -3.116821765899658,
                    -1.9518699645996094,
                    -2.176170587539673,
                    0.6450963616371155,
                    0.7517246603965759,
                    1.2196847200393677,
                    0.055940959602594376,
                    -1.570754885673523,
                    -0.463566392660141,
                    -1.5549019575119019,
                    0.7212309837341309,
                    -1.0694741010665894
                ],
                [
                    -0.8354927897453308,
                    1.4087555408477783,
                    0.8314394950866699,
                    0.861086905002594,
                    -0.6162448525428772,
                    -0.06423159688711166,
                    -1.618727684020996,
                    -4.529571056365967,
                    -1.4084103107452393,
                    -0.3645428419113159,
                    -0.26565366983413696,
                    5.395970344543457,
                    0.08265333622694016,
                    -2.9730021953582764,
                    -0.5514084100723267,
                    2.2590911388397217,
                    0.3688696026802063
                ],
                [
                    -1.8032065629959106,
                    -2.821135997772217,
                    1.042529821395874,
                    -4.612441539764404,
                    0.18735873699188232,
                    -1.0427385568618774,
                    0.34746459126472473,
                    0.09730947017669678,
                    2.5803472995758057,
                    2.8217289447784424,
                    2.4782490730285645,
                    -2.1220526695251465,
                    2.77583646774292,
                    -1.5482444763183594,
                    1.023066759109497,
                    1.182619333267212,
                    2.7733356952667236
                ],
                [
                    0.7272987961769104,
                    -1.0605785846710205,
                    -2.618974208831787,
                    -0.6686696410179138,
                    -1.757847547531128,
                    -0.28083452582359314,
                    0.16002285480499268,
                    -1.1822415590286255,
                    1.7495708465576172,
                    -0.6447210907936096,
                    -0.7973794937133789,
                    2.9666807651519775,
                    1.7113056182861328,
                    3.017807722091675,
                    -5.6203389167785645,
                    -0.7016144394874573,
                    2.3777272701263428
                ],
                [
                    4.804139614105225,
                    -4.6443095207214355,
                    0.9424412250518799,
                    2.105943202972412,
                    -0.886903703212738,
                    0.6991329193115234,
                    -1.1828023195266724,
                    -2.6351547241210938,
                    1.621899127960205,
                    -7.055233001708984,
                    -7.514706611633301,
                    0.6380143761634827,
                    -3.9807658195495605,
                    -0.8822904825210571,
                    -1.5723673105239868,
                    -0.0017979249823838472,
                    1.2394708395004272
                ],
                [
                    -1.3856377601623535,
                    0.6615619659423828,
                    2.3619747161865234,
                    0.19328485429286957,
                    2.691138744354248,
                    -3.8162548542022705,
                    3.3227972984313965,
                    0.1549822986125946,
                    1.6681970357894897,
                    -4.206616401672363,
                    1.2922697067260742,
                    -1.3730278015136719,
                    -1.676703929901123,
                    1.6681406497955322,
                    -0.5404645800590515,
                    0.7883714437484741,
                    -1.8680099248886108
                ],
                [
                    -2.9313666820526123,
                    -4.912866115570068,
                    -0.431713730096817,
                    -0.7893036603927612,
                    3.0660836696624756,
                    1.7796903848648071,
                    -0.9296780824661255,
                    0.6570132374763489,
                    1.4761866331100464,
                    -4.259335041046143,
                    -3.836272954940796,
                    5.734480857849121,
                    0.8404427170753479,
                    2.100289821624756,
                    1.5503337383270264,
                    5.48305606842041,
                    2.408512830734253
                ],
                [
                    1.4578008651733398,
                    -0.11918428540229797,
                    -1.431288719177246,
                    0.6190281510353088,
                    -0.8641976714134216,
                    1.0911401510238647,
                    -0.08218245953321457,
                    -0.4746952950954437,
                    3.6741228103637695,
                    0.4258776009082794,
                    -3.0491185188293457,
                    1.0472384691238403,
                    -3.118636131286621,
                    -1.2495160102844238,
                    -2.396677255630493,
                    0.7668851613998413,
                    2.637380838394165
                ],
                [
                    -1.0036128759384155,
                    2.385380983352661,
                    -2.367893695831299,
                    0.38524505496025085,
                    -1.7533327341079712,
                    0.5021030306816101,
                    0.30422070622444153,
                    0.015293795615434647,
                    6.029473781585693,
                    -1.0225107669830322,
                    -2.9242665767669678,
                    -0.8130289912223816,
                    3.141916513442993,
                    -0.03782431036233902,
                    -0.46640506386756897,
                    6.087343215942383,
                    -0.7215831875801086
                ]
            ],
            "weightsHO": [
                [
                    -1.2482107877731323,
                    -5.156757831573486,
                    0.24295096099376678,
                    -0.9086670279502869,
                    3.806159019470215,
                    2.0708067417144775,
                    4.303133964538574,
                    1.8712422847747803,
                    2.909322500228882,
                    -2.8505032062530518,
                    2.9092507362365723,
                    1.1360361576080322,
                    -4.31494665145874,
                    -1.3767224550247192,
                    0.02956518344581127,
                    -1.04854416847229
                ],
                [
                    1.4629970788955688,
                    -5.4850382804870605,
                    -1.0591154098510742,
                    0.03774076700210571,
                    4.180251598358154,
                    3.6265769004821777,
                    0.868661642074585,
                    1.4690130949020386,
                    -0.7108180522918701,
                    4.146816730499268,
                    -1.723016381263733,
                    0.5278596878051758,
                    -1.920715570449829,
                    -0.9812729358673096,
                    1.4555989503860474,
                    -1.6065239906311035
                ]
            ],
            "biasH": [
                1.9466367959976196,
                -0.6306713223457336,
                1.141217827796936,
                -1.412301778793335,
                0.3592230975627899,
                0.047124233096838,
                2.926969528198242,
                -0.5341009497642517,
                1.2810946702957153,
                0.4519422948360443,
                -0.10563758760690689,
                0.886436939239502,
                1.2170010805130005,
                4.644558429718018,
                -0.6157242059707642,
                0.624457836151123
            ],
            "biasO": [
                0.8102962970733643,
                -0.9398682713508606
            ]
        },
        {
            "inputNodes": 17,
            "hiddenNodes": 16,
            "outputNodes": 2,
            "weightsIH": [
                [
                    -2.202237129211426,
                    -5.281472682952881,
                    1.627590537071228,
                    -2.5420637130737305,
                    4.819580554962158,
                    0.831929087638855,
                    -0.7778109312057495,
                    0.11996321380138397,
                    2.5564393997192383,
                    -0.0004615204525180161,
                    1.441697120666504,
                    -4.510334014892578,
                    1.7204669713974,
                    -2.5626821517944336,
                    0.7259185910224915,
                    -4.375124931335449,
                    -0.6850747466087341
                ],
                [
                    -0.1520860344171524,
                    1.2849977016448975,
                    -0.5543167591094971,
                    -3.927446126937866,
                    0.9963169097900391,
                    -0.23392300307750702,
                    -0.3415784537792206,
                    -1.1801753044128418,
                    3.6544363498687744,
                    -1.9522104263305664,
                    -2.7597832679748535,
                    -1.0878428220748901,
                    0.8272306323051453,
                    -1.4810619354248047,
                    -2.4150869846343994,
                    -1.904469609260559,
                    -1.3293887376785278
                ],
                [
                    2.5366461277008057,
                    -0.2695886194705963,
                    0.7080274224281311,
                    2.155573844909668,
                    4.797244548797607,
                    1.3727946281433105,
                    0.997377336025238,
                    -2.7456610202789307,
                    0.03248152509331703,
                    0.09751037508249283,
                    0.8543232083320618,
                    -0.9005469083786011,
                    1.3637667894363403,
                    1.4609028100967407,
                    1.5495877265930176,
                    0.44013142585754395,
                    1.9055672883987427
                ],
                [
                    1.8049285411834717,
                    -1.812557339668274,
                    0.5808695554733276,
                    1.745107650756836,
                    2.1300559043884277,
                    1.2813036441802979,
                    2.3910880088806152,
                    -3.844700813293457,
                    2.118475914001465,
                    0.6508433222770691,
                    2.369990348815918,
                    -3.7181737422943115,
                    6.287622451782227,
                    2.5544817447662354,
                    0.965092658996582,
                    -1.2011429071426392,
                    -3.518791675567627
                ],
                [
                    -3.0965023040771484,
                    1.1763006448745728,
                    0.8839856386184692,
                    -1.6594136953353882,
                    1.149388074874878,
                    0.4493468999862671,
                    -3.05869197845459,
                    2.3084876537323,
                    -2.5899994373321533,
                    -1.152724266052246,
                    0.7653998136520386,
                    -2.4262259006500244,
                    2.6628458499908447,
                    -1.5696525573730469,
                    -2.768550395965576,
                    0.22273464500904083,
                    -0.6427337527275085
                ],
                [
                    -3.690551996231079,
                    0.133131206035614,
                    -1.033691167831421,
                    -3.9900290966033936,
                    -0.08437438309192657,
                    -3.062568187713623,
                    -1.0603134632110596,
                    1.121246576309204,
                    -0.6455427408218384,
                    -0.13313411176204681,
                    -1.8945157527923584,
                    0.33049988746643066,
                    2.017345428466797,
                    -2.9645590782165527,
                    -0.8788776993751526,
                    1.0572811365127563,
                    -0.16716130077838898
                ],
                [
                    2.921457052230835,
                    -1.0116912126541138,
                    2.861664295196533,
                    -0.830478310585022,
                    -2.3116214275360107,
                    -2.6222589015960693,
                    -2.0381319522857666,
                    -1.8947526216506958,
                    1.5007497072219849,
                    -4.305488109588623,
                    -2.037149667739868,
                    1.7128443717956543,
                    -1.5490199327468872,
                    -1.3570233583450317,
                    -1.0973029136657715,
                    2.2664151191711426,
                    -0.9156335592269897
                ],
                [
                    0.7516968250274658,
                    -0.4891354739665985,
                    4.255339622497559,
                    -3.5720396041870117,
                    8.048455238342285,
                    -3.116821765899658,
                    -2.0169358253479004,
                    -2.101754903793335,
                    0.3933040201663971,
                    0.910940408706665,
                    1.2196847200393677,
                    0.043515730649232864,
                    -1.570754885673523,
                    -0.5560439229011536,
                    -1.5549019575119019,
                    0.7212309837341309,
                    -1.138258934020996
                ],
                [
                    -0.7503758072853088,
                    1.3168538808822632,
                    0.8765736818313599,
                    0.8117364645004272,
                    -0.6257733106613159,
                    -0.008651668205857277,
                    -1.6100207567214966,
                    -4.366772651672363,
                    -1.4039709568023682,
                    -0.2724490463733673,
                    -0.26565366983413696,
                    5.321047782897949,
                    0.005967446602880955,
                    -2.942385673522949,
                    -0.6599669456481934,
                    2.4048006534576416,
                    0.07671773433685303
                ],
                [
                    -1.65794038772583,
                    -2.6828970909118652,
                    1.1363780498504639,
                    -4.612441539764404,
                    0.28077125549316406,
                    -0.8076329231262207,
                    0.18421988189220428,
                    0.004036922939121723,
                    2.6425251960754395,
                    2.8217289447784424,
                    2.4328436851501465,
                    -2.1687309741973877,
                    2.819185972213745,
                    -1.0483242273330688,
                    0.9422165155410767,
                    1.307758092880249,
                    2.9677746295928955
                ],
                [
                    0.7272987961769104,
                    -1.174506425857544,
                    -2.2580771446228027,
                    -0.6686696410179138,
                    -1.8393679857254028,
                    -0.16736721992492676,
                    -0.0646917074918747,
                    -1.2397176027297974,
                    1.7253100872039795,
                    -0.7608016729354858,
                    -0.7973794937133789,
                    3.0278737545013428,
                    1.7113056182861328,
                    2.997955322265625,
                    -5.816064834594727,
                    -0.6327206492424011,
                    2.325319290161133
                ],
                [
                    4.841367244720459,
                    -4.794020652770996,
                    0.9424412250518799,
                    2.630094528198242,
                    -0.886903703212738,
                    0.7074610590934753,
                    -1.0494585037231445,
                    -2.5247249603271484,
                    1.36749267578125,
                    -6.997696399688721,
                    -7.514706611633301,
                    0.7937894463539124,
                    -3.956644058227539,
                    -1.0812838077545166,
                    -1.527689814567566,
                    -0.11962253600358963,
                    1.2394708395004272
                ],
                [
                    -1.3856377601623535,
                    0.8800593018531799,
                    2.1351401805877686,
                    0.26404866576194763,
                    2.691138744354248,
                    -3.9572250843048096,
                    3.2723798751831055,
                    0.14756034314632416,
                    1.6681970357894897,
                    -4.206616401672363,
                    1.2729058265686035,
                    -1.387769103050232,
                    -1.8325973749160767,
                    1.665250539779663,
                    -0.33203497529029846,
                    0.9419621229171753,
                    -1.9289294481277466
                ],
                [
                    -2.9805948734283447,
                    -5.062417030334473,
                    -0.431713730096817,
                    -0.9815542101860046,
                    3.1332526206970215,
                    1.7906372547149658,
                    -0.9296780824661255,
                    0.39666125178337097,
                    1.4992445707321167,
                    -4.289570331573486,
                    -3.929168462753296,
                    5.581869602203369,
                    0.860908031463623,
                    2.04028582572937,
                    1.4778234958648682,
                    5.48305606842041,
                    2.408512830734253
                ],
                [
                    1.6002410650253296,
                    -0.11918428540229797,
                    -1.2968217134475708,
                    0.6190281510353088,
                    -0.4974675178527832,
                    1.1823924779891968,
                    -0.12127913534641266,
                    -0.4746952950954437,
                    3.5000643730163574,
                    0.4074479043483734,
                    -3.084545135498047,
                    1.1546932458877563,
                    -3.2184507846832275,
                    -1.2703514099121094,
                    -2.595651388168335,
                    0.89764803647995,
                    2.563312530517578
                ],
                [
                    -1.171585202217102,
                    2.4265384674072266,
                    -2.4346776008605957,
                    0.3423614501953125,
                    -1.7291486263275146,
                    0.5757112503051758,
                    0.14318901300430298,
                    -0.003796153934672475,
                    6.096805572509766,
                    -1.2356982231140137,
                    -2.743173122406006,
                    -0.7354967594146729,
                    2.877403974533081,
                    -0.03782431036233902,
                    -0.46640506386756897,
                    6.005834102630615,
                    -0.7215831875801086
                ]
            ],
            "weightsHO": [
                [
                    -1.2482107877731323,
                    -5.156757831573486,
                    0.3102772533893585,
                    -0.9086670279502869,
                    3.795987844467163,
                    2.1651551723480225,
                    4.352852821350098,
                    1.8682507276535034,
                    2.8161871433258057,
                    -2.8505032062530518,
                    2.733954906463623,
                    1.2234952449798584,
                    -4.451834201812744,
                    -1.319920539855957,
                    -0.1860533505678177,
                    -1.0771931409835815
                ],
                [
                    1.682111144065857,
                    -5.4850382804870605,
                    -0.9436014294624329,
                    -0.04827143996953964,
                    4.180251598358154,
                    3.6548309326171875,
                    0.868661642074585,
                    1.3932859897613525,
                    -0.6686277389526367,
                    4.176427364349365,
                    -1.723016381263733,
                    0.5069888830184937,
                    -2.108428716659546,
                    -1.079671025276184,
                    1.5504913330078125,
                    -1.5646636486053467
                ]
            ],
            "biasH": [
                2.04248046875,
                -0.595441460609436,
                0.9429958462715149,
                -1.3971256017684937,
                0.28856074810028076,
                0.13300581276416779,
                2.926969528198242,
                -0.5349852442741394,
                1.268044114112854,
                0.45393726229667664,
                -0.27751675248146057,
                0.886436939239502,
                1.2170010805130005,
                4.641698360443115,
                -0.6587736010551453,
                0.6401563882827759
            ],
            "biasO": [
                0.8265450596809387,
                -0.9398682713508606
            ]
        },
        {
            "inputNodes": 17,
            "hiddenNodes": 16,
            "outputNodes": 2,
            "weightsIH": [
                [
                    -2.1475794315338135,
                    -5.281472682952881,
                    1.627590537071228,
                    -2.5420637130737305,
                    4.827909469604492,
                    0.831929087638855,
                    -0.6174846291542053,
                    0.13195930421352386,
                    2.22564435005188,
                    0.006021726410835981,
                    1.732597827911377,
                    -4.510334014892578,
                    1.714903473854065,
                    -2.5626821517944336,
                    0.6047315001487732,
                    -4.285513401031494,
                    -0.5733343362808228
                ],
                [
                    -0.12666673958301544,
                    1.400127649307251,
                    -0.5952737927436829,
                    -3.927446126937866,
                    0.9963169097900391,
                    -0.17909686267375946,
                    -0.40839168429374695,
                    -1.2247765064239502,
                    3.6544363498687744,
                    -1.9436733722686768,
                    -2.7563648223876953,
                    -1.0878428220748901,
                    0.6153090596199036,
                    -1.6397603750228882,
                    -2.4150869846343994,
                    -1.9768370389938354,
                    -1.3293887376785278
                ],
                [
                    2.4866204261779785,
                    -0.25199976563453674,
                    0.7080274224281311,
                    2.1830661296844482,
                    4.834625244140625,
                    1.4541287422180176,
                    0.997377336025238,
                    -2.6861793994903564,
                    0.03248152509331703,
                    0.23681600391864777,
                    0.7630236148834229,
                    -0.8064237236976624,
                    1.3637667894363403,
                    1.3969382047653198,
                    1.5850096940994263,
                    0.43304312229156494,
                    1.9055672883987427
                ],
                [
                    1.708990454673767,
                    -1.841528296470642,
                    0.6124491095542908,
                    1.6418575048446655,
                    2.2544214725494385,
                    1.3116648197174072,
                    2.3910880088806152,
                    -3.844700813293457,
                    1.9328786134719849,
                    0.6951567530632019,
                    2.3400025367736816,
                    -3.7181737422943115,
                    6.287622451782227,
                    2.6465792655944824,
                    0.9643104672431946,
                    -1.1979491710662842,
                    -3.4483916759490967
                ],
                [
                    -3.2204675674438477,
                    1.209242343902588,
                    0.8839856386184692,
                    -1.5432236194610596,
                    1.162785530090332,
                    0.5283854603767395,
                    -3.106358528137207,
                    2.0766427516937256,
                    -2.5899994373321533,
                    -1.2151538133621216,
                    0.7653998136520386,
                    -2.301090717315674,
                    2.6602978706359863,
                    -1.6165308952331543,
                    -2.536078929901123,
                    0.23993076384067535,
                    -0.5863838791847229
                ],
                [
                    -3.704313278198242,
                    0.19532468914985657,
                    -1.0104273557662964,
                    -3.941628932952881,
                    -0.053982559591531754,
                    -3.062568187713623,
                    -1.0603134632110596,
                    1.1200546026229858,
                    -0.695533037185669,
                    -0.13313411176204681,
                    -1.8945157527923584,
                    0.37148237228393555,
                    2.017345428466797,
                    -2.9682388305664062,
                    -0.87384033203125,
                    1.0572811365127563,
                    -0.16716130077838898
                ],
                [
                    3.089163303375244,
                    -1.0116912126541138,
                    2.8104915618896484,
                    -0.830478310585022,
                    -2.35591721534729,
                    -2.551276445388794,
                    -2.0381319522857666,
                    -2.0926365852355957,
                    1.5007497072219849,
                    -4.320674896240234,
                    -2.180114984512329,
                    1.7058584690093994,
                    -1.3820528984069824,
                    -1.3753279447555542,
                    -1.0252934694290161,
                    2.2409143447875977,
                    -0.7816200256347656
                ],
                [
                    0.5389219522476196,
                    -0.561061680316925,
                    4.288281440734863,
                    -3.5075814723968506,
                    8.029848098754883,
                    -3.116821765899658,
                    -1.9247068166732788,
                    -2.10688853263855,
                    0.5830548405647278,
                    0.910940408706665,
                    1.2196847200393677,
                    0.06336932629346848,
                    -1.6667988300323486,
                    -0.4719930589199066,
                    -1.5549019575119019,
                    0.871039867401123,
                    -1.1098984479904175
                ],
                [
                    -0.881818413734436,
                    1.3168538808822632,
                    0.8314394950866699,
                    0.861086905002594,
                    -0.6058545112609863,
                    -0.008651668205857277,
                    -1.5523861646652222,
                    -4.386184215545654,
                    -1.4700665473937988,
                    -0.310272753238678,
                    -0.26565366983413696,
                    5.307492256164551,
                    0.03123573027551174,
                    -2.969587564468384,
                    -0.7148014903068542,
                    2.112701892852783,
                    0.3688696026802063
                ],
                [
                    -1.65794038772583,
                    -2.7397546768188477,
                    1.1363780498504639,
                    -4.612441539764404,
                    0.2658500671386719,
                    -1.0753874778747559,
                    0.1970735788345337,
                    0.004036922939121723,
                    2.622021436691284,
                    2.734734535217285,
                    2.568162441253662,
                    -2.1220526695251465,
                    2.819185972213745,
                    -1.0483242273330688,
                    1.0013707876205444,
                    1.1936191320419312,
                    2.847947835922241
                ],
                [
                    0.7272987961769104,
                    -1.174506425857544,
                    -2.6521177291870117,
                    -0.6686696410179138,
                    -1.7054195404052734,
                    -0.24328143894672394,
                    0.03266773372888565,
                    -1.2397176027297974,
                    1.7253100872039795,
                    -0.6447210907936096,
                    -0.7973794937133789,
                    3.0278737545013428,
                    1.7113056182861328,
                    3.017807722091675,
                    -5.552786827087402,
                    -0.6327206492424011,
                    2.5026309490203857
                ],
                [
                    4.804139614105225,
                    -4.7590556144714355,
                    0.9424412250518799,
                    2.105943202972412,
                    -0.8242188096046448,
                    0.7303208708763123,
                    -0.9063088297843933,
                    -2.536205768585205,
                    1.3166660070419312,
                    -7.055233001708984,
                    -7.470428466796875,
                    0.8140152096748352,
                    -3.9807658195495605,
                    -1.0975806713104248,
                    -1.5064634084701538,
                    -0.0017979249823838472,
                    1.2394708395004272
                ],
                [
                    -1.2018002271652222,
                    0.614183783531189,
                    2.3619747161865234,
                    0.26404866576194763,
                    2.691138744354248,
                    -3.816906690597534,
                    3.28959584236145,
                    0.14756034314632416,
                    1.6681970357894897,
                    -4.241678714752197,
                    1.2922697067260742,
                    -1.387769103050232,
                    -1.7645641565322876,
                    1.749699592590332,
                    -0.5554378628730774,
                    1.0406373739242554,
                    -2.000844717025757
                ],
                [
                    -3.049046277999878,
                    -5.034320831298828,
                    -0.5621151924133301,
                    -0.9188528060913086,
                    3.1660873889923096,
                    1.803200364112854,
                    -0.9296780824661255,
                    0.4883555471897125,
                    1.4967098236083984,
                    -4.269344806671143,
                    -3.7235450744628906,
                    5.477284908294678,
                    0.8838949799537659,
                    2.2298803329467773,
                    1.4778234958648682,
                    5.48305606842041,
                    2.408512830734253
                ],
                [
                    1.4704009294509888,
                    -0.07847333699464798,
                    -1.6175200939178467,
                    0.6190281510353088,
                    -0.8641976714134216,
                    1.0911401510238647,
                    -0.12127913534641266,
                    -0.5342270731925964,
                    3.6648385524749756,
                    0.4258776009082794,
                    -3.1367170810699463,
                    1.3463289737701416,
                    -3.2656264305114746,
                    -1.2595540285110474,
                    -2.595651388168335,
                    0.8341085314750671,
                    2.637380838394165
                ],
                [
                    -1.089636206626892,
                    2.4443910121917725,
                    -2.367893695831299,
                    0.38524505496025085,
                    -1.7150013446807861,
                    0.4376095235347748,
                    0.0467144139111042,
                    -0.0522923581302166,
                    5.95265007019043,
                    -1.1159632205963135,
                    -2.8411664962768555,
                    -0.8130289912223816,
                    3.230475902557373,
                    -0.20273855328559875,
                    -0.46640506386756897,
                    6.005834102630615,
                    -0.7215831875801086
                ]
            ],
            "weightsHO": [
                [
                    -1.068471074104309,
                    -5.415889739990234,
                    0.3103707730770111,
                    -0.9086670279502869,
                    3.7390098571777344,
                    2.165151596069336,
                    4.303133964538574,
                    1.8682507276535034,
                    2.9375569820404053,
                    -2.8505032062530518,
                    2.6786322593688965,
                    1.2234952449798584,
                    -4.48726749420166,
                    -1.1798938512802124,
                    -0.035956352949142456,
                    -1.0771931409835815
                ],
                [
                    1.4959189891815186,
                    -5.4850382804870605,
                    -0.9436014294624329,
                    -0.03469245880842209,
                    4.303810119628906,
                    3.6265769004821777,
                    0.865053653717041,
                    1.3932859897613525,
                    -0.6686277389526367,
                    4.07861328125,
                    -1.723016381263733,
                    0.5976381301879883,
                    -1.9391841888427734,
                    -1.1865179538726807,
                    1.4555989503860474,
                    -1.4832935333251953
                ]
            ],
            "biasH": [
                1.9466367959976196,
                -0.6292399168014526,
                1.141217827796936,
                -1.3971256017684937,
                0.3422481417655945,
                0.018214918673038483,
                2.926969528198242,
                -0.6773653030395508,
                1.3180792331695557,
                0.36493027210235596,
                -0.19723160564899445,
                0.886436939239502,
                1.206987977027893,
                4.531572341918945,
                -0.634548008441925,
                0.6995391845703125
            ],
            "biasO": [
                0.8688191175460815,
                -0.9560501575469971
            ]
        },
        {
            "inputNodes": 17,
            "hiddenNodes": 16,
            "outputNodes": 2,
            "weightsIH": [
                [
                    -2.100389003753662,
                    -5.357424736022949,
                    1.627590537071228,
                    -2.5853641033172607,
                    4.735683441162109,
                    0.831929087638855,
                    -0.8521762490272522,
                    0.30669906735420227,
                    2.536525011062622,
                    0.20739439129829407,
                    1.732597827911377,
                    -4.510334014892578,
                    1.8092584609985352,
                    -2.5626821517944336,
                    0.6187774538993835,
                    -4.315204620361328,
                    -0.6073535084724426
                ],
                [
                    -0.1520860344171524,
                    1.400127649307251,
                    -0.5952737927436829,
                    -3.927446126937866,
                    1.083695411682129,
                    -0.14548401534557343,
                    -0.3173050880432129,
                    -1.1479463577270508,
                    3.5649421215057373,
                    -1.9490883350372314,
                    -2.778686761856079,
                    -1.181370496749878,
                    0.5824487805366516,
                    -1.5434069633483887,
                    -2.281386137008667,
                    -1.9209208488464355,
                    -1.3042933940887451
                ],
                [
                    2.514883279800415,
                    -0.1032819077372551,
                    0.7080274224281311,
                    2.163820266723633,
                    4.881688117980957,
                    1.3727946281433105,
                    0.9285153150558472,
                    -2.595283031463623,
                    0.054192278534173965,
                    0.23681600391864777,
                    0.7630236148834229,
                    -0.9005469083786011,
                    1.459060549736023,
                    1.3156567811965942,
                    1.536441445350647,
                    0.43304312229156494,
                    1.9055672883987427
                ],
                [
                    1.7863459587097168,
                    -1.863236427307129,
                    0.5808695554733276,
                    1.6228560209274292,
                    2.1300559043884277,
                    1.2859086990356445,
                    2.473565101623535,
                    -3.844700813293457,
                    1.553537130355835,
                    0.6478007435798645,
                    2.386259078979492,
                    -3.7181737422943115,
                    6.287622451782227,
                    2.6435153484344482,
                    0.9478008151054382,
                    -1.1735378503799438,
                    -3.5272581577301025
                ],
                [
                    -3.0382297039031982,
                    1.1462171077728271,
                    0.9755260944366455,
                    -1.6594136953353882,
                    1.162785530090332,
                    0.38785526156425476,
                    -3.106358528137207,
                    2.0766427516937256,
                    -2.610278367996216,
                    -1.2270872592926025,
                    0.7653998136520386,
                    -2.390817880630493,
                    2.6628458499908447,
                    -1.586436152458191,
                    -2.536078929901123,
                    0.2644300162792206,
                    -0.628156840801239
                ],
                [
                    -3.8283326625823975,
                    0.24651490151882172,
                    -0.9142799377441406,
                    -3.9900290966033936,
                    -0.17549312114715576,
                    -3.062568187713623,
                    -1.0603134632110596,
                    1.0948153734207153,
                    -0.6703835129737854,
                    -0.13313411176204681,
                    -1.776436448097229,
                    0.42699286341667175,
                    2.1309947967529297,
                    -3.0266246795654297,
                    -0.8587085008621216,
                    1.1150543689727783,
                    -0.03315974026918411
                ],
                [
                    3.010896682739258,
                    -1.2600905895233154,
                    2.861664295196533,
                    -0.830478310585022,
                    -2.44777250289917,
                    -2.551276445388794,
                    -2.0381319522857666,
                    -2.131312847137451,
                    1.5251295566558838,
                    -4.3207106590271,
                    -1.8622519969940186,
                    1.701723337173462,
                    -1.5490199327468872,
                    -1.4794576168060303,
                    -1.1040558815002441,
                    2.327890634536743,
                    -0.9156335592269897
                ],
                [
                    0.6832157969474792,
                    -0.5671425461769104,
                    4.288281440734863,
                    -3.5075814723968506,
                    8.048455238342285,
                    -3.116821765899658,
                    -1.5902185440063477,
                    -2.176170587539673,
                    0.5830548405647278,
                    0.896896243095398,
                    1.2196847200393677,
                    0.055940959602594376,
                    -1.570754885673523,
                    -0.463566392660141,
                    -1.5294193029403687,
                    0.7212309837341309,
                    -1.0694741010665894
                ],
                [
                    -0.8354927897453308,
                    1.3168538808822632,
                    0.8314394950866699,
                    0.8940802216529846,
                    -0.6257733106613159,
                    -0.008651668205857277,
                    -1.5229138135910034,
                    -4.366772651672363,
                    -1.4039709568023682,
                    -0.28129926323890686,
                    -0.26565366983413696,
                    5.395970344543457,
                    0.049577660858631134,
                    -2.969587564468384,
                    -0.5503442883491516,
                    2.2436368465423584,
                    0.280600368976593
                ],
                [
                    -1.8032065629959106,
                    -2.9366438388824463,
                    1.1363780498504639,
                    -4.612441539764404,
                    0.3406447768211365,
                    -1.0433712005615234,
                    0.09774207323789597,
                    0.09730947017669678,
                    2.5803472995758057,
                    2.726428985595703,
                    2.5103611946105957,
                    -2.1687309741973877,
                    2.77583646774292,
                    -1.5581055879592896,
                    1.053044080734253,
                    1.182619333267212,
                    2.847947835922241
                ],
                [
                    0.6369667053222656,
                    -1.0605785846710205,
                    -2.351710319519043,
                    -0.6686696410179138,
                    -1.8053174018859863,
                    -0.28083452582359314,
                    0.25820884108543396,
                    -1.1822415590286255,
                    1.7253100872039795,
                    -0.7409506440162659,
                    -0.8090575933456421,
                    2.9413681030273438,
                    1.7113056182861328,
                    3.017807722091675,
                    -5.740818977355957,
                    -0.7016144394874573,
                    2.4177918434143066
                ],
                [
                    4.9259233474731445,
                    -4.673975467681885,
                    0.8934044241905212,
                    2.630094528198242,
                    -0.886903703212738,
                    0.6991329193115234,
                    -1.2563860416412354,
                    -2.588656187057495,
                    1.36749267578125,
                    -7.055233001708984,
                    -7.4617919921875,
                    0.6380143761634827,
                    -4.017460346221924,
                    -1.0093610286712646,
                    -1.5846010446548462,
                    -0.0017979249823838472,
                    1.2394708395004272
                ],
                [
                    -1.3830164670944214,
                    0.6615619659423828,
                    2.3619747161865234,
                    0.29529711604118347,
                    2.691138744354248,
                    -3.8162548542022705,
                    3.2729458808898926,
                    0.1549822986125946,
                    1.6889255046844482,
                    -4.277121067047119,
                    1.3626636266708374,
                    -1.387769103050232,
                    -1.7486628293991089,
                    1.6681406497955322,
                    -0.5554378628730774,
                    1.0406373739242554,
                    -2.000844717025757
                ],
                [
                    -2.9483447074890137,
                    -5.152766704559326,
                    -0.431713730096817,
                    -0.9815542101860046,
                    3.2492105960845947,
                    1.7906372547149658,
                    -0.9296780824661255,
                    0.512614369392395,
                    1.5700160264968872,
                    -4.0507588386535645,
                    -3.836272954940796,
                    5.477284908294678,
                    0.8674831390380859,
                    2.2298803329467773,
                    1.5503337383270264,
                    5.48305606842041,
                    2.408512830734253
                ],
                [
                    1.3792550563812256,
                    -0.02461249567568302,
                    -1.431288719177246,
                    0.791553258895874,
                    -0.56229168176651,
                    1.1741716861724854,
                    -0.21555310487747192,
                    -0.5342270731925964,
                    3.6741228103637695,
                    0.4258776009082794,
                    -3.1367170810699463,
                    1.3215502500534058,
                    -3.358768939971924,
                    -1.3662692308425903,
                    -2.528201103210449,
                    0.8576303720474243,
                    2.637380838394165
                ],
                [
                    -1.1647069454193115,
                    2.385380983352661,
                    -2.367893695831299,
                    0.32920193672180176,
                    -1.6650891304016113,
                    0.4224741458892822,
                    0.2229943424463272,
                    -0.003796153934672475,
                    6.116281986236572,
                    -0.9406959414482117,
                    -2.8411664962768555,
                    -0.8130289912223816,
                    2.877403974533081,
                    -0.26850461959838867,
                    -0.5401858687400818,
                    6.087343215942383,
                    -0.7820377945899963
                ]
            ],
            "weightsHO": [
                [
                    -1.2289576530456543,
                    -5.415889739990234,
                    0.3102772533893585,
                    -0.842348575592041,
                    3.633054494857788,
                    1.8875824213027954,
                    4.307036876678467,
                    1.868161678314209,
                    2.8161871433258057,
                    -2.8505032062530518,
                    2.6786322593688965,
                    1.1267584562301636,
                    -4.305873870849609,
                    -1.25606369972229,
                    0.02956518344581127,
                    -1.0771931409835815
                ],
                [
                    1.682111144065857,
                    -5.443789482116699,
                    -1.0591154098510742,
                    -0.07437203079462051,
                    3.7353127002716064,
                    3.6265769004821777,
                    0.8109568953514099,
                    1.4690130949020386,
                    -0.7108180522918701,
                    4.217594623565674,
                    -1.8050726652145386,
                    0.5278596878051758,
                    -1.905131459236145,
                    -0.9812729358673096,
                    1.4943175315856934,
                    -1.6065239906311035
                ]
            ],
            "biasH": [
                1.9466367959976196,
                -0.6306713223457336,
                1.141217827796936,
                -1.4185508489608765,
                0.28856074810028076,
                -0.03617912903428078,
                2.926969528198242,
                -0.6773653030395508,
                1.2810946702957153,
                0.36493027210235596,
                -0.19723160564899445,
                0.8319503664970398,
                1.2170010805130005,
                4.644558429718018,
                -0.6139713525772095,
                0.6304140090942383
            ],
            "biasO": [
                0.7420204281806946,
                -0.9560501575469971
            ]
        },
        {
            "inputNodes": 17,
            "hiddenNodes": 16,
            "outputNodes": 2,
            "weightsIH": [
                [
                    -2.185749053955078,
                    -5.3251166343688965,
                    1.627590537071228,
                    -2.5420637130737305,
                    4.735683441162109,
                    0.8164517879486084,
                    -0.6796754002571106,
                    0.19822150468826294,
                    2.3074772357940674,
                    0.13529881834983826,
                    1.7574881315231323,
                    -4.593149662017822,
                    1.8655039072036743,
                    -2.736262559890747,
                    0.6047315001487732,
                    -4.375124931335449,
                    -0.6850747466087341
                ],
                [
                    -0.1520860344171524,
                    1.4574326276779175,
                    -0.5543167591094971,
                    -3.832077980041504,
                    0.9963169097900391,
                    -0.14548401534557343,
                    -0.3838792145252228,
                    -1.1749635934829712,
                    3.6544363498687744,
                    -1.946522831916809,
                    -2.8284380435943604,
                    -1.12646484375,
                    0.8272306323051453,
                    -1.4810619354248047,
                    -2.281386137008667,
                    -1.8430893421173096,
                    -1.3546096086502075
                ],
                [
                    2.4276621341705322,
                    -0.09847055375576019,
                    0.9308503866195679,
                    2.209482431411743,
                    4.797244548797607,
                    1.3727946281433105,
                    0.9677844047546387,
                    -2.7801952362060547,
                    0.06232941523194313,
                    0.23681600391864777,
                    0.6938425302505493,
                    -0.8483598828315735,
                    1.3637667894363403,
                    1.4188064336776733,
                    1.4533183574676514,
                    0.43304312229156494,
                    2.029515027999878
                ],
                [
                    1.8057236671447754,
                    -1.8564656972885132,
                    0.5607088208198547,
                    1.6228560209274292,
                    2.1300559043884277,
                    1.2859086990356445,
                    2.3910880088806152,
                    -3.844700813293457,
                    1.930983304977417,
                    0.7029772996902466,
                    2.369990348815918,
                    -3.863675832748413,
                    6.279093265533447,
                    2.6435153484344482,
                    0.874904453754425,
                    -1.2011429071426392,
                    -3.518791675567627
                ],
                [
                    -3.0965023040771484,
                    1.1763006448745728,
                    0.8839856386184692,
                    -1.5116950273513794,
                    1.162785530090332,
                    0.41840216517448425,
                    -3.106358528137207,
                    2.2757153511047363,
                    -2.5418519973754883,
                    -1.2223533391952515,
                    0.6916312575340271,
                    -2.4262259006500244,
                    2.6628458499908447,
                    -1.5386615991592407,
                    -2.8600335121154785,
                    0.13185220956802368,
                    -0.7417519092559814
                ],
                [
                    -3.6883633136749268,
                    0.2299632877111435,
                    -1.0104273557662964,
                    -3.9900290966033936,
                    -0.08437438309192657,
                    -3.062568187713623,
                    -1.0603134632110596,
                    1.1832882165908813,
                    -0.5989038348197937,
                    -0.07569733262062073,
                    -1.9095908403396606,
                    0.3980381190776825,
                    2.017345428466797,
                    -2.989847421646118,
                    -0.87384033203125,
                    1.0572811365127563,
                    -0.16716130077838898
                ],
                [
                    3.0101935863494873,
                    -1.0116912126541138,
                    2.861664295196533,
                    -0.830478310585022,
                    -2.3116214275360107,
                    -2.551276445388794,
                    -1.985604166984558,
                    -1.8947526216506958,
                    1.5007497072219849,
                    -4.320674896240234,
                    -1.927252173423767,
                    1.7128443717956543,
                    -1.6562020778656006,
                    -1.3753279447555542,
                    -1.0973029136657715,
                    2.327890634536743,
                    -0.6827256083488464
                ],
                [
                    0.4891476035118103,
                    -0.617402195930481,
                    4.288281440734863,
                    -3.5240750312805176,
                    8.048455238342285,
                    -3.142958402633667,
                    -2.0169358253479004,
                    -2.176170587539673,
                    0.3933040201663971,
                    0.910940408706665,
                    1.2196847200393677,
                    0.24799150228500366,
                    -1.570754885673523,
                    -0.406597375869751,
                    -1.5972776412963867,
                    0.7606630921363831,
                    -1.0694741010665894
                ],
                [
                    -0.8354927897453308,
                    1.3168538808822632,
                    0.9077401757240295,
                    0.8747845888137817,
                    -0.6257733106613159,
                    -0.15009066462516785,
                    -1.618727684020996,
                    -4.529571056365967,
                    -1.4039709568023682,
                    -0.27005043625831604,
                    -0.26565366983413696,
                    5.214365482330322,
                    0.08265333622694016,
                    -2.9088876247406006,
                    -0.6599669456481934,
                    2.2590911388397217,
                    0.13926658034324646
                ],
                [
                    -1.717634677886963,
                    -2.6326589584350586,
                    1.042529821395874,
                    -4.612441539764404,
                    0.28077125549316406,
                    -0.7155213356018066,
                    0.20549245178699493,
                    0.1938631534576416,
                    2.625633716583252,
                    2.8430371284484863,
                    2.4782490730285645,
                    -2.2522127628326416,
                    2.8376986980438232,
                    -0.9736054539680481,
                    1.0534933805465698,
                    1.2383654117584229,
                    3.0213286876678467
                ],
                [
                    0.7272987961769104,
                    -1.174506425857544,
                    -2.2580771446228027,
                    -0.6686696410179138,
                    -1.757847547531128,
                    -0.28083452582359314,
                    0.16002285480499268,
                    -1.2397176027297974,
                    1.7215718030929565,
                    -0.7048079967498779,
                    -0.8218643665313721,
                    2.9666807651519775,
                    1.7113056182861328,
                    2.997955322265625,
                    -5.914093017578125,
                    -0.6327206492424011,
                    2.407384157180786
                ],
                [
                    4.841367244720459,
                    -4.711190223693848,
                    0.9424412250518799,
                    2.630094528198242,
                    -0.9125526547431946,
                    0.7930842041969299,
                    -1.2639210224151611,
                    -2.536205768585205,
                    1.36749267578125,
                    -6.997696399688721,
                    -7.514706611633301,
                    0.8685540556907654,
                    -3.9807658195495605,
                    -1.075829029083252,
                    -1.5686482191085815,
                    -0.07961605489253998,
                    1.2458343505859375
                ],
                [
                    -1.3856377601623535,
                    0.8800593018531799,
                    2.1351401805877686,
                    0.26404866576194763,
                    2.691138744354248,
                    -3.848484516143799,
                    3.2723798751831055,
                    0.14756034314632416,
                    1.7547491788864136,
                    -4.151300430297852,
                    1.2922697067260742,
                    -1.387769103050232,
                    -1.8325973749160767,
                    1.6681406497955322,
                    -0.3582369387149811,
                    0.9419621229171753,
                    -2.016810894012451
                ],
                [
                    -2.9805948734283447,
                    -5.234012126922607,
                    -0.431713730096817,
                    -1.046675443649292,
                    3.0660836696624756,
                    1.7796903848648071,
                    -0.9296780824661255,
                    0.5535684823989868,
                    1.4817906618118286,
                    -3.957350969314575,
                    -3.693587303161621,
                    5.595422267913818,
                    0.9350072741508484,
                    2.100289821624756,
                    1.4778234958648682,
                    5.4603495597839355,
                    2.408512830734253
                ],
                [
                    1.4704009294509888,
                    -0.11918428540229797,
                    -1.2968217134475708,
                    0.6190281510353088,
                    -0.56229168176651,
                    1.0911401510238647,
                    -0.2028352916240692,
                    -0.4746952950954437,
                    3.680504083633423,
                    0.46337607502937317,
                    -3.0046873092651367,
                    1.3215502500534058,
                    -3.0296552181243896,
                    -1.2839938402175903,
                    -2.314870834350586,
                    0.9049287438392639,
                    2.637380838394165
                ],
                [
                    -1.171585202217102,
                    2.1932826042175293,
                    -2.4346776008605957,
                    0.32920193672180176,
                    -1.7291486263275146,
                    0.4984511733055115,
                    0.14318901300430298,
                    0.06183457002043724,
                    6.029473781585693,
                    -1.1069045066833496,
                    -2.8411664962768555,
                    -0.6362325549125671,
                    3.141916513442993,
                    -0.03782431036233902,
                    -0.46640506386756897,
                    5.9330525398254395,
                    -0.7702863812446594
                ]
            ],
            "weightsHO": [
                [
                    -1.2123621702194214,
                    -5.156757831573486,
                    0.3102772533893585,
                    -0.9086670279502869,
                    3.795987844467163,
                    2.1651551723480225,
                    4.303133964538574,
                    1.9385895729064941,
                    2.9375569820404053,
                    -2.8505032062530518,
                    2.733954906463623,
                    1.2234952449798584,
                    -4.48726749420166,
                    -1.2155046463012695,
                    -0.22361594438552856,
                    -1.0771931409835815
                ],
                [
                    1.4959189891815186,
                    -5.533040523529053,
                    -1.0550792217254639,
                    -0.04827143996953964,
                    4.30504035949707,
                    3.5120036602020264,
                    0.868661642074585,
                    1.3932859897613525,
                    -0.7187763452529907,
                    4.0847578048706055,
                    -1.723016381263733,
                    0.5945863723754883,
                    -2.0277466773986816,
                    -0.9812729358673096,
                    1.5155870914459229,
                    -1.5646636486053467
                ]
            ],
            "biasH": [
                2.04248046875,
                -0.5837581753730774,
                0.9941673874855042,
                -1.3971256017684937,
                0.3592230975627899,
                -0.03617912903428078,
                2.8972461223602295,
                -0.5952544808387756,
                1.3348556756973267,
                0.45393726229667664,
                -0.19723160564899445,
                0.9006422758102417,
                1.2170010805130005,
                4.644558429718018,
                -0.6809714436531067,
                0.6079397797584534
            ],
            "biasO": [
                0.8265450596809387,
                -0.8807812333106995
            ]
        },
        {
            "inputNodes": 17,
            "hiddenNodes": 16,
            "outputNodes": 2,
            "weightsIH": [
                [
                    -2.185749053955078,
                    -5.306251049041748,
                    1.500901222229004,
                    -2.5853641033172607,
                    4.848757266998291,
                    0.7394689321517944,
                    -0.8521762490272522,
                    0.19822150468826294,
                    2.22564435005188,
                    0.08377398550510406,
                    1.732597827911377,
                    -4.510334014892578,
                    1.714903473854065,
                    -2.5626821517944336,
                    0.7259185910224915,
                    -4.375124931335449,
                    -0.7285845279693604
                ],
                [
                    -0.1520860344171524,
                    1.3702858686447144,
                    -0.5543167591094971,
                    -3.927446126937866,
                    1.002076268196106,
                    -0.17909686267375946,
                    -0.40839168429374695,
                    -1.2707198858261108,
                    3.554352045059204,
                    -1.9730095863342285,
                    -2.836191415786743,
                    -1.1162338256835938,
                    0.6153090596199036,
                    -1.6397603750228882,
                    -2.3026156425476074,
                    -1.9209208488464355,
                    -1.3293887376785278
                ],
                [
                    2.493302822113037,
                    -0.261006623506546,
                    0.7504155039787292,
                    2.163820266723633,
                    4.751414775848389,
                    1.4541287422180176,
                    0.9591536521911621,
                    -2.6861793994903564,
                    0.09777693450450897,
                    0.23681600391864777,
                    0.6725029349327087,
                    -0.9005469083786011,
                    1.3637667894363403,
                    1.3156567811965942,
                    1.5850096940994263,
                    0.4767548143863678,
                    1.967368721961975
                ],
                [
                    1.708990454673767,
                    -1.863236427307129,
                    0.6124491095542908,
                    1.6418575048446655,
                    2.0694239139556885,
                    1.2813036441802979,
                    2.414947748184204,
                    -3.8345484733581543,
                    2.004542827606201,
                    0.6951567530632019,
                    2.4764199256896973,
                    -3.757791519165039,
                    6.287622451782227,
                    2.6435153484344482,
                    0.9643104672431946,
                    -1.1979491710662842,
                    -3.5018956661224365
                ],
                [
                    -3.0938661098480225,
                    1.1458144187927246,
                    0.9755260944366455,
                    -1.583147406578064,
