{
    "generation": 209,
    "totalTime": 9363.333333281227,
    "allTimeBestScore": 959.1820569992493,
    "brains": [
        {
            "inputNodes": 17,
            "hiddenNodes": 16,
            "outputNodes": 2,
            "weightsIH": [
                [
                    -1.2687704307903533,
                    -4.611066176249154,
                    1.5964469909058006,
                    -2.069896393961573,
                    4.398558766633084,
                    1.0606560249771395,
                    -0.42350329714472124,
                    0.27312208587516307,
                    2.1313394585518517,
                    0.19059918999878933,
                    1.6010933004554482,
                    -4.1036103023729975,
                    1.560104680729102,
                    -2.734653062039735,
                    0.732326826524382,
                    -4.01932209491562,
                    -1.1984995384528458
                ],
                [
                    -0.22148307081880558,
                    0.8787724388361984,
                    -0.6875713984989711,
                    -4.0474399729209205,
                    0.41505012912793826,
                    0.022559039841744455,
                    -0.3516620954454508,
                    -1.2637249673799382,
                    3.2693136306535684,
                    -1.4081968163842826,
                    -2.508934641691593,
                    -1.336211914532844,
                    1.027842148989883,
                    -0.8043114016084107,
                    -2.4845977937698467,
                    -1.7302537302905128,
                    -1.4229972322056181
                ],
                [
                    2.2177946075334303,
                    -0.3334243801813329,
                    1.287037836861155,
                    1.9704457751441122,
                    4.423699380021936,
                    1.5869294294884217,
                    0.42497933101454544,
                    -2.1814858860517807,
                    0.08354144200660996,
                    0.05735646461422195,
                    1.204987808047672,
                    -0.7284222097111935,
                    1.5923974032220154,
                    2.085399001355741,
                    1.826176397494356,
                    -0.0709252610533132,
                    1.7036413136963144
                ],
                [
                    2.117415104538157,
                    -1.5315887264473163,
                    0.48458569377527005,
                    2.055602372597926,
                    0.9564889245914114,
                    1.2086114312160365,
                    3.103668598259654,
                    -3.596900943502358,
                    1.4483383839221893,
                    0.317831121121685,
                    2.0791800150621036,
                    -3.094312839907326,
                    6.341721684821246,
                    2.5063176892863916,
                    1.3715907178414923,
                    -0.3471044717062478,
                    -2.9281005289893507
                ],
                [
                    -3.476120814831517,
                    1.6140077195858709,
                    1.0139492575356073,
                    -1.3458203456643014,
                    1.922361002527103,
                    0.549163919688946,
                    -3.322966668423128,
                    2.8330517335212693,
                    -2.275577905737042,
                    -0.8771940033414788,
                    1.0060953466716667,
                    -2.7125063274598222,
                    2.8343107663023357,
                    -1.8114430544298594,
                    -3.149775853290052,
                    0.01274969173421514,
                    -0.22014945152415077
                ],
                [
                    -4.439604592561619,
                    -0.27909659098931683,
                    -0.7761246628512765,
                    -3.7307577077683494,
                    0.20606526897464883,
                    -2.9566542268343876,
                    -1.3887859692633702,
                    1.088831494804297,
                    -0.8691063001457606,
                    0.066542537046271,
                    -1.0785223307004337,
                    0.6924143428471746,
                    1.7271389831157167,
                    -2.5608996571844176,
                    -0.968407164891817,
                    1.0071320152239147,
                    -0.934867952552415
                ],
                [
                    2.5735581714041333,
                    -0.8354323366318516,
                    2.315040897774306,
                    -0.16381546448388773,
                    -2.3679661806126377,
                    -2.100354390596764,
                    -2.069013100848636,
                    -2.2898068391401796,
                    1.8996943449401118,
                    -3.787550947995615,
                    -2.259558820744724,
                    1.5380308478325055,
                    -1.6448663223403,
                    -1.1808113989142603,
                    -0.6457580131687388,
                    2.3567561365997918,
                    -1.6575190692469959
                ],
                [
                    0.600835492681745,
                    -0.7025715069792703,
                    4.033067899777357,
                    -3.466988552132639,
                    7.837751286335947,
                    -2.9245073208136834,
                    -1.8355720096109804,
                    -2.4124209068617675,
                    0.95369354989562,
                    -0.08884369166984141,
                    1.1093332709306987,
                    0.01746329378566769,
                    -0.8346892533253293,
                    -0.9292359248220674,
                    -2.0315083009171957,
                    0.8148139968886777,
                    -1.6919293907240385
                ],
                [
                    -0.9616161103157828,
                    1.4748107747669512,
                    1.2290234944853782,
                    0.025806237158174206,
                    -0.95859837862214,
                    -0.28236941819940686,
                    -1.2281187129950082,
                    -4.511022479211863,
                    -0.6280465322918398,
                    -0.06911583828332368,
                    0.04617129304482992,
                    5.08678385277466,
                    0.2372413688089985,
                    -2.7708477165084706,
                    -0.5970082562987524,
                    2.3282884056341766,
                    0.4867476159063475
                ],
                [
                    -2.029641560996377,
                    -2.887403432630015,
                    0.37101061841506056,
                    -4.495346548028187,
                    0.9023503296755683,
                    -0.6732876125942725,
                    -0.7222076052244929,
                    0.5028735022447878,
                    2.8899917982759717,
                    3.8226253086243758,
                    2.6079238540316436,
                    -2.464117482281675,
                    2.41427483552941,
                    -1.286481920667021,
                    1.1243108263401567,
                    2.2157976626387206,
                    3.0381886759922274
                ],
                [
                    0.21523745414606044,
                    -0.6913771425363489,
                    -2.2344117137249757,
                    -0.3480921683544881,
                    -1.402726481895395,
                    -0.41493084372067157,
                    0.4477074522372583,
                    -1.418920750605603,
                    1.097076396198927,
                    -0.4455996843137622,
                    -1.3617508737589015,
                    2.94061638952275,
                    1.3457094434751031,
                    3.2941362006075594,
                    -5.879678450230243,
                    -0.31889508750304574,
                    2.0601672782679556
                ],
                [
                    4.8842982011353575,
                    -4.263639446931902,
                    0.8520723475080327,
                    1.4585261062120614,
                    -1.4899522240564722,
                    -0.3793194379246171,
                    -0.7219838208424247,
                    -2.3096743735636895,
                    1.1196369303935705,
                    -7.091110772473668,
                    -7.491469516526314,
                    0.11548008150256994,
                    -3.6650751582442584,
                    -1.5735285109299206,
                    -1.1259007261654124,
                    -0.18374204099012492,
                    1.2376023574155335
                ],
                [
                    -1.335039828536848,
                    1.0618147733327976,
                    1.843464333854342,
                    -0.10306895346154321,
                    3.1347621858953394,
                    -3.7246193587223226,
                    2.9523111177292876,
                    0.07812515854755375,
                    2.861192258515759,
                    -3.6673645523695466,
                    1.0624018083633042,
                    -1.7581232258188775,
                    -2.08918925194487,
                    1.3365712838328452,
                    -0.7243640303691399,
                    1.2081512886376453,
                    -2.1540250465994095
                ],
                [
                    -3.0392297307221434,
                    -5.1931611256826855,
                    -0.6688371024374894,
                    -0.9048574564475153,
                    2.7544621845722177,
                    2.3318351642482558,
                    -0.7553681698252036,
                    1.2938530382853939,
                    1.7329415144755218,
                    -4.060416395739816,
                    -4.935163521017827,
                    5.855143610392169,
                    1.2229195943957911,
                    1.3222745089705534,
                    1.659880165245877,
                    5.568710900073766,
                    2.238486781220973
                ],
                [
                    0.014985242879396843,
                    0.1378301808016168,
                    -1.7524641047896288,
                    0.13407421030034272,
                    0.29991617057349906,
                    1.1509715787230244,
                    -0.2379118519498814,
                    -0.035820107956297975,
                    3.5291104523377133,
                    1.1860746412596013,
                    -3.787987891314692,
                    1.7797634794497452,
                    -3.0894723600533247,
                    -1.0460610088931994,
                    -2.4057238816230067,
                    0.4968286365033242,
                    2.2261327374186113
                ],
                [
                    -0.5500314150024954,
                    1.8265068544551555,
                    -3.213823308851887,
                    1.0661878987074482,
                    -2.093056846294075,
                    0.6588088566610836,
                    -0.0140997369760133,
                    0.08889854940907582,
                    5.701340017997523,
                    -1.1630119698721209,
                    -2.296582601198018,
                    -0.4809754470684232,
                    3.496312145016714,
                    -0.1330708265268592,
                    -0.4035895966071762,
                    6.670475316150408,
                    -0.9178680357027057
                ]
            ],
            "weightsHO": [
                [
                    -1.2753575785270033,
                    -5.114494979236452,
                    0.2846012996624001,
                    -0.11469995943880706,
                    3.7585272129201135,
                    2.683343187654561,
                    4.043299734118084,
                    1.8279136003153207,
                    2.944676072596579,
                    -2.9735148884133356,
                    2.74094982780298,
                    1.1190624089104184,
                    -4.4589545306985245,
                    -1.7809297957594499,
                    -0.30574468787565223,
                    -1.0364502762782435
                ],
                [
                    1.885775092920299,
                    -5.202746096913933,
                    -0.7426417969816461,
                    0.14616053880239754,
                    4.4453941932042484,
                    4.384174324220378,
                    0.6575912772060031,
                    1.8301647392655973,
                    -1.2358790962120714,
                    4.201998096206515,
                    -1.9443438905893147,
                    0.3822662909305219,
                    -1.285839705504734,
                    -1.276578190086926,
                    0.91668152086798,
                    -1.7633510862316208
                ]
            ],
            "biasH": [
                2.2899959086921857,
                -0.056942128666393255,
                1.2062305128421937,
                -1.2976917333780866,
                0.5160240710913101,
                -0.4277143709999417,
                3.1239724047167385,
                -0.5777544047230897,
                1.6398138680872831,
                0.38072301022992894,
                -0.03674114769707859,
                0.8835580979931231,
                0.8038763892778282,
                4.708682711105348,
                -0.6879550581592854,
                0.9937832706380867
            ],
            "biasO": [
                0.6583385540657665,
                -1.2592249401299824
            ]
        },
        {
            "inputNodes": 17,
            "hiddenNodes": 16,
            "outputNodes": 2,
            "weightsIH": [
                [
                    -0.7914760708595002,
                    -4.961970992739348,
                    1.6375987016845597,
                    -2.644628876799524,
                    4.246150790804762,
                    1.5700589311119084,
                    -1.036059449828978,
                    0.7610519416639536,
                    2.5097987254903438,
                    -1.3192053520197216,
                    0.9163019508152513,
                    -3.3613517911980013,
                    1.5014702196051672,
                    -1.3407324360389545,
                    1.0417805761464138,
                    -1.9465233216361422,
                    -2.8648062423247156
                ],
                [
                    0.29293329319688266,
                    0.9622775905465077,
                    -0.5302531860505347,
                    -3.509893852850609,
                    0.33102097581555345,
                    -0.6433318726694643,
                    -0.9731225149514653,
                    -1.0345908489037443,
                    1.5500452758840222,
                    -2.198101050852352,
                    -3.2637653875652504,
                    -1.7918169845082885,
                    0.7582855179240875,
                    -0.2556047185451702,
                    0.23696988823643172,
                    -1.2547097957229982,
                    -1.1640562846107763
                ],
                [
                    2.392360217649564,
                    -0.9913338405272695,
                    0.5194590143517452,
                    0.05924610004683972,
                    4.592259524181799,
                    0.8972286385243273,
                    -0.46941963399655606,
                    -1.7961010559429822,
                    1.4467904024038876,
                    1.3372010323049472,
                    1.9112450446320852,
                    -0.5670530800459678,
                    2.458871432305514,
                    1.4347490070871811,
                    2.4782610640616247,
                    0.25884369148550335,
                    2.0499281502886437
                ],
                [
                    1.1677778746122327,
                    -2.611213225961134,
                    1.074131708173329,
                    1.8506101253886098,
                    2.482724891372035,
                    3.5572461083460887,
                    5.151636662776419,
                    -4.180923977096744,
                    1.3610510916650007,
                    0.9395067535860895,
                    1.7969391858376622,
                    -2.4665935821851632,
                    5.275981298694568,
                    2.1451250251267564,
                    1.1358958697575008,
                    -0.10205300115728666,
                    -4.004992956428313
                ],
                [
                    -3.1115719210751682,
                    0.7182488139207466,
                    1.1930330496165542,
                    -1.3695287495420274,
                    1.266942984101137,
                    0.2677766802869066,
                    -4.173178353216165,
                    3.673471455885279,
                    -2.018125781065298,
                    0.12906055049952536,
                    0.8697722940153599,
                    -1.6190532140755294,
                    1.9768554649331145,
                    -1.0993423873205814,
                    -4.139814495909332,
                    -0.11312062568776371,
                    -0.4662128036136577
                ],
                [
                    -4.129021158235004,
                    -0.8689667307487648,
                    -0.15122114442325651,
                    -3.0408235344283634,
                    -0.9333388705589368,
                    -4.028612606024872,
                    -1.2900846535215245,
                    0.7770369932936115,
                    -0.8855737764741349,
                    -0.4808279819738138,
                    -0.6180060654203416,
                    0.31465030109160497,
                    1.9038067071676488,
                    -3.07412994353314,
                    -0.33218809500964264,
                    1.8378008946384958,
                    -0.5149338237898855
                ],
                [
                    2.787432297212923,
                    1.0266822740945722,
                    2.4967341561642518,
                    0.34778099496255266,
                    -3.946657375360536,
                    -2.020193724353514,
                    -2.546313159603896,
                    -1.9984030262923276,
                    1.2107906613293384,
                    -4.709025043168344,
                    -2.0632126163998064,
                    1.917907345939514,
                    -1.9572006819865697,
                    -1.52574586126734,
                    -1.218214546074515,
                    2.223308036839045,
                    -1.2996339238647532
                ],
                [
                    0.5229642122381568,
                    -1.7248467779737773,
                    5.400755441597066,
                    -2.79457857954626,
                    7.869756083575142,
                    -3.05871196686112,
                    -1.8431607359638889,
                    -2.0834754154312765,
                    -0.7103948661440606,
                    1.1808265766372705,
                    0.9413055932835231,
                    -1.2298637741974798,
                    -1.769742373849715,
                    0.4176707268976093,
                    -1.323419974828864,
                    1.3360999776053601,
                    -0.17186099926717502
                ],
                [
                    -0.6476490053544525,
                    1.9775944259187468,
                    1.1842082382676522,
                    -1.2703216516542177,
                    -0.8028377683968001,
                    -1.1163848358329056,
                    -0.6776066825780177,
                    -4.2020484718884745,
                    0.8324717390842926,
                    -0.6434053463904303,
                    0.0986118545255249,
                    4.947959839516,
                    -0.5586554520077712,
                    -1.4767733668567318,
                    -1.8869547654633094,
                    1.4724469048688817,
                    0.7716616919017728
                ],
                [
                    -1.573658654740962,
                    -1.1098155859393375,
                    0.37438860361879345,
                    -2.754409380391798,
                    -0.354369911235462,
                    -1.2773786083122247,
                    -1.1505187950237281,
                    0.5812188876023127,
                    3.409132626412624,
                    2.8180976781222498,
                    2.3777865741348223,
                    -1.8341356405505267,
                    2.972921336324839,
                    -2.529412997385136,
                    1.7056399970491873,
                    1.6315266172244551,
                    2.8049013525705013
                ],
                [
                    0.6935607324020551,
                    0.3211644738028532,
                    -2.031100537753855,
                    0.15362463286172034,
                    -0.7513470883936165,
                    0.1659659746281711,
                    0.26267210292767773,
                    -2.2728973784536928,
                    2.5618868026333814,
                    -0.5833787982463455,
                    -0.8651235501387445,
                    2.989353613127987,
                    2.281220776083076,
                    2.7498972275791704,
                    -4.478016002178427,
                    -1.3987660711580419,
                    1.887112235946499
                ],
                [
                    4.802457024187544,
                    -2.326283774220525,
                    0.6876414247089473,
                    0.8819938684185433,
                    -1.2196706553096484,
                    0.11924677769528857,
                    -0.20704407811995396,
                    -3.4783804784526873,
                    0.5869976556800991,
                    -5.500102895540142,
                    -5.8909261762556575,
                    0.9513723331347698,
                    -5.119728093838071,
                    -1.4064802735542983,
                    -1.2202816436435509,
                    0.947483725275567,
                    0.6506365164470663
                ],
                [
                    -2.0829777357837496,
                    0.9576435148480986,
                    0.6995112508561494,
                    -0.029926320071564594,
                    2.1450222938597716,
                    -3.660284331178089,
                    2.666430966964485,
                    -0.2055971601787937,
                    3.573351902946318,
                    -4.0676843070611515,
                    1.4713962425613378,
                    -1.9433155603272272,
                    -2.1329814477260447,
                    1.3527597555905015,
                    0.06924577991300207,
                    0.554737316649559,
                    -1.9747526653732905
                ],
                [
                    -2.557083981611733,
                    -3.648663267787523,
                    -0.5105922741538595,
                    -0.06750282617272363,
                    2.3941263937546338,
                    1.6832333619282673,
                    -0.1027366265178985,
                    1.1039439643580997,
                    2.621918617391229,
                    -3.348902895289949,
                    -4.446619554741646,
                    5.136270750571417,
                    1.1803780834938837,
                    2.5798926082633953,
                    1.3534682346328395,
                    3.926891470513471,
                    1.7866026356051528
                ],
                [
                    0.15489303799349885,
                    0.524751839960071,
                    -2.7756157220249857,
                    0.3376076772842994,
                    -0.14752783972074945,
                    0.8924488712876644,
                    -1.200307476192823,
                    -0.467814655516931,
                    3.481241715741843,
                    0.8329811159397273,
                    -2.4797652699829182,
                    0.1701693009854508,
                    -4.064008148185136,
                    -0.2711638376232298,
                    -1.9497734390157155,
                    -0.403129517315129,
                    3.1108398399722
                ],
                [
                    -0.341536843676184,
                    3.5006325010285493,
                    -3.564981553541136,
                    0.9440110944009186,
                    -1.4975914094745066,
                    1.5376056904258606,
                    -0.8369678838685469,
                    -0.10882999028964824,
                    7.15509279331925,
                    -1.1826953525173678,
                    -1.254269789063374,
                    -0.25050989304412163,
                    3.7846164839849603,
                    -0.07629381270164926,
                    -0.9340309932820021,
                    6.339155795256015,
                    -0.27684577225549944
                ]
            ],
            "weightsHO": [
                [
                    -0.7692752003730837,
                    -5.3045227774069375,
                    2.163536566682189,
                    -0.987882249951508,
                    4.589633451038789,
                    1.8153737398079266,
                    4.6681506684568586,
                    1.53136633471586,
                    2.2534837730029,
                    -2.408683525934973,
                    2.9002120790916335,
                    1.4798471180285857,
                    -4.035981767939835,
                    -1.0174311652055097,
                    -1.2399396389498016,
                    -0.686328136274554
                ],
                [
                    1.975061731776856,
                    -4.06420929086373,
                    -1.3460087841127306,
                    -0.26895545856486214,
                    3.4149399100723565,
                    2.9595656506125603,
                    1.7429783516058865,
                    0.6759763979518072,
                    -0.6924806756774191,
                    3.6753470670581994,
                    -0.5089499524322318,
                    1.3023661168955851,
                    -2.4218933641024436,
                    0.15199164987120917,
                    0.48717453083210516,
                    -2.781587893769858
                ]
            ],
            "biasH": [
                1.9100337295445393,
                -0.6592928744331324,
                1.097171169686355,
                -0.4909050099532445,
                0.5971230203417198,
                -0.07394603952958867,
                2.9677321114511157,
                0.5240115878459343,
                0.2641318490063951,
                1.915080688239566,
                -0.43995981688864927,
                0.8808025537560168,
                1.4603017985086084,
                5.596136925817127,
                -1.629979245749407,
                0.5663614064362527
            ],
            "biasO": [
                0.8940421209825693,
                -0.2124891270095216
            ]
        },
        {
            "inputNodes": 17,
            "hiddenNodes": 16,
            "outputNodes": 2,
            "weightsIH": [
                [
                    -0.7914760708595002,
                    -4.786750390577077,
                    1.3930936537831278,
                    -2.644628876799524,
                    3.861739282578144,
                    0.820724627089012,
                    -0.654924570423507,
                    0.7610519416639536,
                    2.8632112980625806,
                    -1.3192053520197216,
                    0.9163019508152513,
                    -3.3613517911980013,
                    1.6927883003538302,
                    -1.3407324360389545,
                    1.0417805761464138,
                    -2.112124487679782,
                    -2.8648062423247156
                ],
                [
                    0.29293329319688266,
                    0.6345461851279197,
                    -0.5302531860505347,
                    -4.0887914090504855,
                    0.33102097581555345,
                    -0.2163887129905453,
                    -0.74162054586619,
                    -1.0345908489037443,
                    1.3718409137755199,
                    -2.198101050852352,
                    -2.838665803989819,
                    -1.384257743751169,
                    0.7582855179240875,
                    -0.5518465715045868,
                    0.23696988823643172,
                    -1.3432894167473255,
                    -1.1640562846107763
                ],
                [
                    2.4984647713247834,
                    -0.9913338405272695,
                    0.8786746051573145,
                    0.31133312644521016,
                    4.846745679660089,
                    0.6114789745908827,
                    0.003268423214275784,
                    -1.7961010559429822,
                    1.8305202020027114,
                    1.3372010323049472,
                    1.9112450446320852,
                    -0.9566153528382261,
                    2.458871432305514,
                    1.5730219139784993,
                    2.4782610640616247,
                    0.06348216902038073,
                    1.8651035477466307
                ],
                [
                    1.1756265004704485,
                    -2.88662575931827,
                    0.3450919587441834,
                    1.8506101253886098,
                    2.482724891372035,
                    3.5572461083460887,
                    4.611719069290306,
                    -4.180923977096744,
                    1.3610510916650007,
                    0.6186948274505633,
                    1.7969391858376622,
                    -2.4665935821851632,
                    5.274581206858901,
                    2.072122991061489,
                    0.7850460616829404,
                    -0.5325336970593642,
                    -4.004992956428313
                ],
                [
                    -3.1115719210751682,
                    0.8140090942240097,
                    1.1930330496165542,
                    -0.8925576677048456,
                    1.266942984101137,
                    -0.4411292069273888,
                    -4.173178353216165,
                    3.163220797426438,
                    -2.018125781065298,
                    0.12906055049952536,
                    0.6055215383087107,
                    -2.115385997798855,
                    1.9768554649331145,
                    -0.6194953536850883,
                    -4.139814495909332,
                    0.25684090502947265,
                    -1.0103514632071242
                ],
                [
                    -4.087194509070073,
                    -0.8215558635815725,
                    -0.15122114442325651,
                    -3.0408235344283634,
                    -0.9333388705589368,
                    -4.22623970606369,
                    -1.6354196164910566,
                    1.321628886399843,
                    -0.8855737764741349,
                    -0.4808279819738138,
                    -0.6180060654203416,
                    0.775363839546696,
                    1.9038067071676488,
                    -3.07412994353314,
                    -0.17648765233526464,
                    1.8378008946384958,
                    -0.5149338237898855
                ],
                [
                    2.787432297212923,
                    1.0266822740945722,
                    2.2727760080131247,
                    0.34778099496255266,
                    -3.946657375360536,
                    -1.7592808675002867,
                    -2.529405035681118,
                    -1.5599824259217978,
                    1.2107906613293384,
                    -5.069902937560584,
                    -2.0632126163998064,
                    2.171077877818928,
                    -1.5977481963340923,
                    -1.52574586126734,
                    -1.218214546074515,
                    2.223308036839045,
                    -1.2996339238647532
                ],
                [
                    0.5229642122381568,
                    -2.01344180069962,
                    4.949068916540937,
                    -2.598706751480862,
                    7.466155419792642,
                    -2.6382406034087125,
                    -1.8431607359638889,
                    -2.0834754154312765,
                    -0.24015918186636498,
                    1.1808265766372705,
                    0.9413055932835231,
                    -1.2298637741974798,
                    -1.3762614033867102,
                    -0.019279257312579845,
                    -1.631280120271799,
                    1.3360999776053601,
                    -0.4284423405494996
                ],
                [
                    -0.8594049011398948,
                    1.9775944259187468,
                    1.3024392529404392,
                    -1.7404574523449794,
                    -0.36463641907373634,
                    -1.1163848358329056,
                    -0.6776066825780177,
                    -4.015114908981362,
                    0.4351862083018283,
                    -0.9928416822585421,
                    0.0986118545255249,
                    5.001142876396081,
                    -0.5586554520077712,
                    -1.4767733668567318,
                    -2.1265982549246694,
                    1.8146816214400638,
                    0.4740020499322777
                ],
                [
                    -1.573658654740962,
                    -1.1098155859393375,
                    0.37438860361879345,
                    -2.754409380391798,
                    -0.354369911235462,
                    -1.0898671571382947,
                    -1.1505187950237281,
                    0.5812188876023127,
                    3.555255085422045,
                    2.8180976781222498,
                    2.24956009551257,
                    -1.8341356405505267,
                    2.972921336324839,
                    -2.529412997385136,
                    1.475528001536854,
                    1.752419394092838,
                    2.712253075316946
                ],
                [
                    -0.01061169208279833,
                    0.3211644738028532,
                    -1.7754933366337933,
                    0.15362463286172034,
                    -0.7513470883936165,
                    -0.14073006991957582,
                    0.4504792977819184,
                    -2.2728973784536928,
                    2.5618868026333814,
                    -0.5833787982463455,
                    -0.8651235501387445,
                    3.468612999086614,
                    2.2442425465368525,
                    2.7498972275791704,
                    -4.478016002178427,
                    -1.6090517260508572,
                    1.887112235946499
                ],
                [
                    4.384801891040449,
                    -2.326283774220525,
                    0.5498115497779005,
                    0.38309985085221,
                    -0.9506652821807635,
                    0.11924677769528857,
                    -0.20704407811995396,
                    -3.4783804784526873,
                    0.5869976556800991,
                    -5.942576036221826,
                    -5.774339332317286,
                    0.9513723331347698,
                    -5.119728093838071,
                    -1.4064802735542983,
                    -1.2202816436435509,
                    1.411596734723904,
                    0.6506365164470663
                ],
                [
                    -2.0829777357837496,
                    0.6442754123192829,
                    0.24052106767806114,
                    -0.029926320071564594,
                    2.1450222938597716,
                    -3.660284331178089,
                    2.666430966964485,
                    -0.2055971601787937,
                    3.573351902946318,
                    -4.0676843070611515,
                    1.4713962425613378,
                    -1.9433155603272272,
                    -1.7753019592299988,
                    0.7447836857007024,
                    0.06924577991300207,
                    0.554737316649559,
                    -1.9747526653732905
                ],
                [
                    -2.3553487536749267,
                    -3.0585164728770384,
                    -0.5105922741538595,
                    -0.06750282617272363,
                    2.806230429887263,
                    1.422776458776966,
                    -0.23044234451559653,
                    1.1039439643580997,
                    2.385737455513872,
                    -3.348902895289949,
                    -4.446619554741646,
                    5.485219164954119,
                    1.1803780834938837,
                    2.5798926082633953,
                    1.9118988031580615,
                    4.338514552520232,
                    1.7866026356051528
                ],
                [
                    0.08863122119609612,
                    0.524751839960071,
                    -2.7756157220249857,
                    0.3376076772842994,
                    -0.14752783972074945,
                    0.8924488712876644,
                    -1.1079626591864777,
                    -0.6123461764803702,
                    3.481241715741843,
                    0.8329811159397273,
                    -2.4797652699829182,
                    0.5764629882079072,
                    -4.22177111513961,
                    -0.2711638376232298,
                    -1.9497734390157155,
                    0.0519213372153724,
                    3.1108398399722
                ],
                [
                    -0.18760160370086865,
                    3.4612263825970584,
                    -3.8201763940613285,
                    1.1575604320052368,
                    -1.4975914094745066,
                    1.777379620370797,
                    -0.8369678838685469,
                    -0.10882999028964824,
                    7.15509279331925,
                    -1.4384165819769423,
                    -1.6088655113549426,
                    0.08454499344215394,
                    3.7846164839849603,
                    -0.07629381270164926,
                    -1.1340739566907279,
                    6.422530539749408,
                    -0.27684577225549944
                ]
            ],
            "weightsHO": [
                [
                    -0.4538478389649404,
                    -5.3045227774069375,
                    1.9870209616284589,
                    -0.647681091219166,
                    4.147874181655476,
                    2.022104398884343,
                    4.665779575409935,
                    1.53136633471586,
                    2.4531718475632665,
                    -2.408683525934973,
                    2.5182453421217077,
                    1.249881573636714,
                    -3.6492936242640406,
                    -1.0174311652055097,
                    -1.2347903741346526,
                    -0.8304890064827677
                ],
                [
                    1.975061731776856,
                    -4.394450039557018,
                    -1.289045671535607,
                    -0.26895545856486214,
                    3.845190716640989,
                    3.0550445603849523,
                    1.943956590223009,
                    0.7503566166909285,
                    -0.8263546027014006,
                    3.8053752272420622,
                    -0.8707127217701862,
                    1.3023661168955851,
                    -1.6879855200611873,
                    0.15199164987120917,
                    0.2339921336235664,
                    -2.747907859120899
                ]
            ],
            "biasH": [
                1.9100337295445393,
                -0.986968403523326,
                1.097171169686355,
                -0.2801955853777405,
                0.510407326895754,
                -0.07394603952958867,
                2.7472901053164756,
                0.5240115878459343,
                0.2641318490063951,
                2.030651931445489,
                -0.43995981688864927,
                0.8808025537560168,
                1.4603017985086084,
                5.360466471408701,
                -1.5567119116199026,
                0.5663614064362527
            ],
            "biasO": [
                0.8940421209825693,
                0.27966471940242255
            ]
        },
        {
            "inputNodes": 17,
            "hiddenNodes": 16,
            "outputNodes": 2,
            "weightsIH": [
                [
                    -0.3514449921130022,
                    -4.679678766202538,
                    1.2357536052283524,
                    -1.899345077722463,
                    5.018469218232483,
                    0.8420704454987822,
                    -1.1073464466310559,
                    -0.8202884153218579,
                    3.0904277355858247,
                    -1.3038394463146448,
                    0.6257527222475263,
                    -3.2989326921799504,
                    1.0400749076288465,
                    -1.8320014890197696,
                    1.1883634595099202,
                    -2.0644556685808095,
                    -1.349285771452154
                ],
                [
                    0.2701527996093884,
                    1.3032614544964924,
                    -0.9678323208582899,
                    -3.9955109663948027,
                    -0.21602505909262826,
                    -0.9143000988066783,
                    -0.9654671343316502,
                    -0.37904944702564614,
                    1.4612835374255368,
                    -2.4750468079146803,
                    -3.272638713081056,
                    -1.9223417752532466,
                    1.1519485736716122,
                    -0.6717311538007875,
                    -1.9152920961351334,
                    -0.16074629018233788,
                    -2.0527068918815274
                ],
                [
                    1.7642610328269939,
                    -1.0475524209027713,
                    0.5954297127570568,
                    0.875976057122992,
                    4.436989579216432,
                    1.463121333545628,
                    -0.9248079442086449,
                    -1.2855028480820954,
                    1.6668892035994356,
                    0.611931269840438,
                    2.110808565682894,
                    -0.07626703144683644,
                    2.4543226147661072,
                    1.8132799403782138,
                    2.1367389056975803,
                    -0.01997235657687657,
                    1.5392382111856104
                ],
                [
                    0.2155633995029238,
                    -2.242801321695541,
                    -0.19142699590689038,
                    1.5321145993892555,
                    1.7827394874780753,
                    3.2389933433105873,
                    3.0394963826912655,
                    -3.6159114905708365,
                    1.2346656815692847,
                    -0.4128335102937579,
                    2.054890197703815,
                    -3.7449890495687534,
                    5.756161314887203,
                    2.0453829316189034,
                    0.7692189969443395,
                    -0.047182603315663596,
                    -3.2794733472294606
                ],
                [
                    -4.241346160625723,
                    0.9674048806066056,
                    0.9356604368677363,
                    -1.625646641929698,
                    2.5448970110607556,
                    0.9356496125989232,
                    -3.761176667819491,
                    3.160189294315906,
                    -1.9023477231118653,
                    0.4009279707798036,
                    0.412985202368369,
                    -2.1621116410030465,
                    1.9952859515598447,
                    -0.21584952006858527,
                    -3.827633463618888,
                    -1.2913072848603768,
                    -1.1622858879703317
                ],
                [
                    -3.9827829088269717,
                    -1.1509268924947857,
                    -0.217015987711356,
                    -4.109108485049885,
                    -0.9558882219590948,
                    -3.239181359441205,
                    -0.9452059975483728,
                    -0.03974813051088222,
                    -0.8537441092048405,
                    0.07876229158453318,
                    -0.44919126491272,
                    0.11861947314283339,
                    1.7472325537639155,
                    -3.785099269747193,
                    0.2382949184351073,
                    1.4977194516968715,
                    0.010409402785799826
                ],
                [
                    3.217623384132005,
                    -0.18486610127917646,
                    2.5432400516673583,
                    -0.6613746933377653,
                    -2.5580803962401255,
                    -2.825231272747134,
                    -1.7606298003809304,
                    -1.6091122896192602,
                    0.5442366322370171,
                    -3.9377978702082057,
                    -2.8511269555149843,
                    1.083507886989717,
                    -1.873718117710892,
                    -1.386539708842646,
                    -0.9502428355194155,
                    1.563016725141715,
                    -1.0192164060392486
                ],
                [
                    -0.2952824515657978,
                    -1.5496408845243699,
                    4.235122628913874,
                    -2.1097642461010766,
                    8.558156684835284,
                    -2.818188521091196,
                    -1.696110283454159,
                    -2.398666808063213,
                    1.0144764536442925,
                    -0.5101810158307585,
                    0.22942592106073834,
                    -1.055875496500102,
                    -1.0326163178067613,
                    -1.1492955753731784,
                    -0.838811872940049,
                    1.3122294086744613,
                    -0.34789297676649666
                ],
                [
                    -0.5798949841225858,
                    2.220387455660746,
                    0.6560254762356528,
                    -0.26386110709027133,
                    -0.990412078609473,
                    -1.3625372069459711,
                    -0.8235773615272476,
                    -4.114730644989742,
                    0.27192728194016913,
                    -0.46779295834850654,
                    0.7344822360129458,
                    4.440357850241231,
                    -0.9720812934019444,
                    -0.5602526698713172,
                    -1.4118616876667038,
                    1.9697708271670837,
                    0.3316683901627133
                ],
                [
                    -1.5424506351733624,
                    -0.47232463444633876,
                    0.17339305750446554,
                    -3.251334068390924,
                    0.18282964067540464,
                    -2.2612165270878615,
                    -1.2848182430606132,
                    0.499052479733189,
                    2.2366294115106644,
                    2.9780779931386023,
                    2.69529447957057,
                    -2.0659360359774386,
                    2.837236813648381,
                    -2.1547120390584076,
                    2.5107042246962,
                    1.0425944636826643,
                    2.904973225844202
                ],
                [
                    1.4742713339248863,
                    -0.03774804728041581,
                    -2.2135962577235806,
                    -0.20517776769663154,
                    -0.7753590335457206,
                    0.33692410573950216,
                    1.3017536937475591,
                    -2.2728973784536928,
                    2.130428171977773,
                    0.38256238491384387,
                    -0.7717253967148515,
                    3.1368716582642806,
                    1.5270474647322358,
                    3.267961250955846,
                    -4.923176256761943,
                    -1.402214488564547,
                    1.6728920431411587
                ],
                [
                    5.469574317991386,
                    -3.216769331396973,
                    0.8421034115426466,
                    1.1183744030500309,
                    -1.620910245794212,
                    -0.32149947701793957,
                    0.5292676761908374,
                    -2.664729671584942,
                    0.6578548757829774,
                    -6.989950942914443,
                    -6.214055557049035,
                    0.4240778086102319,
                    -3.9788144418664784,
                    -0.759422921965789,
                    -0.6006221434306598,
                    1.3139858018587511,
                    1.467516559019332
                ],
                [
                    -1.5123736562102947,
                    0.41004470816647876,
                    0.692475096336353,
                    0.09031526767885567,
                    2.7333016955013725,
                    -3.577011337303812,
                    1.63632704071994,
                    0.5390513827573926,
                    3.372291351334588,
                    -4.2908411817099505,
                    0.4691091996079848,
                    -1.195018006718688,
                    -1.803589221821683,
                    2.573125239713953,
                    -0.6150047370013394,
                    0.34570702070421067,
                    -2.364487177995101
                ],
                [
                    -2.4774471045992756,
                    -4.179910326160785,
                    -0.8535558529259899,
                    -0.4038248214768979,
                    3.194157739429539,
                    1.7024864798336177,
                    -0.8714612822753831,
                    1.391802549359074,
                    2.879942977102468,
                    -4.044031699060957,
                    -4.737214448374521,
                    5.801931066557473,
                    0.9743595142151839,
                    1.792147461379195,
                    1.8738373000689703,
                    4.430879392435964,
                    2.700624764518804
                ],
                [
                    -0.12169654528055796,
                    -0.1010309445636598,
                    -1.6002678381964648,
                    0.44695496526961975,
                    -0.24038103786582232,
                    1.0794251449885985,
                    -0.7132395594909334,
                    -0.5892128477827833,
                    3.732868222367811,
                    0.8728979689175416,
                    -2.47034865563915,
                    0.4219908093721363,
                    -2.9544360456148535,
                    -0.2711638376232298,
                    -1.891375019963994,
                    0.9263878789226849,
                    2.5573706729992822
                ],
                [
                    -1.4370274429115644,
                    2.425208987623189,
                    -4.394223229539797,
                    0.6253929573781588,
                    -1.4520504537005243,
                    1.8098625904902672,
                    -0.1905414033294367,
                    -0.6474796663903009,
                    6.886825238349271,
                    -1.9839347629550625,
                    -0.8809514606923831,
                    -0.9841623264076681,
                    4.100592017352953,
                    0.12395815486752948,
                    -1.9344658933799868,
                    4.9230559647355925,
                    1.1804776540507056
                ]
            ],
            "weightsHO": [
                [
                    -0.9776054608416296,
                    -4.8995293844370265,
                    1.7714400058614013,
                    -0.8477009744564874,
                    4.441391036829163,
                    0.9486010843515364,
                    4.093457871635411,
                    1.6271956760362367,
                    2.3703624145296924,
                    -2.4580366111460887,
                    2.4951595873555155,
                    0.9256066568606722,
                    -4.931136572614895,
                    -0.6954345039676366,
                    0.23931588769988377,
                    -1.5873928195455498
                ],
                [
                    1.7152713894406544,
                    -3.4044839116111767,
                    -0.5532829057406523,
                    0.07017822722550404,
                    3.326052635309425,
                    3.5071091575654982,
                    1.3544582407642585,
                    0.10190976692370401,
                    -0.3716707752902243,
                    3.6231942046752,
                    -1.433810945042402,
                    1.3079178374534302,
                    -2.42676506559862,
                    -1.2757789153876051,
                    1.070219978120373,
                    -3.2327466802922293
                ]
            ],
            "biasH": [
                3.54833272446654,
                -1.7209656752411198,
                1.2630624564574666,
                -1.898647202574276,
                1.2469498300937303,
                -0.7394527966398504,
                2.552123699716277,
                -0.5294028208414039,
                0.6613602076669597,
                1.1035429908107357,
                -1.0773496222937107,
                0.6637345829786848,
                1.545715709983384,
                5.092034710465641,
                -1.2400643968830323,
                0.9681217978272042
            ],
            "biasO": [
                0.24743781055732494,
                -0.7502509322111479
            ]
        },
        {
            "inputNodes": 17,
            "hiddenNodes": 16,
            "outputNodes": 2,
            "weightsIH": [
                [
                    -1.0014259656182598,
                    -4.49525973975388,
                    1.5964469909058006,
                    -2.466477924649139,
                    4.09838737518524,
                    1.0606560249771395,
                    -1.448402577199054,
                    0.09878143185776411,
                    2.2624099563019504,
                    -0.6936108857765998,
                    1.4615982896549933,
                    -4.448886037003685,
                    1.5677907341365787,
                    -2.655148571498642,
                    -0.10938343430357211,
                    -3.6051781909044207,
                    -1.2966805704598041
                ],
                [
                    -0.22148307081880558,
                    0.8661106237294678,
                    -0.963331821144742,
                    -3.5446980147965754,
                    0.41505012912793826,
                    -0.1193704298042858,
                    -0.6294355430384136,
                    -1.2013131683018488,
                    3.6131152530761317,
                    -2.2127557529160646,
                    -2.8337980578307205,
                    -1.25900056584966,
                    0.56079071049627,
                    -1.4859900294669446,
                    -2.5865926597810502,
                    -1.789593855705952,
                    -1.4579875498404815
                ],
                [
                    2.665449211317646,
                    -0.8316213569856366,
                    1.5939560976968505,
                    2.2594512387177117,
                    4.425627938308562,
                    1.4923034962936663,
                    -0.10252512727047225,
                    -2.9430501703792524,
                    -0.08532997941197507,
                    0.20621138868215316,
                    1.4375790540738365,
                    -1.027414170745615,
                    1.5461792701214532,
                    2.085399001355741,
                    1.3569309364088777,
                    -0.128773240863299,
                    1.9923874084042477
                ],
                [
                    1.5305940368795283,
                    -1.047691424084649,
                    0.9512759254638296,
                    2.3299881546872427,
                    1.4490510608683556,
                    1.4154737353679767,
                    3.7168235694484446,
                    -4.0181640911658665,
                    1.2931306849804458,
                    0.3549745174368082,
                    2.3117972273886336,
                    -3.2706719784577425,
                    5.610645006657098,
                    2.470849916131999,
                    0.7696948389954237,
                    -0.016489624620774412,
                    -3.748190980159927
                ],
                [
                    -3.476120814831517,
                    1.6140077195858709,
                    1.635226843521255,
                    -1.3458203456643014,
                    2.5164462833798726,
                    1.13263559379129,
                    -3.322966668423128,
                    3.0254836480557987,
                    -2.442460158333714,
                    -0.8771940033414788,
                    0.21437752030778323,
                    -2.7125063274598222,
                    2.8343107663023357,
                    -1.8114430544298594,
                    -3.329848920926369,
                    -0.3426912950329408,
                    -0.3156330376070585
                ],
                [
                    -4.071595457261628,
                    0.6342261623332499,
                    -1.496758595219807,
                    -3.297069980321463,
                    -0.13902320401644674,
                    -3.0515912163259946,
                    -1.8722871891512773,
                    1.2474819429909703,
                    0.15895343316714627,
                    0.3583323414320637,
                    -1.983303020807199,
                    1.214984506293798,
                    2.404986268681418,
                    -2.9644916397548235,
                    -0.5355322736144834,
                    1.4104243308199735,
                    -1.2397438214817385
                ],
                [
                    2.167318595768291,
                    -1.2993630369410065,
                    2.1249110110086837,
                    -0.34225165775800703,
                    -2.857081233201712,
                    -2.1924772392525034,
                    -2.8302384210018423,
                    -2.0321382674567205,
                    1.8803974861371,
                    -4.041421239249338,
                    -1.9505031865137044,
                    1.5380308478325055,
                    -1.2927112677121602,
                    -1.1808113989142603,
                    -0.9827443573932227,
                    2.3567561365997918,
                    -1.6762718778577366
                ],
                [
                    0.49604593648811224,
                    -0.7025715069792703,
                    3.9825313385741574,
                    -3.466988552132639,
                    7.339201025992903,
                    -3.0966249999672595,
                    -1.6065994629200726,
                    -2.4124209068617675,
                    0.5624902640383787,
                    0.1668702782184499,
                    0.4550905258131246,
                    0.16124674335979894,
                    -1.6367051990480808,
                    -0.44635368715073054,
                    -1.3644452688781032,
                    0.8148139968886777,
                    -1.4714125154592852
                ],
                [
                    -0.5792994236610217,
                    1.358772453438633,
                    1.2290234944853782,
                    0.49429648400847026,
                    -0.7129163980540425,
                    -0.6886089705968601,
                    -1.8093674041749248,
                    -4.511022479211863,
                    -0.47841026694702493,
                    -0.06911583828332368,
                    0.15499820166531197,
                    5.08678385277466,
                    -0.19230549757836513,
                    -2.2405585434995126,
                    -1.2778129654516115,
                    2.31801782379671,
                    1.428468367564904
                ],
                [
                    -2.029641560996377,
                    -2.887403432630015,
                    0.6853573230627166,
                    -5.073867969667997,
                    0.3157296468534242,
                    -0.9869180240118676,
                    -0.5049017237601756,
                    0.47029864492795137,
                    2.5587979451202476,
                    3.3541119531102255,
                    2.6079238540316436,
                    -2.140432322617542,
                    3.180156977911563,
                    -1.5949966314145252,
                    1.2494546845854335,
                    1.7274458853675447,
                    3.05190529334518
                ],
                [
                    0.21523745414606044,
                    -0.5801537404494495,
                    -2.113795961702774,
                    -0.8746861875616104,
                    -1.402726481895395,
                    0.3578782186037208,
                    0.9304133481911641,
                    -0.7102630443454802,
                    1.5933798850391545,
                    -0.18186432964258037,
                    -1.1831527931325398,
                    2.122164972619239,
                    1.3457094434751031,
                    3.10887270245697,
                    -5.930797824996096,
                    -0.6104737975437713,
                    1.9977601622097052
                ],
                [
                    4.75018926079572,
                    -4.263639446931902,
                    0.8520723475080327,
                    1.3310687731912423,
                    -1.0246016884905083,
                    -0.16862268917826984,
                    -0.7806498220516546,
                    -2.766426791238658,
                    1.1222766115941072,
                    -7.091110772473668,
                    -7.353782726515985,
                    0.06287267838744737,
                    -3.45221789817548,
                    -1.2698886866546597,
                    -1.1259007261654124,
                    0.2761609689828851,
                    0.8109110672178165
                ],
                [
                    -1.075760235735567,
                    0.8803271100634014,
                    1.544902710959106,
                    -0.10306895346154321,
                    2.012226152304124,
                    -3.532232393611781,
                    2.934729162457087,
                    -0.5252463874145497,
                    2.5143284496902734,
                    -3.9220876076753237,
                    1.6017825862247945,
                    -1.5143837887195188,
                    -2.08918925194487,
                    1.0466506920289331,
                    -0.7754578268829276,
                    0.6630013410911348,
                    -2.1540250465994095
                ],
                [
                    -3.0392297307221434,
                    -4.753109667090713,
                    -0.6688371024374894,
                    -1.1838892092570021,
                    2.8910556473870903,
                    2.3318351642482558,
                    -0.5764918736145701,
                    0.8989831506966177,
                    2.1055599042413653,
                    -4.060416395739816,
                    -4.512227176936097,
                    6.059617855176021,
                    1.2953890583486523,
                    1.7706910412459103,
                    1.659880165245877,
                    5.362451185275465,
                    2.153378571745072
                ],
                [
                    0.549191225617908,
                    0.16097918916877163,
                    -1.867698883792729,
                    -0.16894789599099902,
                    0.2795411476040418,
                    1.2610742550621499,
                    -0.43518711695339873,
                    -0.8686602455848244,
                    3.2218265324039854,
                    1.2316759970264397,
                    -3.505565172420038,
                    0.94465443613003,
                    -3.0894723600533247,
                    -1.6951553668561608,
                    -2.263950652462026,
                    0.5937586623571737,
                    2.1746077595855318
                ],
                [
                    -0.850802891241206,
                    2.752789826348848,
                    -2.4826962461764763,
                    1.3470443232232316,
                    -1.8184325170697024,
                    0.6588088566610836,
                    -0.05192189814749293,
                    0.08889854940907582,
                    5.701340017997523,
                    -1.324379644179026,
                    -1.438970374033881,
                    -0.4810328388106554,
                    2.918627566810977,
                    0.19203163005978363,
                    -1.3843506139308572,
                    6.347838468345385,
                    -0.815639981702815
                ]
            ],
            "weightsHO": [
                [
                    -0.7520379642848646,
                    -5.000823775967152,
                    -0.5687228069156897,
                    -0.11191272843902811,
                    3.685432120237661,
                    1.92040775754369,
                    3.297915542545508,
                    2.1719171209688195,
                    3.071807674980877,
                    -3.472742645094682,
                    2.8046616276679526,
                    0.9568757341255755,
                    -4.502500891262124,
                    -1.5432065958723729,
                    -0.3751088353295503,
                    -1.0364502762782435
                ],
                [
                    1.885775092920299,
                    -5.173604446773256,
                    -0.7426417969816461,
                    0.4959208833846168,
                    3.88861538279913,
                    3.8089208374751307,
                    1.1949290063732478,
                    0.8440712594871466,
                    -1.2358790962120714,
                    3.9947480294033015,
                    -2.656102549019087,
                    0.680394502737971,
                    -0.9507853501890955,
                    -1.276578190086926,
                    0.8823938836215095,
                    -2.122361484637171
                ]
            ],
            "biasH": [
                1.9549010695924807,
                -0.37432330841289774,
                1.029515219700681,
                -1.0707707082088533,
                0.28403301999763775,
                -0.002169018331479644,
                3.219129856263102,
                -0.5826275403862987,
                1.1039735447529393,
                0.38072301022992894,
                -0.357043210550851,
                0.19425188637165303,
                1.2337854205554044,
                4.708682711105348,
                -0.6879550581592854,
                0.9937832706380867
            ],
            "biasO": [
                0.9016162191067962,
                -0.9178951778650815
            ]
        },
        {
            "inputNodes": 17,
            "hiddenNodes": 16,
            "outputNodes": 2,
            "weightsIH": [
                [
                    -1.275306145081088,
                    -4.719946078432267,
                    1.5964469909058006,
                    -2.0277009497171896,
                    4.531804227246023,
                    1.0606560249771395,
                    -1.068031280622369,
                    -0.1278670382913063,
                    3.0947940982069944,
                    -0.6207335742968964,
                    1.8732198474582842,
                    -4.68228840668516,
                    1.560104680729102,
                    -2.479367425880739,
                    0.07751671802886129,
                    -4.01932209491562,
                    -0.947914768534423
                ],
                [
                    0.20070481803938978,
                    0.8661106237294678,
                    -1.104179550731267,
                    -4.043157969938942,
                    0.41505012912793826,
                    -0.1193704298042858,
                    -0.6294355430384136,
                    -1.2013131683018488,
                    4.0934205315971495,
                    -1.9903735291035702,
                    -2.508934641691593,
                    -1.25900056584966,
                    0.8819576624352397,
                    -1.2105439737045258,
                    -2.5865926597810502,
                    -1.7302537302905128,
                    -1.4579875498404815
                ],
                [
                    2.6312823169900907,
                    -0.3392494111256965,
                    1.3301150608232235,
                    2.1823446735606407,
                    4.052941161045485,
                    1.4923034962936663,
                    0.032242380393296854,
                    -2.4478245725959074,
                    -0.08532997941197507,
                    0.2176101352233849,
                    1.1142573568705978,
                    -0.7364617751838655,
                    1.372874934765643,
                    1.833441870659884,
                    1.8961844378368844,
                    -0.128773240863299,
                    0.9360802248592509
                ],
                [
                    1.5305940368795283,
                    -1.6198946452872545,
                    0.9512759254638296,
                    2.0431034793772467,
                    1.3120858211426323,
                    1.4154737353679767,
                    2.7945226009984356,
                    -4.006338996394762,
                    1.2834940055425124,
                    0.6253740302675689,
                    1.938124530725934,
                    -3.2706719784577425,
                    5.7789337424986345,
                    1.9852193261743936,
                    0.47382668910961667,
                    0.07574723743412604,
                    -3.3574349793069143
                ],
                [
                    -3.3760430930419916,
                    1.6140077195858709,
                    1.6187215130788803,
                    -1.0417801898689987,
                    2.2606168856345916,
                    1.046514479668418,
                    -3.322966668423128,
                    3.471578207420653,
                    -2.442460158333714,
                    -0.8771940033414788,
                    0.931325313614308,
                    -2.2607979053955036,
                    2.8343107663023357,
                    -2.221361791350944,
                    -3.975990286072881,
                    -0.3426912950329408,
                    -0.08116960572965393
                ],
                [
                    -4.5661374576047145,
                    -0.05523395975819012,
                    -1.8909608489677825,
                    -3.503395571252196,
                    -0.594168476009654,
                    -2.9566542268343876,
                    -1.3344159097922914,
                    1.2474819429909703,
                    0.15895343316714627,
                    -0.10671345141148736,
                    -1.240426700069113,
                    1.41365945370623,
                    1.9146405917837537,
                    -3.1754665950963563,
                    -0.5355322736144834,
                    1.4104243308199735,
                    -0.934867952552415
                ],
                [
                    2.167318595768291,
                    -0.9214536272710122,
                    1.9715631757122534,
                    -0.0703488468554051,
                    -2.857081233201712,
                    -1.8154500136859566,
                    -1.9736512636720325,
                    -2.092708797220775,
                    1.8996943449401118,
                    -3.787550947995615,
                    -2.0587949053410632,
                    1.2610970289716064,
                    -1.6023368915847596,
                    -1.1808113989142603,
                    -1.0985204710803842,
                    2.3567561365997918,
                    -1.6762718778577366
                ],
                [
                    0.016611747854107795,
                    -0.7025715069792703,
                    4.177072185145273,
                    -3.7381144967380573,
                    6.916626041020508,
                    -3.0564112495059117,
                    -1.6065994629200726,
                    -2.4124209068617675,
                    0.5624902640383787,
                    0.02208959561654078,
                    0.8492508205588213,
                    0.16124674335979894,
                    -1.6652881381332074,
                    -0.281495437360322,
                    -1.3644452688781032,
                    0.7437704799614085,
                    -1.4714125154592852
                ],
                [
                    -0.9616161103157828,
                    1.3766203479260697,
                    1.2290234944853782,
                    0.7768547156840078,
                    -0.7129163980540425,
                    0.5528944771067897,
                    -1.6115920970284345,
                    -4.117025710306704,
                    -0.4193965831335349,
                    -0.06911583828332368,
                    0.15499820166531197,
                    5.08678385277466,
                    -0.016109848155202888,
                    -2.4150619630629744,
                    -1.2768741921253834,
                    2.3282884056341766,
                    1.0221799006634207
                ],
                [
                    -2.029641560996377,
                    -2.887403432630015,
                    0.6853573230627166,
                    -4.7702064144888725,
                    0.4669133818135711,
                    -0.5602413404661698,
                    -0.5713811852820082,
                    0.47029864492795137,
                    2.612269012949123,
                    3.3541119531102255,
                    2.171965089880009,
                    -2.7401163997000175,
                    3.353002095157383,
                    -1.3002005595887534,
                    1.0243338907010835,
                    1.7274458853675447,
                    2.318588698784665
                ],
                [
                    0.6168991559788883,
                    -0.5801537404494495,
                    -2.113795961702774,
                    -1.2728183514219653,
                    -1.402726481895395,
                    0.29015171826770914,
                    1.1508909988876925,
                    -1.418920750605603,
                    1.375320181898769,
                    -0.5268417880169468,
                    -1.1831527931325398,
                    2.94061638952275,
                    1.3457094434751031,
                    3.619532455284854,
                    -5.930797824996096,
                    -0.6104737975437713,
                    2.42394250591773
                ],
                [
                    4.75018926079572,
                    -4.263639446931902,
                    0.9616053160371519,
                    1.3310687731912423,
                    -1.0246016884905083,
                    -0.4551046538438158,
                    -0.7806498220516546,
                    -2.9961750259184563,
                    0.6488583279364138,
                    -6.752134512235749,
                    -7.517510471439114,
                    -0.4039481824636382,
                    -3.45221789817548,
                    -1.2698886866546597,
                    -0.9549923462263527,
                    0.09963135877331508,
                    1.2033207263478742
                ],
                [
                    -1.1003881094196886,
                    0.11181232706885791,
                    1.544902710959106,
                    -0.10306895346154321,
                    2.012226152304124,
                    -4.014291011239397,
                    2.934729162457087,
                    -0.5252463874145497,
                    2.9606710261862634,
                    -3.917230078732313,
                    1.22141735908812,
                    -1.7061337689615304,
                    -2.08918925194487,
                    0.782521212256237,
                    -0.5106889683116727,
                    0.2036198825297788,
                    -2.1540250465994095
                ],
                [
                    -3.0392297307221434,
                    -4.753109667090713,
                    -0.38655656494186474,
                    -0.9563926387514882,
                    2.799798301750257,
                    2.619201975187714,
                    -0.31496325955893445,
                    1.100475148656792,
                    2.1723328515357774,
                    -4.060416395739816,
                    -4.019208331911681,
                    6.199311317488877,
                    1.2953890583486523,
                    1.7706910412459103,
                    1.659880165245877,
                    5.046984542033102,
                    2.0016473708271825
                ],
                [
                    0.7142367134409071,
                    -0.3378785297469846,
                    -1.867698883792729,
                    -0.16894789599099902,
                    0.17249723701726705,
                    1.273603466501911,
                    -0.43518711695339873,
                    -0.8686602455848244,
                    3.2218265324039854,
                    1.5592659397958726,
                    -3.9255834541074863,
                    1.3758119582939623,
                    -3.595006156723132,
                    -0.6233493538529875,
                    -2.5405164405740535,
                    0.608244950153308,
                    2.3256522970907207
                ],
                [
                    -0.9559228536099178,
                    2.3122566854378004,
                    -2.8377888482310603,
                    1.235251654232834,
                    -2.029189867300382,
                    0.6588088566610836,
                    0.07153707019660183,
                    0.08889854940907582,
                    5.701340017997523,
                    -1.1630119698721209,
                    -1.898984643537832,
                    0.036249041554045736,
                    2.918627566810977,
                    0.19203163005978363,
                    -1.1812408053140842,
                    7.079188365681209,
                    -0.815639981702815
                ]
            ],
            "weightsHO": [
                [
                    -1.1681607060295525,
                    -5.000823775967152,
                    -0.49915113229800445,
                    -0.2792690483936663,
                    3.259502122809228,
                    1.92040775754369,
                    3.3747754359289157,
                    1.8722033411395667,
                    2.6028664018857923,
                    -2.596883431947281,
                    2.8046616276679526,
                    1.1141527302618095,
                    -4.198692195660122,
                    -1.5432065958723729,
                    -0.37930307453862544,
                    -1.0364502762782435
                ],
                [
                    1.9587599201216965,
                    -5.1338895977414,
                    -0.5170067045890804,
                    0.4959208833846168,
                    4.098251561241176,
                    3.83019946253435,
                    1.0784936956151308,
                    1.6613810459922052,
                    -1.2358790962120714,
                    4.201998096206515,
                    -1.9443438905893147,
                    1.2387227511496892,
                    -0.9507853501890955,
                    -1.276578190086926,
                    0.49188298425970167,
                    -1.9328133504143739
                ]
            ],
            "biasH": [
                1.9549010695924807,
                -0.37432330841289774,
                1.029515219700681,
                -1.490844931656483,
                0.5848513531738974,
                -0.002169018331479644,
                3.219129856263102,
                -0.5826275403862987,
                1.1039735447529393,
                0.38072301022992894,
                -0.357043210550851,
                0.3508356911954965,
                1.5910107780842075,
                4.691334421609154,
                -0.6879550581592854,
                0.9937832706380867
            ],
            "biasO": [
                0.8625831687627846,
                -0.41966107584093126
            ]
        },
        {
            "inputNodes": 17,
            "hiddenNodes": 16,
            "outputNodes": 2,
            "weightsIH": [
                [
                    -1.0246253606763456,
                    -4.760073348949437,
                    1.811059262850583,
                    -1.7486548116060954,
                    4.67463998914384,
                    0.8775650211971628,
                    -0.7167536627589203,
                    -0.5539719105508223,
                    3.4102688082133574,
                    -1.3762251491962476,
                    1.1065954602223078,
                    -3.141288861726638,
                    1.788882886742408,
                    -1.8320014890197696,
                    0.739536953284375,
                    -2.4543030060603988,
                    -1.6655686442361597
                ],
                [
                    0.2701527996093884,
                    1.0587298184579592,
                    -0.8562197571782019,
                    -3.5222043777013705,
                    -0.14503806791654728,
                    -0.8142165828869958,
                    -0.1149808097317504,
                    -0.37904944702564614,
                    1.9319551514991202,
                    -2.5648785601619415,
                    -2.7460923166569127,
                    -1.1973628507257361,
                    0.7737970239029243,
                    -0.6717311538007875,
                    -2.1956005857983176,
                    -0.16074629018233788,
                    -2.0527068918815274
                ],
                [
                    2.2015457947211283,
                    -1.0475524209027713,
                    0.5954297127570568,
                    0.875976057122992,
                    4.567332317065596,
                    1.462139773220699,
                    -0.6603315458135944,
                    -1.2855028480820954,
                    1.6668892035994356,
                    0.9170445235055181,
                    1.8944500336143575,
                    -0.33223515298381145,
                    2.2977618706815504,
                    1.691940199950849,
                    2.22725633246708,
                    -0.01997235657687657,
                    1.5392382111856104
                ],
                [
                    0.2155633995029238,
                    -1.8376366745770716,
                    -0.19142699590689038,
                    1.385399900176711,
                    1.7827394874780753,
                    3.8007804394421965,
                    3.0394963826912655,
                    -3.2052465095795677,
                    1.2346656815692847,
                    -0.4128335102937579,
                    2.054890197703815,
                    -4.1952437969326235,
                    6.4052639922510215,
                    1.892840032928366,
                    0.7692189969443395,
                    -0.09095910257961692,
                    -3.7349584675674183
                ],
                [
                    -4.241346160625723,
                    0.8405109795463924,
                    0.7255294206004341,
                    -1.625646641929698,
                    2.5448970110607556,
                    0.5918638528440541,
                    -3.8531829095956223,
                    2.746396376003409,
                    -2.038288458744664,
                    0.42412250628877224,
                    0.2581913496607766,
                    -2.1621116410030465,
                    1.9952859515598447,
                    -0.62068276124047,
                    -3.827633463618888,
                    -1.480704304923608,
                    -1.1622858879703317
                ],
                [
                    -3.583179475816044,
                    -1.2099442094005992,
                    -0.217015987711356,
                    -3.9614324662330507,
                    -0.9558882219590948,
                    -3.297241135954915,
                    -0.9452059975483728,
                    -0.42791908703631865,
                    -0.9437596704431059,
                    0.17160356232204976,
                    -0.06588933378756545,
                    0.5470384172436624,
                    1.7472325537639155,
                    -3.5000507685425055,
                    0.05442728314114431,
                    1.4977194516968715,
                    -0.3293886616063423
                ],
                [
                    3.2484564880891096,
                    -0.26417320008486567,
                    2.5432400516673583,
                    -0.6926906912932671,
                    -2.779378880649458,
                    -3.3149306893509554,
                    -1.7606298003809304,
                    -1.6032430546290715,
                    0.6059546101079597,
                    -3.986655479599138,
                    -2.8511269555149843,
                    2.564777735599674,
                    -1.873718117710892,
                    -1.386539708842646,
                    -0.9502428355194155,
                    1.563016725141715,
                    -1.0192164060392486
                ],
                [
                    0.10351465596603127,
                    -1.6022089022952732,
                    4.235122628913874,
                    -2.1854403937098748,
                    8.465122854285909,
                    -2.818188521091196,
                    -1.679716302077742,
                    -2.398666808063213,
                    0.5952790912596345,
                    -1.3693163790468348,
                    -0.010404238951227995,
                    -0.6456726074996326,
                    -0.18192330407250512,
                    -1.1492955753731784,
                    -0.3574435141068478,
                    0.35236724360182636,
                    -0.6906504238064073
                ],
                [
                    -1.260439952381545,
                    2.291927522235916,
                    0.9610367668489174,
                    -0.7336573994485868,
                    -1.2267530971796337,
                    -1.3625372069459711,
                    -0.8235773615272476,
                    -4.358357383274573,
                    0.27192728194016913,
                    -0.4548616422880366,
                    0.44620650158624264,
                    4.85637484251988,
                    -1.4915671047762955,
                    -1.0025212697395678,
                    -1.1385065883436294,
                    1.9697708271670837,
                    0.7824106848343519
                ],
                [
                    -1.8034865818054069,
                    -0.6755072593607522,
                    0.17339305750446554,
                    -3.251334068390924,
                    0.4774401588261291,
                    -2.2018550588960872,
                    -1.2848182430606132,
                    0.6228427173799004,
                    2.447947862445245,
                    2.9780779931386023,
                    2.2946205030907993,
                    -1.7588053110520976,
                    2.4393787132619567,
                    -1.42120204253689,
                    2.5107042246962,
                    1.0425944636826643,
                    2.702392711470206
                ],
                [
                    1.4742713339248863,
                    0.1652141292251792,
                    -2.2135962577235806,
                    0.11907037450035995,
                    -0.41590710687733046,
                    0.5598089582939964,
                    1.5147965699298052,
                    -2.2728973784536928,
                    2.0612611447504294,
                    0.19334612183580668,
                    -0.7907740652036682,
                    3.1368716582642806,
                    1.5270474647322358,
                    3.6446261471972536,
                    -4.494943774753014,
                    -0.676559629276593,
                    1.6728920431411587
                ],
                [
                    5.469574317991386,
                    -3.517741341416453,
                    0.8421034115426466,
                    1.5499089788022475,
                    -1.178239848406465,
                    -0.1949735572466086,
                    0.33052107003939013,
                    -2.664729671584942,
                    0.6578548757829774,
                    -7.383114695282255,
                    -6.214055557049035,
                    0.17263844115257698,
                    -3.366649832559977,
                    -0.7987669945509394,
                    -0.6006221434306598,
                    1.3139858018587511,
                    1.5822052085880678
                ],
                [
                    -2.0077945643080226,
                    -0.35537305586303947,
                    0.692475096336353,
                    0.09031526767885567,
                    2.716713415325777,
                    -3.577011337303812,
                    1.3257936141706,
                    0.800073086727626,
                    3.456679174474177,
                    -4.2908411817099505,
                    0.08798000250223692,
                    -1.7476396326037285,
                    -1.803589221821683,
                    2.4991675184326576,
                    -0.7518570006834757,
                    0.07964671663200906,
                    -2.3545442953578064
                ],
                [
                    -2.438642100738277,
                    -3.8131457563580566,
                    -0.8535558529259899,
                    -0.44725125816304245,
                    2.4415630472230347,
                    1.8905563539759171,
                    -0.8714612822753831,
                    0.9116559554532677,
                    2.879942977102468,
                    -4.044031699060957,
                    -4.737214448374521,
                    5.801931066557473,
                    0.6832323255101629,
                    1.8493296516009126,
                    1.8738373000689703,
                    4.430879392435964,
                    2.875307603554635
                ],
                [
                    0.3126923009863066,
                    -0.1010309445636598,
                    -1.1791298700108386,
                    0.7537315601922143,
                    -0.3605123189384497,
                    0.6193077039165126,
                    -0.7220286362212517,
                    -0.9041532874254921,
                    2.9862744305796216,
                    0.6889980999373713,
                    -3.032829026170585,
                    0.4219908093721363,
                    -2.655773936635436,
                    -0.28696064590160375,
                    -1.421483574223407,
                    0.4333380565500857,
                    2.8375915652422274
                ],
                [
                    -1.417742657550158,
                    2.2492463460008,
                    -4.394223229539797,
                    0.38561597899709754,
                    -1.4520504537005243,
                    1.8098625904902672,
                    -0.2227992053530895,
                    0.08980888339849502,
                    6.886825238349271,
                    -1.729766327723202,
                    -1.0055764297285554,
                    -0.7180416710517015,
                    4.672891701752398,
                    0.26069736120227716,
                    -1.9344658933799868,
                    4.9230559647355925,
                    1.240773955616938
                ]
            ],
            "weightsHO": [
                [
                    -0.9776054608416296,
                    -4.524486086006261,
                    1.7714400058614013,
                    -0.8713965023707531,
                    4.441391036829163,
                    1.3412665097477199,
                    3.9684552518034883,
                    1.5615717718175537,
                    2.9669375450788356,
                    -1.9746995721387162,
                    2.7185246276345683,
                    0.9256066568606722,
                    -4.931136572614895,
                    -0.7309416733090914,
                    -0.21546368920081427,
                    -1.5873928195455498
                ],
                [
                    1.7152713894406544,
                    -3.4044839116111767,
                    -0.5532829057406523,
                    0.07017822722550404,
                    3.659592794430985,
                    3.9318740783682946,
                    1.3544582407642585,
                    0.38238805615347027,
                    -0.8000222460709996,
                    3.6231942046752,
                    -1.5236455644336955,
                    1.3079178374534302,
                    -2.42676506559862,
                    -1.6470461375917003,
                    1.070219978120373,
                    -3.7066694635921897
                ]
            ],
            "biasH": [
                3.54833272446654,
                -1.2906699954407337,
                1.19233567583961,
                -0.9835698248348281,
                1.5815391192123913,
                -1.0796232818303082,
                3.016118316340443,
                -0.08765156092410886,
                0.6613602076669597,
                1.1892463421195925,
                -1.103341320354549,
                0.4433983094940187,
                1.545715709983384,
                5.092034710465641,
                -0.868967131823178,
                0.6007040957781223
            ],
            "biasO": [
                0.24743781055732494,
                -0.7555171481741975
            ]
        },
        {
            "inputNodes": 17,
            "hiddenNodes": 16,
            "outputNodes": 2,
            "weightsIH": [
                [
                    -1.406906962786446,
                    -4.950369327750962,
                    1.65726700228343,
                    -2.466477924649139,
                    4.531804227246023,
                    1.0606560249771395,
                    -0.6943826530845814,
                    -0.08566738271973429,
                    2.367007179666148,
                    -0.630615838783249,
                    1.4615982896549933,
                    -4.448886037003685,
                    1.6205025146882202,
                    -2.329446353857305,
                    0.732326826524382,
                    -3.9880928534286513,
                    -0.5669230510662493
                ],
                [
                    -0.22148307081880558,
                    1.2737437566183114,
                    -0.6875713984989711,
                    -4.0474399729209205,
                    0.41505012912793826,
                    -0.1193704298042858,
                    -0.6294355430384136,
                    -1.2637249673799382,
                    3.6131152530761317,
                    -1.8753481404077816,
                    -2.7319419472663506,
                    -1.336211914532844,
                    0.974265438632075,
                    -1.259793065578352,
                    -2.48432292581135,
                    -1.7302537302905128,
                    -1.4579875498404815
                ],
                [
                    2.297906684976774,
                    -0.46860712154253803,
                    1.5939560976968505,
                    1.9704457751441122,
                    4.7516344754259965,
                    1.4923034962936663,
                    0.5225978139467703,
                    -2.4478245725959074,
                    -0.3368867013502119,
                    0.05735646461422195,
                    1.204987808047672,
                    -0.7284222097111935,
                    1.1061426540497679,
                    1.7422962503416248,
                    1.5517255845618179,
                    0.3651254485757225,
                    1.7036413136963144
                ],
                [
                    1.8478574811166395,
                    -1.926248897878191,
                    0.48458569377527005,
                    2.055602372597926,
                    1.4490510608683556,
                    1.4639887433705026,
                    3.103668598259654,
                    -4.0181640911658665,
                    1.7639943297431335,
                    0.4134863550304466,
                    2.0791800150621036,
                    -3.1545561161404114,
                    5.871399729265297,
                    2.1768318814658816,
                    1.0008906088272607,
                    -0.8011126114858282,
                    -3.3574349793069143
                ],
                [
                    -3.476120814831517,
                    1.5445743095082078,
                    1.2859360254541103,
