{
    "generation": 200,
    "totalTime": 8958.233333287122,
    "allTimeBestScore": 439.38191495441885,
    "brains": [
        {
            "inputNodes": 18,
            "hiddenNodes": 16,
            "outputNodes": 2,
            "weightsIH": [
                [
                    -0.0980311706662178,
                    0.21001845598220825,
                    0.33173099160194397,
                    -0.37929028272628784,
                    -1.6506056785583496,
                    -0.27637946605682373,
                    0.47384703159332275,
                    1.0376180410385132,
                    -0.7653384804725647,
                    -0.9945676922798157,
                    -0.6694031357765198,
                    0.6999761462211609,
                    0.931922972202301,
                    0.1782313734292984,
                    -0.08177527040243149,
                    -0.3306197226047516,
                    0.6021928191184998,
                    -0.9886364936828613
                ],
                [
                    0.25279995799064636,
                    1.4159945249557495,
                    -0.6858931183815002,
                    -0.43620407581329346,
                    0.7398855686187744,
                    0.41874125599861145,
                    -0.885546088218689,
                    -1.1206371784210205,
                    0.9517574906349182,
                    1.2386069297790527,
                    -0.6233721971511841,
                    1.3431447744369507,
                    -0.1446761041879654,
                    -0.314816951751709,
                    -1.275185227394104,
                    -0.2172335833311081,
                    -1.474467158317566,
                    0.14560741186141968
                ],
                [
                    0.7096036076545715,
                    1.0455917119979858,
                    0.9582276344299316,
                    0.13316217064857483,
                    -0.9033734202384949,
                    0.7317467331886292,
                    0.379785418510437,
                    -0.342564195394516,
                    -0.2642682194709778,
                    -0.3991871476173401,
                    0.6218193173408508,
                    1.2907377481460571,
                    -1.0493959188461304,
                    -0.7215635180473328,
                    0.23071032762527466,
                    2.2136788368225098,
                    0.019654113799333572,
                    -0.24967223405838013
                ],
                [
                    -0.9870131611824036,
                    -0.9687590599060059,
                    -1.9265069961547852,
                    -0.43412190675735474,
                    2.0659871101379395,
                    0.45426905155181885,
                    1.4804614782333374,
                    0.3920900225639343,
                    0.6493483781814575,
                    0.407986581325531,
                    0.20816363394260406,
                    -0.19302570819854736,
                    -0.6927629113197327,
                    0.34303826093673706,
                    -0.4491231441497803,
                    0.2568146586418152,
                    0.3766412138938904,
                    -0.6876705288887024
                ],
                [
                    -0.3317837119102478,
                    -0.3238467574119568,
                    1.0439170598983765,
                    1.1862831115722656,
                    -0.706631600856781,
                    0.7230768203735352,
                    -0.10817628353834152,
                    -0.5879802703857422,
                    0.34147322177886963,
                    0.26390019059181213,
                    0.6349387764930725,
                    -2.0818822383880615,
                    -1.0763959884643555,
                    -1.690413236618042,
                    -1.3402485847473145,
                    -0.08721017837524414,
                    -1.1090621948242188,
                    0.3100269138813019
                ],
                [
                    0.8132723569869995,
                    1.2359678745269775,
                    -0.43728774785995483,
                    -0.19957922399044037,
                    1.3027560710906982,
                    0.03922216594219208,
                    2.311675548553467,
                    0.026151606813073158,
                    1.1227823495864868,
                    -1.6091259717941284,
                    -0.343616247177124,
                    0.9263594746589661,
                    -0.3313503861427307,
                    0.26833832263946533,
                    -0.8622390031814575,
                    -0.8217887878417969,
                    -2.2084667682647705,
                    -0.8519027233123779
                ],
                [
                    -0.01295703649520874,
                    -1.3041267395019531,
                    -0.4670485258102417,
                    0.21429280936717987,
                    -0.7478163242340088,
                    0.47153252363204956,
                    -1.4379847049713135,
                    1.5711668729782104,
                    0.14107821881771088,
                    0.5737173557281494,
                    -0.11264678090810776,
                    -1.624450922012329,
                    1.0404353141784668,
                    -0.6177625060081482,
                    -0.12902073562145233,
                    -0.03803486377000809,
                    1.5283821821212769,
                    0.6613782644271851
                ],
                [
                    0.22124207019805908,
                    0.5465856194496155,
                    -0.971269965171814,
                    1.1899528503417969,
                    0.21236488223075867,
                    0.0706692636013031,
                    0.5501639246940613,
                    0.7431289553642273,
                    0.9402301907539368,
                    0.40585485100746155,
                    0.5113905072212219,
                    1.1784201860427856,
                    -0.781282901763916,
                    0.40988948941230774,
                    0.7197849750518799,
                    -0.2619222104549408,
                    -0.5931380391120911,
                    -1.3816604614257812
                ],
                [
                    0.038315299898386,
                    -1.290270447731018,
                    -0.9875665903091431,
                    1.1383399963378906,
                    -0.14815673232078552,
                    -0.0017865407280623913,
                    0.09400831907987595,
                    -0.06840170919895172,
                    -0.5886110663414001,
                    1.8820935487747192,
                    0.1398429423570633,
                    -0.9372110962867737,
                    1.5469967126846313,
                    -0.6467505693435669,
                    -0.9467807412147522,
                    0.28130531311035156,
                    -0.44020751118659973,
                    -1.5755233764648438
                ],
                [
                    0.01529513206332922,
                    0.5958336591720581,
                    1.7962356805801392,
                    -0.5819664597511292,
                    0.30921652913093567,
                    -0.37832173705101013,
                    0.26379284262657166,
                    -2.1745688915252686,
                    0.39346742630004883,
                    -0.16530552506446838,
                    1.5202611684799194,
                    -0.10972827672958374,
                    -1.2515323162078857,
                    -1.1022347211837769,
                    -0.211351677775383,
                    -0.3854368031024933,
                    0.6541270017623901,
                    -0.13491865992546082
                ],
                [
                    -0.38091954588890076,
                    -0.38598868250846863,
                    0.5574765205383301,
                    1.2379478216171265,
                    -0.2733345925807953,
                    -1.2019593715667725,
                    0.3814288079738617,
                    0.7815932631492615,
                    -1.1501578092575073,
                    -0.6342294812202454,
                    -0.21203260123729706,
                    -0.5711236596107483,
                    0.23138606548309326,
                    0.3162829875946045,
                    0.4798562824726105,
                    1.005480408668518,
                    1.0632240772247314,
                    0.6912857890129089
                ],
                [
                    -0.12415587157011032,
                    -0.9574494957923889,
                    -0.5731607675552368,
                    1.336044192314148,
                    -0.22163181006908417,
                    1.0204700231552124,
                    -0.08528734743595123,
                    1.4083666801452637,
                    0.9996208548545837,
                    -0.34194523096084595,
                    0.22144481539726257,
                    0.9296631813049316,
                    -1.397133469581604,
                    -1.5824158191680908,
                    0.0050592063926160336,
                    0.02887267991900444,
                    -0.6157200932502747,
                    1.390946865081787
                ],
                [
                    -0.9146329760551453,
                    0.4532463550567627,
                    0.768658459186554,
                    0.19848407804965973,
                    1.072881817817688,
                    0.30718234181404114,
                    0.9779049158096313,
                    1.8429977893829346,
                    -0.6709213256835938,
                    1.9621788263320923,
                    0.14159801602363586,
                    -0.11980467289686203,
                    -0.6652228236198425,
                    -0.8570071458816528,
                    -1.07680344581604,
                    0.5903674364089966,
                    0.16267113387584686,
                    1.5529322624206543
                ],
                [
                    1.9506441354751587,
                    0.38439151644706726,
                    1.461098551750183,
                    0.8663439154624939,
                    0.8749305605888367,
                    0.24791696667671204,
                    -0.29305121302604675,
                    -0.26466622948646545,
                    -0.9825761318206787,
                    -0.7900960445404053,
                    0.7354779243469238,
                    1.1260099411010742,
                    -0.6118378639221191,
                    0.11672671884298325,
                    0.2612970471382141,
                    0.16621680557727814,
                    -0.9230629205703735,
                    -0.5612478852272034
                ],
                [
                    0.11078707873821259,
                    -1.452520489692688,
                    -0.1448087841272354,
                    -0.39364737272262573,
                    0.25616171956062317,
                    0.49986177682876587,
                    -0.8402761220932007,
                    -0.8880285620689392,
                    -0.0795244351029396,
                    0.6775736808776855,
                    2.7215445041656494,
                    -0.41094765067100525,
                    1.0388727188110352,
                    0.842023491859436,
                    1.0222479104995728,
                    1.5268281698226929,
                    0.1092754527926445,
                    0.026254260912537575
                ],
                [
                    -0.49075454473495483,
                    0.3976207971572876,
                    -0.20388291776180267,
                    0.817520022392273,
                    -0.8358124494552612,
                    1.324987769126892,
                    0.6492237448692322,
                    0.901848316192627,
                    -0.6909469962120056,
                    -0.18336476385593414,
                    0.9584557414054871,
                    -0.5677298903465271,
                    -1.4479193687438965,
                    -0.535885214805603,
                    -0.8394851684570312,
                    -0.27266407012939453,
                    1.5581557750701904,
                    -0.3719913363456726
                ]
            ],
            "weightsHO": [
                [
                    0.8509361147880554,
                    -1.7890903949737549,
                    0.47506511211395264,
                    -1.250699520111084,
                    -0.9121392369270325,
                    -0.7881561517715454,
                    -0.516005277633667,
                    -1.7987236976623535,
                    -0.11608549952507019,
                    -0.6411487460136414,
                    0.9554771780967712,
                    -0.30062881112098694,
                    -1.7279576063156128,
                    1.8197230100631714,
                    -0.5207595229148865,
                    -0.19603334367275238
                ],
                [
                    -0.22258241474628448,
                    -1.0303596258163452,
                    -1.1358197927474976,
                    1.013217806816101,
                    0.166703000664711,
                    -1.1242249011993408,
                    0.8793062567710876,
                    -1.1312401294708252,
                    0.8858934044837952,
                    -1.5038622617721558,
                    -0.0036761253140866756,
                    0.7629418969154358,
                    0.5053898096084595,
                    -0.2537182569503784,
                    0.18834589421749115,
                    0.5155369639396667
                ]
            ],
            "biasH": [
                0.5551837086677551,
                -0.4515566825866699,
                0.3072052299976349,
                0.07140620052814484,
                -0.7428303956985474,
                0.077565997838974,
                0.8848039507865906,
                0.2136526256799698,
                0.9634128212928772,
                0.559238076210022,
                -1.4397302865982056,
                0.018609357997775078,
                -0.26104259490966797,
                -0.714958131313324,
                -0.23142056167125702,
                0.8405053615570068
            ],
            "biasO": [
                0.08684361726045609,
                0.426119863986969
            ]
        },
        {
            "inputNodes": 18,
            "hiddenNodes": 16,
            "outputNodes": 2,
            "weightsIH": [
                [
                    0.5045708417892456,
                    0.020448965951800346,
                    0.33173099160194397,
                    0.5823031067848206,
                    -1.6956875324249268,
                    -0.32176926732063293,
                    0.5424107313156128,
                    0.7223332524299622,
                    -0.7653384804725647,
                    -0.8231518864631653,
                    -1.2364776134490967,
                    0.15781916677951813,
                    1.0963687896728516,
                    0.3337005376815796,
                    0.29305532574653625,
                    0.3738207519054413,
                    0.7192328572273254,
                    -0.8766461610794067
                ],
                [
                    0.11696909368038177,
                    1.0755776166915894,
                    -1.4912919998168945,
                    -0.35478028655052185,
                    0.8010499477386475,
                    0.4631962180137634,
                    -0.7754203677177429,
                    -0.4916028082370758,
                    0.8247993588447571,
                    1.6971137523651123,
                    -0.4626832902431488,
                    1.4451252222061157,
                    -0.1868511140346527,
                    -0.22098931670188904,
                    -1.0819261074066162,
                    -0.2172335833311081,
                    -1.1514350175857544,
                    0.08215757459402084
                ],
                [
                    1.1245421171188354,
                    0.8179619908332825,
                    0.8172311186790466,
                    0.08761050552129745,
                    -0.758948802947998,
                    0.805427074432373,
                    -0.11743276566267014,
                    -0.43552470207214355,
                    1.1712934970855713,
                    -0.8436176776885986,
                    0.35381919145584106,
                    1.2865008115768433,
                    -0.902450680732727,
                    -0.8164038062095642,
                    0.23071032762527466,
                    2.035487413406372,
                    0.5103195905685425,
                    -0.3114745020866394
                ],
                [
                    -0.9870131611824036,
                    -1.1137937307357788,
                    -1.3962352275848389,
                    -0.2249237596988678,
                    2.082267999649048,
                    0.43741077184677124,
                    0.8333333730697632,
                    0.3920900225639343,
                    0.9461390376091003,
                    0.9374281764030457,
                    0.3737638592720032,
                    -0.19302570819854736,
                    -0.7798847556114197,
                    0.16192059218883514,
                    -0.4198473393917084,
                    0.0472879558801651,
                    0.9004796743392944,
                    -0.9579579830169678
                ],
                [
                    -0.3317837119102478,
                    -0.3238467574119568,
                    1.0993666648864746,
                    1.3144574165344238,
                    -0.5707087516784668,
                    0.7230768203735352,
                    -0.41133421659469604,
                    -0.5864475965499878,
                    0.795581579208374,
                    0.09550897777080536,
                    0.7858349680900574,
                    -2.1562769412994385,
                    -1.2379896640777588,
                    -1.6694750785827637,
                    -1.2582862377166748,
                    0.2370995581150055,
                    -1.1090621948242188,
                    0.5210365653038025
                ],
                [
                    0.7491300702095032,
                    1.2031922340393066,
                    -0.4595884680747986,
                    0.010165752843022346,
                    1.2800183296203613,
                    -0.08200804889202118,
                    2.404782295227051,
                    -0.04960493743419647,
                    0.4511386752128601,
                    -1.4464755058288574,
                    -0.39296942949295044,
                    0.7874048352241516,
                    -0.27568289637565613,
                    0.35458439588546753,
                    -0.8622390031814575,
                    -0.8940314650535583,
                    -2.2084667682647705,
                    -1.0108723640441895
                ],
                [
                    0.1507308930158615,
                    -1.2085436582565308,
                    -0.33075058460235596,
                    0.17786256968975067,
                    -0.6558984518051147,
                    0.48566770553588867,
                    -0.6443889141082764,
                    1.5711668729782104,
                    0.22496582567691803,
                    0.8212145566940308,
                    -0.11264678090810776,
                    -1.5700079202651978,
                    1.2561503648757935,
                    -0.5472288727760315,
                    0.14617490768432617,
                    -0.16988404095172882,
                    1.524025797843933,
                    0.6613782644271851
                ],
                [
                    0.12575189769268036,
                    0.7741919159889221,
                    -0.5653491616249084,
                    1.0333439111709595,
                    0.21236488223075867,
                    0.02343546226620674,
                    0.424631267786026,
                    0.7431289553642273,
                    0.9008582234382629,
                    0.4453125298023224,
                    0.3006802797317505,
                    1.0364291667938232,
                    -0.8988162279129028,
                    0.4389512836933136,
                    0.7197849750518799,
                    0.07465571910142899,
                    -0.05906740576028824,
                    -1.828861951828003
                ],
                [
                    -0.15487708151340485,
                    -1.290270447731018,
                    -0.9875665903091431,
                    0.9604357481002808,
                    -0.05861958861351013,
                    -0.0017865407280623913,
                    0.09400831907987595,
                    -0.06840170919895172,
                    -0.5058648586273193,
                    1.5095053911209106,
                    0.14461028575897217,
                    -0.8126487135887146,
                    1.4451395273208618,
                    -0.6467505693435669,
                    -1.0995416641235352,
                    0.2186794877052307,
                    -0.7544456124305725,
                    -1.4401201009750366
                ],
                [
                    0.38787856698036194,
                    0.9764302372932434,
                    1.883863925933838,
                    -0.7086535096168518,
                    0.1261529177427292,
                    -0.37832173705101013,
                    0.26379284262657166,
                    -2.1745688915252686,
                    0.3091620206832886,
                    -0.46107783913612366,
                    1.5960034132003784,
                    0.3779371678829193,
                    -1.2515323162078857,
                    -1.5077400207519531,
                    -0.7572810649871826,
                    -0.0656173899769783,
                    0.954142153263092,
                    -0.12404531240463257
                ],
                [
                    -0.8003419637680054,
                    -0.3332158327102661,
                    0.4909023344516754,
                    0.6640706658363342,
                    -0.2733345925807953,
                    -1.3134719133377075,
                    0.32934582233428955,
                    0.9646419882774353,
                    -1.3136227130889893,
                    -1.0055441856384277,
                    -0.6083236932754517,
                    -0.5711236596107483,
                    0.35310837626457214,
                    0.3162829875946045,
                    0.3658392131328583,
                    1.0950140953063965,
                    0.913331151008606,
                    1.119716763496399
                ],
                [
                    -0.2253197431564331,
                    -0.9724002480506897,
                    -0.5731607675552368,
                    1.2294158935546875,
                    0.09929532557725906,
                    0.9193722009658813,
                    0.06460513919591904,
                    1.7306609153747559,
                    0.9996208548545837,
                    -0.7071496248245239,
                    0.399936705827713,
                    0.9296631813049316,
                    -1.008158802986145,
                    -0.5355520844459534,
                    0.5001016855239868,
                    -0.07582647353410721,
                    -0.803727924823761,
                    1.390946865081787
                ],
                [
                    -0.9146329760551453,
                    0.36984434723854065,
                    0.5217350125312805,
                    -0.1403162032365799,
                    1.072881817817688,
                    -0.22421520948410034,
                    1.0662857294082642,
                    1.7709630727767944,
                    -0.8902069330215454,
                    2.0693533420562744,
                    0.13732381165027618,
                    -0.0870499387383461,
                    -0.6922541856765747,
                    -0.5349799990653992,
                    -1.230260968208313,
                    0.5903674364089966,
                    0.46566832065582275,
                    1.5529322624206543
                ],
                [
                    1.8009589910507202,
                    0.12862539291381836,
                    1.6364772319793701,
                    0.7484504580497742,
                    0.8749305605888367,
                    0.618262529373169,
                    -0.38841402530670166,
                    -0.11513561010360718,
                    -0.7933219075202942,
                    -0.7900960445404053,
                    0.024861345067620277,
                    1.1260099411010742,
                    -0.6118378639221191,
                    0.105024553835392,
                    0.18731170892715454,
                    -0.00020474925986491144,
                    -0.7416824698448181,
                    -0.8453944325447083
                ],
                [
                    0.4830096662044525,
                    -0.5707975625991821,
                    -0.033290375024080276,
                    -0.2987971603870392,
                    0.47138506174087524,
                    0.7922933101654053,
                    -0.9071897864341736,
                    -0.40256476402282715,
                    -0.0795244351029396,
                    0.6775736808776855,
                    2.508854389190674,
                    -0.1296616494655609,
                    0.5383402109146118,
                    1.1261849403381348,
                    1.1508605480194092,
                    1.6934220790863037,
                    0.1092754527926445,
                    -0.13745194673538208
                ],
                [
                    -0.5054947733879089,
                    0.6064475774765015,
                    -0.19030022621154785,
                    0.9900692701339722,
                    -0.8266568779945374,
                    0.9953804612159729,
                    0.7994188070297241,
                    1.150407314300537,
                    -0.9739538431167603,
                    0.20789577066898346,
                    0.9242024421691895,
                    -0.41363146901130676,
                    -1.398491382598877,
                    -0.6564276814460754,
                    -0.7288678884506226,
                    -0.15034307539463043,
                    1.4376204013824463,
                    -0.6597918272018433
                ]
            ],
            "weightsHO": [
                [
                    1.0104206800460815,
                    -1.4567291736602783,
                    -0.022247977554798126,
                    -1.0795514583587646,
                    -0.5837919116020203,
                    -0.9301361441612244,
                    -0.8162771463394165,
                    -1.7987236976623535,
                    -0.6527148485183716,
                    -0.5655791759490967,
                    1.208802342414856,
                    0.40124306082725525,
                    -1.7033156156539917,
                    1.6151407957077026,
                    -0.26816609501838684,
                    -0.2805052101612091
                ],
                [
                    -0.4789598882198334,
                    -1.0767920017242432,
                    -1.299202799797058,
                    0.3676161468029022,
                    -0.16015569865703583,
                    -1.0467535257339478,
                    0.4285520613193512,
                    -1.1312401294708252,
                    1.093948483467102,
                    -1.5206527709960938,
                    0.0823327824473381,
                    0.4982638657093048,
                    0.5053898096084595,
                    -0.15248513221740723,
                    0.18834589421749115,
                    0.4867571294307709
                ]
            ],
            "biasH": [
                0.8336496949195862,
                -0.2176855355501175,
                0.3072052299976349,
                0.05459728464484215,
                -0.5780569314956665,
                -0.8636727333068848,
                0.5720219612121582,
                0.40499475598335266,
                1.0716902017593384,
                0.9130940437316895,
                -1.0730539560317993,
                0.09102623909711838,
                -0.33430734276771545,
                -0.26535212993621826,
                -0.4427611231803894,
                0.7718397974967957
            ],
            "biasO": [
                -0.08048495650291443,
                0.426119863986969
            ]
        },
        {
            "inputNodes": 18,
            "hiddenNodes": 16,
            "outputNodes": 2,
            "weightsIH": [
                [
                    -0.0980311706662178,
                    -0.07922965288162231,
                    0.37311840057373047,
                    -0.37929028272628784,
                    -2.081385374069214,
                    -0.4260178208351135,
                    0.5424107313156128,
                    0.7674607634544373,
                    -0.7653384804725647,
                    -0.9089805483818054,
                    -1.2364776134490967,
                    0.5265716314315796,
                    0.519629180431366,
                    -0.054830100387334824,
                    0.01906687766313553,
                    0.43876659870147705,
                    0.5772373080253601,
                    -1.0224871635437012
                ],
                [
                    0.4294850528240204,
                    0.9514199495315552,
                    -1.2949570417404175,
                    -0.8695176839828491,
                    0.411955863237381,
                    0.5264337062835693,
                    -0.6193075776100159,
                    -0.6603363752365112,
                    1.0021376609802246,
                    1.535017967224121,
                    -0.6233721971511841,
                    1.2130104303359985,
                    -0.21608492732048035,
                    -0.314816951751709,
                    -1.1151849031448364,
                    -0.10696753114461899,
                    -1.474467158317566,
                    0.33458617329597473
                ],
                [
                    0.9539403319358826,
                    0.9918090105056763,
                    0.8172311186790466,
                    0.08140316605567932,
                    -0.8763718605041504,
                    1.0149667263031006,
                    -0.28463560342788696,
                    -0.2564028799533844,
                    0.15092140436172485,
                    -0.510466456413269,
                    0.6727914214134216,
                    1.4052772521972656,
                    -0.782719612121582,
                    -0.6917747259140015,
                    0.23071032762527466,
                    2.0458273887634277,
                    0.019654113799333572,
                    -0.27447015047073364
                ],
                [
                    -1.189246654510498,
                    -0.932231605052948,
                    -1.5098285675048828,
                    -0.3223670423030853,
                    1.3280256986618042,
                    0.45426905155181885,
                    1.4402287006378174,
                    0.038149818778038025,
                    0.6493483781814575,
                    0.26524096727371216,
                    0.15383122861385345,
                    -0.19302570819854736,
                    -0.8540677428245544,
                    0.11296075582504272,
                    -0.29142284393310547,
                    0.28693288564682007,
                    0.36129555106163025,
                    -0.8976421356201172
                ],
                [
                    0.16141648590564728,
                    -0.16761226952075958,
                    1.0439170598983765,
                    1.1862831115722656,
                    -0.3781774640083313,
                    0.8448910117149353,
                    -0.13977590203285217,
                    -0.8202780485153198,
                    0.4137723743915558,
                    -0.04669853672385216,
                    0.14403226971626282,
                    -1.8977378606796265,
                    -1.0164823532104492,
                    -2.0675411224365234,
                    -1.170166254043579,
                    0.02350037731230259,
                    -0.4598485827445984,
                    0.3100269138813019
                ],
                [
                    0.8132723569869995,
                    1.1806188821792603,
                    -0.6587879657745361,
                    0.23930267989635468,
                    1.2755262851715088,
                    0.07879363745450974,
                    2.199653387069702,
                    0.026151606813073158,
                    1.004911184310913,
                    -1.5249484777450562,
                    -0.343616247177124,
                    0.7027624845504761,
                    0.17615316808223724,
                    0.6926141977310181,
                    -0.8622390031814575,
                    -0.8217887878417969,
                    -2.2084667682647705,
                    -0.8679609298706055
                ],
                [
                    -0.15524140000343323,
                    -1.357846736907959,
                    -0.4670485258102417,
                    0.1527501344680786,
                    -0.7478163242340088,
                    -0.20152108371257782,
                    -1.5633113384246826,
                    1.5960899591445923,
                    0.2857019007205963,
                    0.4892677664756775,
                    -0.010271250270307064,
                    -1.5726497173309326,
                    1.2174792289733887,
                    -0.6177625060081482,
                    -0.22010375559329987,
                    -0.03803486377000809,
                    1.5283821821212769,
                    0.9152141213417053
                ],
                [
                    0.21806788444519043,
                    0.9252429604530334,
                    -0.30022159218788147,
                    0.9997548460960388,
                    0.21456360816955566,
                    0.45975595712661743,
                    0.5384443998336792,
                    0.9215306639671326,
                    0.5315665006637573,
                    0.6713336706161499,
                    0.45799753069877625,
                    1.0209459066390991,
                    -0.7130414247512817,
                    0.5970688462257385,
                    0.7610414624214172,
                    0.07465571910142899,
                    -0.7232218980789185,
                    -1.663379192352295
                ],
                [
                    0.1099550649523735,
                    -1.364632487297058,
                    -0.9875665903091431,
                    1.2918195724487305,
                    -0.14815673232078552,
                    0.31186366081237793,
                    0.14667649567127228,
                    0.01281874068081379,
                    -0.9143588542938232,
                    1.8820935487747192,
                    -0.09649543464183807,
                    -0.9372110962867737,
                    1.5073745250701904,
                    -0.20801028609275818,
                    -0.8591606020927429,
                    0.2572433054447174,
                    -0.854403555393219,
                    -1.4401201009750366
                ],
                [
                    0.10025496780872345,
                    0.7909786105155945,
                    1.7844247817993164,
                    -0.775000810623169,
                    0.545779824256897,
                    -0.3504682779312134,
                    -0.016655772924423218,
                    -2.248771905899048,
                    0.39346742630004883,
                    -0.187776580452919,
                    1.4784032106399536,
                    0.05701722949743271,
                    -1.8560678958892822,
                    -1.5671111345291138,
                    -0.31383904814720154,
                    -0.00810234621167183,
                    0.7695105075836182,
                    -0.5804431438446045
                ],
                [
                    -0.42543813586235046,
                    -0.34700825810432434,
                    0.11972105503082275,
                    1.2222120761871338,
                    -0.2733345925807953,
                    -1.2019593715667725,
                    0.3814288079738617,
                    0.8455156087875366,
                    -1.0495853424072266,
                    -0.9712421298027039,
                    -0.39784300327301025,
                    -0.40406858921051025,
                    -0.2563321590423584,
                    0.36607176065444946,
                    0.2187623679637909,
                    1.005480408668518,
                    0.624566912651062,
                    0.6791872978210449
                ],
                [
                    -0.1757029891014099,
                    -0.9430112242698669,
                    -0.4411449134349823,
                    1.2294158935546875,
                    0.09929532557725906,
                    0.9479090571403503,
                    -0.12631568312644958,
                    1.1909730434417725,
                    1.4750107526779175,
                    -0.543328583240509,
                    0.15840771794319153,
                    0.9296631813049316,
                    -1.0280271768569946,
                    -0.9322531819343567,
                    0.0050592063926160336,
                    -0.08081532269716263,
                    -0.6685419082641602,
                    1.1259844303131104
                ],
                [
                    -1.0330952405929565,
                    0.30862513184547424,
                    0.768658459186554,
                    0.1881493628025055,
                    0.3950309157371521,
                    -0.22421520948410034,
                    0.9779049158096313,
                    1.451918601989746,
                    -1.2273904085159302,
                    1.9408243894577026,
                    0.04896114021539688,
                    0.018552180379629135,
                    -1.1331425905227661,
                    -0.8570071458816528,
                    -1.07680344581604,
                    0.17684809863567352,
                    0.2775043547153473,
                    1.5529322624206543
                ],
                [
                    1.9383541345596313,
                    0.5728948712348938,
                    1.8150451183319092,
                    0.5741226077079773,
                    0.8749305605888367,
                    0.533010721206665,
                    -0.2782773971557617,
                    -0.1717018485069275,
                    -1.522412896156311,
                    -0.8407249450683594,
                    0.8203797936439514,
                    1.6077470779418945,
                    -0.5170149207115173,
                    -0.030440984293818474,
                    0.37990614771842957,
                    0.16621680557727814,
                    -0.7249141335487366,
                    -0.6136545538902283
                ],
                [
                    0.6341206431388855,
                    -1.452520489692688,
                    -0.040393900126218796,
                    -0.39364737272262573,
                    0.3854740560054779,
                    0.5469749569892883,
                    -0.8402761220932007,
                    -0.8759170174598694,
                    -0.4596100449562073,
                    0.8709116578102112,
                    2.7215445041656494,
                    0.038671787828207016,
                    0.8439592719078064,
                    0.7201256155967712,
                    1.0222479104995728,
                    1.4097403287887573,
                    -0.9132344722747803,
                    -0.13745194673538208
                ],
                [
                    -0.49075454473495483,
                    -0.1397073119878769,
                    -0.17454618215560913,
                    0.9425957202911377,
                    -0.8358124494552612,
                    0.9953804612159729,
                    0.5901271104812622,
                    0.9252341985702515,
                    -0.9530875086784363,
                    -0.18336476385593414,
                    1.0727723836898804,
                    -0.6349879503250122,
                    -1.535028338432312,
                    -0.535885214805603,
                    -0.8961006999015808,
                    -0.6281507015228271,
                    1.5233962535858154,
                    -0.3537971079349518
                ]
            ],
            "weightsHO": [
                [
                    0.8356073498725891,
                    -1.3468825817108154,
                    0.010810854844748974,
                    -1.4312398433685303,
                    -0.917303204536438,
                    -0.7134818434715271,
                    -0.6142724752426147,
                    -1.7646315097808838,
                    -0.7083877325057983,
                    -0.4791853129863739,
                    0.7583867907524109,
                    -0.30062881112098694,
                    -1.8754243850708008,
                    1.4189509153366089,
                    -0.5667555332183838,
                    -0.4203018844127655
                ],
                [
                    -0.22258241474628448,
                    -0.8083457350730896,
                    -1.2500145435333252,
                    1.013217806816101,
                    0.016586672514677048,
                    -1.0467535257339478,
                    0.8793062567710876,
                    -1.1312401294708252,
                    1.0897982120513916,
                    -1.5038622617721558,
                    0.04525281861424446,
                    0.6977525353431702,
                    0.5053898096084595,
                    -0.07488299161195755,
                    0.3295518159866333,
                    0.3278690278530121
                ]
            ],
            "biasH": [
                0.7910400032997131,
                -0.5418495535850525,
                0.037797097116708755,
                0.07140620052814484,
                -0.8138018846511841,
                0.25004103779792786,
                0.7207872271537781,
                0.2564825415611267,
                1.5223926305770874,
                1.3704787492752075,
                -1.0511318445205688,
                -0.2886505424976349,
                -0.2978748083114624,
                -0.6527085900306702,
                -0.23142056167125702,
                0.8913059830665588
            ],
            "biasO": [
                0.292858362197876,
                0.414018839597702
            ]
        },
        {
            "inputNodes": 18,
            "hiddenNodes": 16,
            "outputNodes": 2,
            "weightsIH": [
                [
                    0.15799081325531006,
                    -0.2831591069698334,
                    0.4185042679309845,
                    -0.0004170800093561411,
                    -1.9093166589736938,
                    -0.26286599040031433,
                    0.561337411403656,
                    0.9657507538795471,
                    -0.7168010473251343,
                    -0.6124202609062195,
                    -1.2364776134490967,
                    0.2973635792732239,
                    0.9570574164390564,
                    0.15403418242931366,
                    0.29305532574653625,
                    0.43876659870147705,
                    0.6786198616027832,
                    -1.1746346950531006
                ],
                [
                    0.25312647223472595,
                    0.8968550562858582,
                    -1.2949570417404175,
                    -0.6470075249671936,
                    0.6547738313674927,
                    0.5264337062835693,
                    -0.7927929759025574,
                    -1.2450836896896362,
                    0.9517574906349182,
                    1.029964566230774,
                    -0.5643799901008606,
                    1.310479760169983,
                    -0.28694435954093933,
                    -0.1347855031490326,
                    -1.087640643119812,
                    -0.2172335833311081,
                    -1.474467158317566,
                    0.10109781473875046
                ],
                [
                    0.9539403319358826,
                    0.5948970317840576,
                    0.629234254360199,
                    0.14531996846199036,
                    -0.5629515051841736,
                    0.6740218997001648,
                    0.4227384924888611,
                    -0.597767174243927,
                    1.1712934970855713,
                    -0.48679211735725403,
                    0.44417598843574524,
                    1.4576349258422852,
                    -1.0701740980148315,
                    -0.5041419863700867,
                    0.24209044873714447,
                    2.035487413406372,
                    0.5593547224998474,
                    -0.28078895807266235
                ],
                [
                    -0.9870131611824036,
                    -1.0374765396118164,
                    -1.901963710784912,
                    -0.4565310478210449,
                    2.0659871101379395,
                    0.23640571534633636,
                    1.3159223794937134,
                    0.3823353350162506,
                    0.8902216553688049,
                    0.7067476511001587,
                    0.3956802189350128,
                    -0.6029874086380005,
                    -0.7590293884277344,
                    0.23094432055950165,
                    -0.5587852001190186,
                    0.44550323486328125,
                    0.6244271397590637,
                    -0.8493454456329346
                ],
                [
                    0.24593374133110046,
                    -0.27272284030914307,
                    0.8547232151031494,
                    1.2556084394454956,
                    -0.3781774640083313,
                    0.684826672077179,
                    -0.18606050312519073,
                    -0.7027583718299866,
                    0.7157174348831177,
                    0.0835702046751976,
                    1.1710550785064697,
                    -2.4609246253967285,
                    -1.260219693183899,
                    -1.718381643295288,
                    -1.3402485847473145,
                    0.04718802496790886,
                    -1.1600947380065918,
                    0.592995285987854
                ],
                [
                    0.7817047834396362,
                    0.9370703101158142,
                    -0.8322815895080566,
                    -0.19957922399044037,
                    1.239986777305603,
                    0.09019806236028671,
                    2.2677814960479736,
                    -0.04960493743419647,
                    1.1165729761123657,
                    -1.3915938138961792,
                    -0.343616247177124,
                    0.7183773517608643,
                    -0.5818880200386047,
                    0.16756963729858398,
                    -0.5261710286140442,
                    -0.8217887878417969,
                    -2.335324764251709,
                    -0.8679609298706055
                ],
                [
                    0.3299817442893982,
                    -1.3041267395019531,
                    -0.6894587874412537,
                    0.19033972918987274,
                    -1.1466772556304932,
                    0.6664029955863953,
                    -1.7235795259475708,
                    1.567816972732544,
                    -0.018401168286800385,
                    0.7867804765701294,
                    -0.11264678090810776,
                    -1.773892879486084,
                    1.2561503648757935,
                    -0.7306712865829468,
                    0.14617490768432617,
                    -0.03803486377000809,
                    1.025735855102539,
                    0.8236230611801147
                ],
                [
                    0.470702588558197,
                    0.9959304332733154,
                    -0.6024228930473328,
                    0.9120773673057556,
                    0.09350495785474777,
                    0.25280025601387024,
                    0.424631267786026,
                    0.9806770086288452,
                    0.9661421775817871,
                    0.2782324552536011,
                    0.45390260219573975,
                    1.0209459066390991,
                    -0.464347779750824,
                    0.4429270029067993,
                    0.7197849750518799,
                    0.07465571910142899,
                    -0.4530196785926819,
                    -1.5865293741226196
                ],
                [
                    0.034016430377960205,
                    -1.3187928199768066,
                    -0.7729325890541077,
                    1.420358419418335,
                    -0.067891925573349,
                    0.36299964785575867,
                    0.523115873336792,
                    -0.5450108647346497,
                    -0.8041975498199463,
                    1.7528572082519531,
                    0.14461028575897217,
                    -0.8482565879821777,
                    1.4451395273208618,
                    -0.4660376012325287,
                    -0.8689108490943909,
                    -0.04933195561170578,
                    -0.25371459126472473,
                    -1.4811656475067139
                ],
                [
                    0.14130517840385437,
                    1.4751224517822266,
                    1.8937312364578247,
                    -0.52422034740448,
                    0.4249921441078186,
                    -0.591152548789978,
                    0.30940699577331543,
                    -2.1745688915252686,
                    0.5175566077232361,
                    0.09060387313365936,
                    1.6333897113800049,
                    -0.1025368720293045,
                    -1.719514012336731,
                    -1.2171177864074707,
                    -0.9938923716545105,
                    0.07092742621898651,
                    0.7695105075836182,
                    -0.4928046464920044
                ],
                [
                    -0.8233582377433777,
                    -0.5129053592681885,
                    0.524695098400116,
                    0.9637804627418518,
                    -0.32470762729644775,
                    -1.4514026641845703,
                    0.3814288079738617,
                    0.8609523177146912,
                    -1.1387121677398682,
                    -0.6050915122032166,
                    -0.7197222709655762,
                    -0.580933690071106,
                    0.1293696165084839,
                    0.36607176065444946,
                    0.3658392131328583,
                    1.1664642095565796,
                    0.7725638151168823,
                    1.0650441646575928
                ],
                [
                    -0.3642440736293793,
                    -1.0536500215530396,
                    -0.4079062044620514,
                    1.2294158935546875,
                    -0.036629196256399155,
                    1.0537137985229492,
                    -0.18977949023246765,
                    1.6855133771896362,
                    0.9996208548545837,
                    -0.543328583240509,
                    -0.32157495617866516,
                    0.6974356770515442,
                    -1.1170477867126465,
                    -1.2309898138046265,
                    0.1928381770849228,
                    0.20519210398197174,
                    -0.004340840503573418,
                    1.6783487796783447
                ],
                [
                    -0.7529011368751526,
                    0.43496692180633545,
                    0.5217350125312805,
                    0.33270880579948425,
                    0.37306684255599976,
                    0.08637358248233795,
                    1.3401992321014404,
                    1.730177879333496,
                    -1.049462080001831,
                    1.8416377305984497,
                    -0.07633044570684433,
                    0.018552180379629135,
                    -0.7458017468452454,
                    -0.9564542770385742,
                    -1.07680344581604,
                    0.2343483418226242,
                    -0.40737926959991455,
                    1.2834148406982422
                ],
                [
                    2.066974639892578,
                    0.38439151644706726,
                    1.5264523029327393,
                    0.8955449461936951,
                    0.728804349899292,
                    0.4935223162174225,
                    -0.44701337814331055,
                    -0.25960370898246765,
                    -1.652860164642334,
                    -0.9209957718849182,
                    0.2782614827156067,
                    1.290331482887268,
                    -0.6889947652816772,
                    -0.07870664447546005,
                    0.5076355338096619,
                    0.16247610747814178,
                    -0.6626485586166382,
                    -0.9410942792892456
                ],
                [
                    0.38065269589424133,
                    -1.4251731634140015,
                    -0.17510387301445007,
                    -0.2987971603870392,
                    0.26126915216445923,
                    0.5187740921974182,
                    -0.8402761220932007,
                    -0.7909453511238098,
                    -0.0795244351029396,
                    0.7251071333885193,
                    2.536663293838501,
                    -0.3759085237979889,
                    0.7581248879432678,
                    0.9714982509613037,
                    1.0222479104995728,
                    1.617031216621399,
                    0.1092754527926445,
                    -0.2888615131378174
                ],
                [
                    -0.4988611936569214,
                    0.28197458386421204,
                    -0.150679349899292,
                    0.7819947600364685,
                    -0.6459032297134399,
                    0.8430967926979065,
                    0.6523922085762024,
                    0.9140651822090149,
                    -0.9530875086784363,
                    -0.18336476385593414,
                    0.8061859011650085,
                    -0.4790583550930023,
                    -1.3897422552108765,
                    -2.3227131366729736,
                    -0.7288678884506226,
                    -0.7583649158477783,
                    1.4342767000198364,
                    -0.3537971079349518
                ]
            ],
            "weightsHO": [
                [
                    1.0104206800460815,
                    -1.4567291736602783,
                    0.6320286393165588,
                    -1.0851784944534302,
                    -0.7635547518730164,
                    -0.8829580545425415,
                    -0.8162771463394165,
                    -1.7987236976623535,
                    -0.7243351340293884,
                    -0.5970138311386108,
                    1.1494325399398804,
                    0.22203099727630615,
                    -1.7085005044937134,
                    1.8991942405700684,
                    -0.530612051486969,
                    -0.3540501594543457
                ],
                [
                    -0.29328563809394836,
                    -0.640522301197052,
                    -1.2500145435333252,
                    0.3676161468029022,
                    0.016586672514677048,
                    -1.2962427139282227,
                    1.050586462020874,
                    -1.1312401294708252,
                    1.1009807586669922,
                    -1.5645090341567993,
                    0.002187201287597418,
                    0.6779387593269348,
                    0.12192057818174362,
                    0.01885499432682991,
                    0.24438968300819397,
                    0.4867571294307709
                ]
            ],
            "biasH": [
                1.0054001808166504,
                -0.4856854975223541,
                0.19814234972000122,
                0.05459728464484215,
                -0.7608517408370972,
                -0.789482831954956,
                0.5376316905021667,
                0.34898391366004944,
                1.5167986154556274,
                1.0563476085662842,
                -1.854335904121399,
                -0.07154671102762222,
                0.4018695056438446,
                -0.714958131313324,
                -0.22443485260009766,
                0.6590576171875
            ],
            "biasO": [
                0.07029493898153305,
                0.426119863986969
            ]
        },
        {
            "inputNodes": 18,
            "hiddenNodes": 16,
            "outputNodes": 2,
            "weightsIH": [
                [
                    0.3166569173336029,
                    0.004345141351222992,
                    0.4185042679309845,
                    -0.37929028272628784,
                    -1.9921611547470093,
                    -0.25340113043785095,
                    0.5042936205863953,
                    0.8896366357803345,
                    -0.6436406373977661,
                    -0.9089805483818054,
                    -1.1368006467819214,
                    0.15781916677951813,
                    0.7244457602500916,
                    -0.042345933616161346,
                    0.16145969927310944,
                    -0.09497620165348053,
                    0.6591203212738037,
                    -1.0942037105560303
                ],
                [
                    0.05797472596168518,
                    1.0993163585662842,
                    -1.4912919998168945,
                    -0.8695176839828491,
                    0.6547738313674927,
                    0.41874125599861145,
                    -0.6713789701461792,
                    -0.5995596051216125,
                    1.0232146978378296,
                    1.5903884172439575,
                    -0.6233721971511841,
                    0.864557683467865,
                    -0.10244226455688477,
                    -0.18642553687095642,
                    -1.2011383771896362,
                    -0.19653385877609253,
                    -1.474467158317566,
                    0.33458617329597473
                ],
                [
                    0.9539403319358826,
                    0.8179619908332825,
                    0.7715720534324646,
                    0.08140316605567932,
                    -0.7529151439666748,
                    0.7317467331886292,
                    0.2455427646636963,
                    -0.2564028799533844,
                    -0.4269678592681885,
                    -0.6402692794799805,
                    0.44417598843574524,
                    1.3964581489562988,
                    -0.7645080089569092,
                    -0.6688481569290161,
                    0.05874055624008179,
                    2.3258719444274902,
                    0.019654113799333572,
                    -0.27447015047073364
                ],
                [
                    -1.19029700756073,
                    -1.1930577754974365,
                    -1.8118101358413696,
                    0.1888018697500229,
                    1.3629859685897827,
                    0.45426905155181885,
                    1.4402287006378174,
                    0.16355210542678833,
                    0.6493483781814575,
                    0.26524096727371216,
                    0.15383122861385345,
                    0.12759217619895935,
                    -0.9685847759246826,
                    0.34303826093673706,
                    -0.2565542757511139,
                    0.1471203863620758,
                    0.3766412138938904,
                    -0.47939208149909973
                ],
                [
                    0.10168496519327164,
                    -0.16761226952075958,
                    0.49820831418037415,
                    1.1862831115722656,
                    -0.3781774640083313,
                    0.684826672077179,
                    -0.13977590203285217,
                    -0.6534813046455383,
                    0.5926295518875122,
                    -0.06524351984262466,
                    0.14403226971626282,
                    -2.5062665939331055,
                    -1.0164823532104492,
                    -2.149923801422119,
                    -1.2290345430374146,
                    -0.08721017837524414,
                    -0.45507824420928955,
                    0.3440488278865814
                ],
                [
                    0.8132723569869995,
                    1.1806188821792603,
                    -0.4595884680747986,
                    -0.26455575227737427,
                    1.252531886100769,
                    -0.011649181134998798,
                    2.311675548553467,
                    0.4946140646934509,
                    1.1165729761123657,
                    -1.5249484777450562,
                    -0.39033961296081543,
                    1.0845757722854614,
                    0.17615316808223724,
                    0.5245304107666016,
                    -1.0008044242858887,
                    -0.8145352005958557,
                    -1.6797667741775513,
                    -0.8679609298706055
                ],
                [
                    -0.15524140000343323,
                    -1.357846736907959,
                    -0.8589679598808289,
                    0.1527501344680786,
                    -0.7478163242340088,
                    -0.20152108371257782,
                    -0.9146108627319336,
                    1.5711668729782104,
                    0.2857019007205963,
                    0.9334351420402527,
                    -0.39862385392189026,
                    -1.5726497173309326,
                    1.4364981651306152,
                    -0.6177625060081482,
                    0.3447515070438385,
                    -0.30180612206459045,
                    1.5361486673355103,
                    0.7025688886642456
                ],
                [
                    0.21174998581409454,
                    0.98247230052948,
                    -0.35378018021583557,
                    0.9997548460960388,
                    0.4765615165233612,
                    0.2694772183895111,
                    0.6417123079299927,
                    0.9806770086288452,
                    0.5315665006637573,
                    0.696238100528717,
                    0.5806868672370911,
                    0.8617402911186218,
                    -0.464347779750824,
                    0.5190516710281372,
                    0.7944085597991943,
                    0.07465571910142899,
                    -0.05906740576028824,
                    -1.5110325813293457
                ],
                [
                    0.1099550649523735,
                    -1.364632487297058,
                    -0.9875665903091431,
                    1.2918195724487305,
                    -0.14815673232078552,
                    0.36299964785575867,
                    0.37721318006515503,
                    -0.5462741255760193,
                    -0.9143588542938232,
                    1.8820935487747192,
                    -0.5812854766845703,
                    -0.8482565879821777,
                    1.5469967126846313,
                    -0.4660376012325287,
                    -0.8689108490943909,
                    0.2024162858724594,
                    -0.4220404326915741,
                    -1.4811656475067139
                ],
                [
                    0.10025496780872345,
                    0.95848149061203,
                    2.0636260509490967,
                    -0.826808750629425,
                    0.24273131787776947,
                    -0.27820777893066406,
                    -0.016655772924423218,
                    -2.248771905899048,
                    0.39346742630004883,
                    -0.10567495971918106,
                    1.5310503244400024,
                    -0.1456030309200287,
                    -1.8560678958892822,
                    -1.3922232389450073,
                    -0.9133292436599731,
                    -0.00810234621167183,
                    0.7695105075836182,
                    -0.4928046464920044
                ],
                [
                    -0.6915887594223022,
                    -0.22658950090408325,
                    0.11972105503082275,
                    1.3110121488571167,
                    -0.32470762729644775,
                    -1.2019593715667725,
                    0.4807301163673401,
                    0.8573881387710571,
                    -1.0495853424072266,
                    -0.8625791072845459,
                    -0.8534829616546631,
                    -0.30403831601142883,
                    -0.0925353541970253,
                    0.3162829875946045,
                    0.3316513001918793,
                    1.005480408668518,
                    1.230225682258606,
                    0.6791872978210449
                ],
                [
                    -0.1757029891014099,
                    -0.686040997505188,
                    -0.4079062044620514,
                    0.8215891718864441,
                    0.09929532557725906,
                    1.3553858995437622,
                    -0.08528734743595123,
                    1.538663625717163,
                    1.4750107526779175,
                    -0.4692012369632721,
                    0.017308862879872322,
                    1.108551025390625,
                    -1.4895774126052856,
                    -0.9465214610099792,
                    0.0050592063926160336,
                    0.08711738139390945,
                    -0.6157200932502747,
                    1.4462049007415771
                ],
                [
                    -1.0528850555419922,
                    0.47972050309181213,
                    0.6286140084266663,
                    0.33270880579948425,
                    0.8231496810913086,
                    0.30718234181404114,
                    0.9779049158096313,
                    1.451918601989746,
                    -1.0753406286239624,
                    1.814544439315796,
                    0.2011987715959549,
                    -0.184575617313385,
                    -0.7938241958618164,
                    -0.643983781337738,
                    -1.07680344581604,
                    0.055682916194200516,
                    0.2775043547153473,
                    1.5529322624206543
                ],
                [
                    1.9383541345596313,
                    0.46562522649765015,
                    1.6302011013031006,
                    0.7484506368637085,
                    0.8749305605888367,
                    -0.4540732204914093,
                    -0.38841402530670166,
                    -0.5037581324577332,
                    -1.652860164642334,
                    -0.7862924337387085,
                    -0.1264791488647461,
                    1.466948390007019,
                    -0.6118378639221191,
                    -0.07870664447546005,
                    0.5076355338096619,
                    0.013459708541631699,
                    -0.7249141335487366,
                    -0.46767187118530273
                ],
                [
                    0.5440906882286072,
                    -1.509101152420044,
                    -0.040393900126218796,
                    -0.2987971603870392,
                    0.33429425954818726,
                    0.4793420433998108,
                    -0.44152769446372986,
                    -0.7015981078147888,
                    -0.4596100449562073,
                    0.6775736808776855,
                    2.536663293838501,
                    -0.14398929476737976,
                    0.8439592719078064,
                    0.842023491859436,
                    1.0222479104995728,
                    1.3282517194747925,
                    -0.9132344722747803,
                    -0.10815110802650452
                ],
                [
                    -0.49075454473495483,
                    -0.1397073119878769,
                    -0.2303692251443863,
                    0.8898256421089172,
                    -0.6459032297134399,
                    1.3835643529891968,
                    0.5642529129981995,
                    0.8839575052261353,
                    -0.9530875086784363,
                    -0.18336476385593414,
                    0.8891576528549194,
                    -0.6349879503250122,
                    -1.0950391292572021,
                    -0.535885214805603,
                    -0.887326180934906,
                    -0.15903209149837494,
                    1.3927803039550781,
                    -0.3770188093185425
                ]
            ],
            "weightsHO": [
                [
                    0.8509361147880554,
                    -1.4420108795166016,
                    0.010810854844748974,
                    -1.4312398433685303,
                    -0.7548423409461975,
                    -0.9301361441612244,
                    -0.6142724752426147,
                    -1.2996140718460083,
                    -0.11608549952507019,
                    -0.4791853129863739,
                    0.915286660194397,
                    0.18148505687713623,
                    -1.546238660812378,
                    1.6151407957077026,
                    -0.41314634680747986,
                    -0.3096909523010254
                ],
                [
                    -0.29328563809394836,
                    -0.513589084148407,
                    -1.2500145435333252,
                    1.013217806816101,
                    0.23137448728084564,
                    -1.0467535257339478,
                    0.4285520613193512,
                    -1.1312401294708252,
                    0.8858934044837952,
                    -1.5038622617721558,
                    0.04525281861424446,
                    0.762933075428009,
                    0.5053898096084595,
                    -0.07488299161195755,
                    0.3295518159866333,
                    0.4715029001235962
                ]
            ],
            "biasH": [
                0.8801226019859314,
                -0.5418495535850525,
                0.3072052299976349,
                0.07140620052814484,
                -0.8138018846511841,
                -0.789482831954956,
                0.5376316905021667,
                0.6913853883743286,
                1.5223926305770874,
                0.825710117816925,
                -1.3188660144805908,
                0.09102623909711838,
                -0.2978748083114624,
                -0.904628574848175,
                -0.23142056167125702,
                1.0251598358154297
            ],
            "biasO": [
                0.292858362197876,
                0.5154497027397156
            ]
        },
        {
            "inputNodes": 18,
            "hiddenNodes": 16,
            "outputNodes": 2,
            "weightsIH": [
                [
                    0.4907627999782562,
                    -0.058271896094083786,
                    0.4185042679309845,
                    -0.18254946172237396,
                    -0.9193429946899414,
                    -0.5498809814453125,
                    0.5400946140289307,
                    0.8074790835380554,
                    -0.6580831408500671,
                    -0.9945676922798157,
                    -1.1441107988357544,
                    0.35134217143058777,
                    0.931922972202301,
                    -0.14475247263908386,
                    0.29305532574653625,
                    0.5196648836135864,
                    0.4789983332157135,
                    -1.1746346950531006
                ],
                [
                    0.11696909368038177,
                    1.1930373907089233,
                    -1.4912919998168945,
                    -0.4537809491157532,
                    0.3288407325744629,
                    0.3588266372680664,
                    -0.6479219794273376,
                    -0.4916028082370758,
                    0.9517574906349182,
                    1.029964566230774,
                    -0.21731489896774292,
                    1.3431447744369507,
                    -0.36978429555892944,
                    -0.47790130972862244,
                    -1.275185227394104,
                    -0.10696753114461899,
                    -1.474467158317566,
                    0.10109781473875046
                ],
                [
                    0.6412452459335327,
                    0.8179619908332825,
                    0.702936053276062,
                    0.08761050552129745,
                    -0.8094605803489685,
                    0.6189988255500793,
                    -0.24234186112880707,
                    -0.5837775468826294,
                    1.1712934970855713,
                    -0.6402692794799805,
                    0.4383234977722168,
                    1.2510204315185547,
                    -1.0701740980148315,
                    -0.378176748752594,
                    0.12068517506122589,
                    2.236220359802246,
                    0.5103195905685425,
                    -0.28078895807266235
                ],
                [
                    -1.185965657234192,
                    -0.971352756023407,
                    -1.8118101358413696,
                    0.1888018697500229,
                    1.325800895690918,
                    0.29811418056488037,
                    1.3159223794937134,
                    0.3920900225639343,
                    0.6493483781814575,
                    0.5241798758506775,
                    0.2562068700790405,
                    -0.651502251625061,
                    -0.9809949994087219,
                    0.16192059218883514,
                    -0.16965793073177338,
                    0.4365577697753906,
                    0.9985169172286987,
                    -0.8493454456329346
                ],
                [
                    0.24593374133110046,
                    -0.27272284030914307,
                    0.8547232151031494,
                    1.3027104139328003,
                    -0.5847379565238953,
                    0.7167386412620544,
                    -0.31185171008110046,
                    -0.6534813046455383,
                    0.4722229242324829,
                    0.2494649887084961,
                    1.1710550785064697,
                    -2.4609246253967285,
                    -1.2240104675292969,
                    -1.7443516254425049,
                    -1.4015761613845825,
                    -0.08721017837524414,
                    -1.1090621948242188,
                    0.592995285987854
                ],
                [
                    0.6950774788856506,
                    0.9370703101158142,
                    -0.8322815895080566,
                    -0.5419355034828186,
                    1.2367490530014038,
                    0.09019806236028671,
                    2.2677814960479736,
                    -0.0325438529253006,
                    1.004911184310913,
                    -1.6471604108810425,
                    -0.7704538106918335,
                    0.9348801374435425,
                    -0.30333706736564636,
                    0.6645898818969727,
                    -0.5038282871246338,
                    -0.6059576869010925,
                    -2.2084667682647705,
                    -0.9830204844474792
                ],
                [
                    -0.018352415412664413,
                    -1.2191954851150513,
                    -0.33075058460235596,
                    0.19033972918987274,
                    -0.6754755973815918,
                    0.5965019464492798,
                    -1.7992560863494873,
                    1.4684752225875854,
                    0.05389747768640518,
                    0.4892677664756775,
                    -0.11264678090810776,
                    -1.6397030353546143,
                    1.289955496788025,
                    -0.7306712865829468,
                    0.13689470291137695,
                    -0.14376004040241241,
                    1.025735855102539,
                    0.7025688886642456
                ],
                [
                    0.005917204078286886,
                    0.9959304332733154,
                    -0.6024228930473328,
                    1.270306944847107,
                    0.09350495785474777,
                    0.0706692636013031,
                    0.40097522735595703,
                    0.9806770086288452,
                    0.805846095085144,
                    0.4453125298023224,
                    0.5113905072212219,
                    1.1278669834136963,
                    -0.781282901763916,
                    0.4429270029067993,
                    0.5596908926963806,
                    0.07465571910142899,
                    -0.05906740576028824,
                    -1.4513787031173706
                ],
                [
                    0.034661754965782166,
                    -1.184453010559082,
                    -0.6933515667915344,
                    1.4130305051803589,
                    -0.2739277780056,
                    0.23538215458393097,
                    0.37721318006515503,
                    -0.1860906481742859,
                    -0.8930521011352539,
                    1.5834414958953857,
                    0.14461028575897217,
                    0.021300680935382843,
                    1.463076114654541,
                    -0.4660376012325287,
                    -0.7381436228752136,
                    0.31894636154174805,
                    -0.6124705076217651,
                    -1.5020167827606201
                ],
                [
                    0.283698171377182,
                    0.8982557654380798,
                    1.8937312364578247,
                    -1.2328376770019531,
                    0.12853354215621948,
                    -0.591152548789978,
                    0.15609821677207947,
                    -2.265648126602173,
                    0.1283097267150879,
                    0.09060387313365936,
                    1.6333897113800049,
                    -0.1025368720293045,
                    -1.719514012336731,
                    -1.5077400207519531,
                    -0.6843924522399902,
                    -0.22790350019931793,
                    0.8866007328033447,
                    0.05720662698149681
                ],
                [
                    -0.9457352161407471,
                    -0.5129053592681885,
                    0.5344047546386719,
                    0.9637804627418518,
                    0.06674277782440186,
                    -1.4514026641845703,
                    0.3789489269256592,
                    0.8609523177146912,
                    -1.3742512464523315,
                    -0.6050915122032166,
                    -0.7120474576950073,
                    -0.580933690071106,
                    0.45866677165031433,
                    0.6445454359054565,
                    0.3316513001918793,
                    1.0582550764083862,
                    0.7725638151168823,
                    0.5182259678840637
                ],
                [
                    -0.22213327884674072,
                    -1.0536500215530396,
                    -0.5487262606620789,
                    0.8215891718864441,
                    -0.036629196256399155,
                    1.1998496055603027,
                    0.06460513919591904,
                    1.8796128034591675,
                    0.9808468818664551,
                    -0.543328583240509,
                    -0.4351314604282379,
                    0.6974356770515442,
                    -1.41081702709198,
                    -1.2309898138046265,
                    0.1928381770849228,
                    0.031966570764780045,
                    -0.495368629693985,
                    1.5530039072036743
                ],
                [
                    -1.0528850555419922,
                    0.43496692180633545,
                    0.5217350125312805,
                    -0.2650584578514099,
                    1.0087276697158813,
                    0.32573553919792175,
                    1.592685580253601,
                    1.9258182048797607,
                    -1.049462080001831,
                    1.8416377305984497,
                    -0.07633044570684433,
                    -0.05497162416577339,
                    -0.7458017468452454,
                    -1.0416088104248047,
                    -1.0346133708953857,
                    0.45440974831581116,
                    0.2775043547153473,
                    1.5529322624206543
                ],
                [
                    2.066974639892578,
                    0.38449040055274963,
                    0.5174393057823181,
                    0.5351261496543884,
                    0.7664158940315247,
                    -0.13559694588184357,
                    -0.28104227781295776,
                    -0.25960370898246765,
                    -0.9825761318206787,
                    -0.7862924337387085,
                    0.20786190032958984,
                    1.290331482887268,
                    -0.6536446809768677,
                    0.008560479618608952,
                    0.6546359062194824,
                    0.16621680557727814,
                    -0.6356467604637146,
                    -0.46767187118530273
                ],
                [
                    0.38065269589424133,
                    -1.4251731634140015,
                    -0.17510387301445007,
                    -0.2987971603870392,
                    0.2221018373966217,
                    0.695765495300293,
                    -0.4279865324497223,
                    -0.6300820708274841,
                    -0.06604088097810745,
                    0.5507081151008606,
                    2.536663293838501,
                    -0.257362425327301,
                    0.6629171371459961,
                    0.7571263909339905,
                    1.1508605480194092,
                    1.6576536893844604,
                    -1.2002933025360107,
                    -0.10815110802650452
                ],
                [
                    -0.4988611936569214,
                    0.28197458386421204,
                    -0.06901832669973373,
                    0.8120046854019165,
                    -0.6459032297134399,
                    0.8430967926979065,
                    0.75876784324646,
                    0.9252341985702515,
                    -1.018567442893982,
                    -0.20282717049121857,
                    0.9104876518249512,
                    -0.31176862120628357,
                    -1.3897422552108765,
                    -2.1863741874694824,
                    -0.7288678884506226,
                    -0.27266407012939453,
                    1.4342767000198364,
                    -0.5432275533676147
                ]
            ],
            "weightsHO": [
                [
                    1.0104206800460815,
                    -1.7288264036178589,
                    0.47506511211395264,
                    -1.0721250772476196,
                    -0.6418174505233765,
                    -1.0117064714431763,
                    -0.52518630027771,
                    -1.7987236976623535,
                    -0.7243351340293884,
                    -0.5970138311386108,
                    1.1065245866775513,
                    0.22203099727630615,
                    -1.7085005044937134,
                    1.2494587898254395,
                    -0.7503702640533447,
                    -0.188320592045784
                ],
                [
                    -0.29328563809394836,
                    -1.0767920017242432,
                    -1.17641019821167,
                    0.3676161468029022,
                    0.016586672514677048,
                    -1.1558735370635986,
                    1.050586462020874,
                    -1.1312401294708252,
                    0.692927360534668,
                    -1.5645090341567993,
                    0.002187201287597418,
                    0.707400381565094,
                    0.5053898096084595,
                    0.01885499432682991,
                    0.14003384113311768,
                    0.6907578706741333
                ]
            ],
            "biasH": [
                0.6030347943305969,
                -0.5418495535850525,
                0.037797097116708755,
                0.07140620052814484,
                -0.8329555988311768,
                -0.26123738288879395,
                0.8987219333648682,
                0.69635409116745,
                1.4293797016143799,
                0.559238076210022,
                -1.2015938758850098,
                0.03771524876356125,
                0.4018695056438446,
                -0.714958131313324,
                -0.22443485260009766,
                0.9698773622512817
            ],
            "biasO": [
                -0.1299462765455246,
                0.24961072206497192
            ]
        },
        {
            "inputNodes": 18,
            "hiddenNodes": 16,
            "outputNodes": 2,
            "weightsIH": [
                [
                    0.4468322694301605,
                    0.020448965951800346,
                    0.33173099160194397,
                    0.5823031067848206,
                    -1.9223616123199463,
                    -0.36448535323143005,
                    0.4435160756111145,
                    0.902881383895874,
                    -0.7653384804725647,
                    -0.9945676922798157,
                    -1.2980823516845703,
                    0.4941801428794861,
                    0.931922972202301,
                    0.1782313734292984,
                    -0.08177527040243149,
                    -0.3306197226047516,
                    0.6021928191184998,
                    -0.9886364936828613
                ],
                [
                    0.12480282038450241,
                    1.4159945249557495,
                    -0.5719176530838013,
                    -0.6331261396408081,
                    0.7230864763259888,
                    0.4631962180137634,
                    -0.885546088218689,
                    -1.1206371784210205,
                    0.9517574906349182,
                    1.2386069297790527,
                    -0.2861827313899994,
                    1.2130104303359985,
                    -0.1446761041879654,
                    -0.314816951751709,
                    -1.275185227394104,
                    -0.2172335833311081,
                    -0.8235936164855957,
                    0.10358671098947525
                ],
                [
                    1.0980721712112427,
                    0.8179619908332825,
                    0.9582276344299316,
                    0.3084881603717804,
                    -0.9033734202384949,
                    0.7317467331886292,
                    -0.11743276566267014,
                    -0.43552470207214355,
                    -0.46272265911102295,
                    -0.8485430479049683,
                    0.6218193173408508,
                    1.2552841901779175,
                    -1.5998769998550415,
                    -0.7215635180473328,
                    0.23071032762527466,
                    2.2136788368225098,
                    0.019654113799333572,
                    -0.24967223405838013
                ],
                [
                    -0.8683537840843201,
                    -0.9687590599060059,
                    -1.9265069961547852,
                    -0.2249237596988678,
                    2.214024305343628,
                    0.45426905155181885,
                    1.4804614782333374,
                    0.3920900225639343,
                    0.6493483781814575,
                    0.9374281764030457,
                    0.3737638592720032,
                    -0.19302570819854736,
                    -0.6927629113197327,
                    0.16192059218883514,
                    -0.4198473393917084,
                    0.2568146586418152,
                    0.3766412138938904,
                    -0.7610874176025391
                ],
                [
                    -0.3317837119102478,
                    -0.3238467574119568,
                    1.0993666648864746,
                    1.3144574165344238,
                    -0.3212950527667999,
                    0.7230768203735352,
                    -0.10817628353834152,
                    -0.43622443079948425,
                    0.795581579208374,
                    0.26390019059181213,
                    0.6349387764930725,
                    -2.1562769412994385,
                    -1.0763959884643555,
                    -1.8442527055740356,
                    -0.7865468263626099,
                    -0.08721017837524414,
                    -1.1090621948242188,
                    0.5210365653038025
                ],
                [
                    0.8132723569869995,
                    0.9314056038856506,
                    -0.43728774785995483,
                    0.010165752843022346,
                    1.3618139028549194,
                    0.03922216594219208,
                    2.311675548553467,
                    0.14135169982910156,
                    1.1227823495864868,
                    -1.4722133874893188,
                    -0.45804330706596375,
                    0.8217936754226685,
                    -0.3313503861427307,
                    0.26833832263946533,
                    -1.0016876459121704,
                    -0.668506920337677,
                    -2.340662956237793,
                    -0.8519027233123779
                ],
                [
                    -0.01295703649520874,
                    -1.3041267395019531,
                    -0.4670485258102417,
                    0.17786256968975067,
                    -0.6776593923568726,
                    0.47153252363204956,
                    -1.4379847049713135,
                    1.5711668729782104,
                    0.14107821881771088,
                    0.8212145566940308,
                    -0.11264678090810776,
                    -1.624450922012329,
                    0.9715293645858765,
                    -0.6177625060081482,
                    -0.12902073562145233,
                    -0.16988404095172882,
                    1.1228548288345337,
                    0.6613782644271851
                ],
                [
                    0.22124207019805908,
                    0.5465856194496155,
                    -0.5653491616249084,
                    0.9202924370765686,
                    0.21236488223075867,
                    0.02343546226620674,
                    0.5501639246940613,
                    0.7431289553642273,
                    0.9402301907539368,
                    0.40585485100746155,
                    0.5113905072212219,
                    1.1784201860427856,
                    -0.781282901763916,
                    0.5744302272796631,
                    0.7197849750518799,
                    -0.2619222104549408,
                    -0.5931380391120911,
                    -1.3816604614257812
                ],
                [
                    0.038315299898386,
                    -1.3187928199768066,
                    -0.9875665903091431,
                    1.1383399963378906,
                    -0.14870144426822662,
                    -0.0017865407280623913,
                    0.19847586750984192,
                    -0.06840170919895172,
                    -0.5886110663414001,
                    1.356116533279419,
                    0.1398429423570633,
                    -0.8126487135887146,
                    1.482163667678833,
                    -0.5252119898796082,
                    -1.0995416641235352,
                    0.28130531311035156,
                    -0.2739256024360657,
                    -1.5755233764648438
                ],
                [
                    0.38787856698036194,
                    0.5958336591720581,
                    2.2525136470794678,
                    -0.7645070552825928,
                    0.1261529177427292,
                    -0.37832173705101013,
                    0.26379284262657166,
                    -2.1745688915252686,
                    0.49053382873535156,
                    -0.46107783913612366,
                    1.5948008298873901,
                    0.3779371678829193,
                    -1.2515323162078857,
                    -1.1022347211837769,
                    -0.31383904814720154,
                    -0.00810234621167183,
                    0.6541270017623901,
                    -0.13491865992546082
                ],
                [
                    -0.38091954588890076,
                    -0.38598868250846863,
                    0.4909023344516754,
                    1.2379478216171265,
                    -0.2733345925807953,
                    -1.2019593715667725,
                    0.32934582233428955,
                    0.9646419882774353,
                    -1.1501578092575073,
                    -1.0055441856384277,
                    -0.4119577705860138,
                    -0.5711236596107483,
                    0.45866677165031433,
                    0.3162829875946045,
                    0.3618781864643097,
                    1.005480408668518,
                    1.0632240772247314,
                    1.113949179649353
                ],
                [
                    -0.12415587157011032,
                    -0.9430112242698669,
                    -0.5731607675552368,
                    1.0107042789459229,
                    0.09929532557725906,
                    1.0204700231552124,
                    -0.08528734743595123,
                    1.6855133771896362,
                    0.9996208548545837,
                    -0.34194523096084595,
                    0.026082348078489304,
                    0.9296631813049316,
                    -1.008158802986145,
                    -1.7451010942459106,
                    0.5001016855239868,
                    -0.07582647353410721,
                    -0.6157200932502747,
                    1.390946865081787
                ],
                [
                    -0.9146329760551453,
                    0.4532463550567627,
                    0.768658459186554,
                    0.19848407804965973,
                    1.072881817817688,
                    0.49294403195381165,
                    1.0662857294082642,
                    1.7709630727767944,
                    -0.6950304508209229,
                    1.6492562294006348,
                    -0.2236485779285431,
                    -0.11980467289686203,
                    -0.6652228236198425,
                    -0.7224234342575073,
                    -0.996512234210968,
                    0.5903674364089966,
                    -0.40737926959991455,
                    1.5529322624206543
                ],
                [
                    1.8009589910507202,
                    0.6391392350196838,
                    1.461098551750183,
                    0.2807518541812897,
                    0.8749305605888367,
                    0.34126126766204834,
                    -0.29305121302604675,
                    -0.11513561010360718,
                    -1.0682194232940674,
                    -0.7900960445404053,
                    0.7354779243469238,
                    1.5822784900665283,
                    -0.6118378639221191,
                    0.11672671884298325,
                    0.2612970471382141,
                    0.16621680557727814,
                    -0.9230629205703735,
                    -0.5612478852272034
                ],
                [
                    0.11078707873821259,
                    -0.5188260674476624,
                    -0.033290375024080276,
                    -0.28709301352500916,
                    0.25616171956062317,
                    0.612773060798645,
                    -0.8402761220932007,
                    -0.40256476402282715,
                    -0.0795244351029396,
                    0.6775736808776855,
                    2.508854389190674,
                    -0.41094765067100525,
                    1.0388727188110352,
                    1.1261849403381348,
                    1.0222479104995728,
                    1.5268281698226929,
                    0.1092754527926445,
                    0.026254260912537575
                ],
                [
                    -0.5054947733879089,
                    0.3976207971572876,
                    -0.19030022621154785,
                    0.817520022392273,
                    -0.8358124494552612,
                    1.324987769126892,
                    0.6492237448692322,
                    1.0700469017028809,
                    -0.6909469962120056,
                    -0.18336476385593414,
                    0.7923036217689514,
                    -0.5677298903465271,
                    -1.398491382598877,
                    -0.535885214805603,
                    -0.7506463527679443,
                    -0.27266407012939453,
                    1.5581557750701904,
