{
    "generation": 113,
    "totalTime": 5041.850000010779,
    "allTimeBestScore": 774.3229224018045,
    "brains": [
        {
            "inputNodes": 17,
            "hiddenNodes": 16,
            "outputNodes": 2,
            "weightsIH": [
                [
                    -4.923118823472782,
                    -1.1535818268020035,
                    0.306875990721419,
                    -1.2918613934642154,
                    4.3740394029094976,
                    -0.9580967920748181,
                    3.0529144529057604,
                    -0.4399512644258414,
                    -1.0197291449139327,
                    -0.002026014930898268,
                    0.6817410516744697,
                    -1.0625461593528995,
                    4.072205693958442,
                    -2.686043102325656,
                    0.595828475674739,
                    -4.023218176160453,
                    -2.628336591094464
                ],
                [
                    -0.14342902135175128,
                    -0.8450218630046737,
                    0.2920935821332916,
                    -0.23861566440369242,
                    -1.1613112454794021,
                    0.57991919756723,
                    1.9422119350910778,
                    -1.3605081481818995,
                    0.38330751466709023,
                    -0.842710466211704,
                    -2.3482028732266462,
                    -2.1381781733157914,
                    -1.0900408093927068,
                    -2.8406109012688314,
                    -3.4521720291437896,
                    -1.7705257169614328,
                    -1.2248049175096316
                ],
                [
                    0.23801742193371844,
                    0.9253983958939598,
                    0.19185991104616573,
                    -0.8980298998421986,
                    2.1904540448770384,
                    0.08322423240802823,
                    1.068346046426874,
                    0.46156549193296637,
                    -0.7673453563128234,
                    0.8684326809808333,
                    -0.47602110924345054,
                    -3.022394229420425,
                    -1.1852067429184803,
                    0.8751206635154926,
                    1.0346994961017932,
                    -1.2458904408249403,
                    0.3230968578808454
                ],
                [
                    1.5774628272490903,
                    -2.758963261215504,
                    0.009999083977961232,
                    1.3861463871940307,
                    3.1935565042005702,
                    0.9952444927760017,
                    1.3988704527177391,
                    -1.6402076914286263,
                    -1.686065609049656,
                    0.07956309712912235,
                    0.07667072428723953,
                    0.19450265980227077,
                    2.4724510159335065,
                    -0.5158379851295849,
                    -2.753502334389276,
                    2.044120912075842,
                    -1.5946954005056222
                ],
                [
                    -2.7515239375273035,
                    1.2576218844350644,
                    1.2344510840836045,
                    -0.8353821528689194,
                    1.4354180078933538,
                    1.5185645328431625,
                    -2.425697203563547,
                    -0.5200588499953488,
                    -1.9547730652753845,
                    1.3865739018510606,
                    3.5816233057573044,
                    0.7203248903405263,
                    -0.7071950569234157,
                    -2.0724620814047547,
                    -1.8007161084588876,
                    1.5482038707495818,
                    -2.7282916796493097
                ],
                [
                    -0.7773425008024223,
                    -1.6432718483221334,
                    -0.1261675708265375,
                    -1.701620970625905,
                    -1.5710917576410761,
                    -0.6474179123137916,
                    -5.183674594118075,
                    2.031076039364218,
                    -0.6392791937476184,
                    -0.40007105688580347,
                    -2.9632579144948075,
                    -0.39987559339755974,
                    2.0563244141700334,
                    -1.1048511224049542,
                    -0.7376005105194632,
                    0.0615295193245704,
                    0.02133232606380897
                ],
                [
                    2.1240314667735203,
                    -0.2563850165634982,
                    3.2302922913835226,
                    0.8225519570070833,
                    -1.0036697209773198,
                    0.8547811896166354,
                    -4.603349356039826,
                    -0.9281639851258117,
                    0.5683023676597473,
                    0.5990955690902737,
                    -3.1769577749643374,
                    -0.08818592610310205,
                    -1.7467603809094705,
                    1.7411084281910862,
                    -1.5432508428098344,
                    1.2809193499984854,
                    0.3690256573355971
                ],
                [
                    0.9037557428972844,
                    -0.5958318753628599,
                    1.4163924437771713,
                    -5.189944211639881,
                    3.840968303918015,
                    -3.1565796268892905,
                    -1.0064511730672465,
                    0.31066671262451173,
                    0.6952037140024314,
                    -0.16046264813718514,
                    -0.8636458563543018,
                    -0.451136810602599,
                    -2.482516848161929,
                    1.4448346492985862,
                    -2.0733099176726055,
                    -0.45189661841410234,
                    -0.4809671574281065
                ],
                [
                    1.9126504584313555,
                    2.04741814719037,
                    0.931673189925781,
                    2.0287255333651375,
                    -1.0488877981133569,
                    0.6889318245824914,
                    -1.5184036465520778,
                    -1.5566948054940242,
                    0.8889976864034587,
                    -0.2542341903497177,
                    0.6575175877628653,
                    4.609482635899117,
                    -1.3916425357498043,
                    -0.7742453924032374,
                    -0.8116633716947904,
                    -0.2606647629149409,
                    0.983793972162412
                ],
                [
                    1.3338934897072663,
                    -2.6700741203657,
                    -0.8848146058790973,
                    -1.0416109318389726,
                    0.639043215421084,
                    0.6478908169070458,
                    0.9555816038452586,
                    0.5570419065459229,
                    0.9870311997896055,
                    1.4873300459951835,
                    1.4394798756802292,
                    0.1885641320262451,
                    1.8973911610868437,
                    -0.4134589018269178,
                    -1.2568797321237715,
                    -0.2798877351354121,
                    2.353666413615878
                ],
                [
                    2.3281115652017674,
                    -0.9344093120946335,
                    0.9040942903786555,
                    -0.5009569970129237,
                    1.1801539479392076,
                    -0.2854198683146615,
                    -0.13558584991859812,
                    -0.09087130897937223,
                    0.39308471968674774,
                    -0.8629110756610988,
                    -0.07168325752726101,
                    2.0515021885295646,
                    1.7096861840773183,
                    2.601898608166509,
                    -3.514724600040041,
                    0.5109984958269405,
                    1.8727627552064003
                ],
                [
                    3.628539942351077,
                    -3.262833586745624,
                    2.100210926310076,
                    -0.25086580032316397,
                    -0.5006953989180765,
                    -0.06334618289185279,
                    -0.49994934790543666,
                    0.0033995317469935893,
                    0.7410916364609142,
                    -4.664461735311937,
                    -3.0359107047191682,
                    -1.3833580697991856,
                    -1.3472985182700927,
                    -1.5928358895525587,
                    0.8587621427474884,
                    1.471480028530483,
                    2.5083078304870874
                ],
                [
                    2.090341181713406,
                    0.7402252178363862,
                    -0.4376565954099271,
                    -1.1127427243835286,
                    0.4150284139987538,
                    -2.5934658125083625,
                    0.6602480386547319,
                    0.8830692254037742,
                    0.9835688127228576,
                    -3.448575593048162,
                    0.28842697934298034,
                    -0.7327869956393189,
                    -1.1277039678558607,
                    0.2321502858682758,
                    -0.7699016116715016,
                    -1.4206452805871013,
                    -1.7485274683078083
                ],
                [
                    -1.2711300079947838,
                    -2.6068877853894916,
                    0.07034383306442193,
                    0.27719750081074346,
                    3.7169809927426156,
                    1.0167339100581236,
                    2.2050321815389173,
                    -2.7553397414488203,
                    1.4440896449368532,
                    0.17157920351733136,
                    -2.5710235257659484,
                    1.9235725261467467,
                    -0.32233761697915186,
                    -0.8018443425108117,
                    0.6694073494855304,
                    2.1687856974852275,
                    0.917486699150738
                ],
                [
                    1.784364082759225,
                    0.4013691834390226,
                    -0.7433706809083738,
                    1.638800898802992,
                    0.0010173620771328773,
                    1.4609340327461426,
                    1.2446446716734887,
                    0.5217032942759199,
                    1.8901105226252732,
                    0.3105129031859619,
                    -1.379100661742351,
                    0.2458396854944861,
                    -4.248953953273417,
                    2.4929625698849938,
                    -1.3667532528004727,
                    -1.2264070580997988,
                    0.3486870526471657
                ],
                [
                    0.29781580651692663,
                    5.855975927002712,
                    -2.284503616833941,
                    -0.18986540855641598,
                    -3.1343345746014624,
                    0.660918280261325,
                    -0.8268124993983728,
                    -1.340990905517247,
                    3.3520837460005204,
                    -1.816078079778848,
                    -0.11150465539876298,
                    0.7455055832182922,
                    2.930810919072054,
                    -0.18874260072995608,
                    -0.2961545473125573,
                    2.0941830617846495,
                    -1.7157398781075848
                ]
            ],
            "weightsHO": [
                [
                    0.4941653066547127,
                    -2.4478987138500594,
                    -0.19144805512900476,
                    -1.2648507620351626,
                    0.16200796995523647,
                    2.1473629147545203,
                    3.0714079089817394,
                    0.6350501521358335,
                    2.813127271373854,
                    -0.8566160214785533,
                    1.3143830818412785,
                    1.6841997457160505,
                    -5.384672243737955,
                    1.5422395860093228,
                    -1.0168855753752835,
                    -0.5004958281000974
                ],
                [
                    2.021220644735289,
                    -0.6603861594498269,
                    -1.0674937693831585,
                    2.1571585903120987,
                    1.6859510106567306,
                    -0.2637438597634787,
                    -0.48813878630177754,
                    -0.3596747863492762,
                    1.2261032366962197,
                    1.0494263490495905,
                    -0.7660945142153859,
                    0.04936652624232263,
                    -2.0217456260346527,
                    1.2897609814576954,
                    0.2807400064949127,
                    -2.8045396883390286
                ]
            ],
            "biasH": [
                1.162558783578572,
                0.3349110268660057,
                1.242474631183649,
                -2.199718449740168,
                -1.4864517874876215,
                -0.6472478028848044,
                -0.23221884627589118,
                0.953086460121036,
                -1.413668125990414,
                0.5693137333426415,
                -1.0424375034135858,
                -0.6573893834504123,
                -0.4852751601456904,
                3.356833181481881,
                0.8723568527375444,
                -0.5569644847691428
            ],
            "biasO": [
                -1.237279697156938,
                -0.035339233870578024
            ]
        },
        {
            "inputNodes": 17,
            "hiddenNodes": 16,
            "outputNodes": 2,
            "weightsIH": [
                [
                    -4.923118823472782,
                    -1.1535818268020035,
                    0.49989264067799766,
                    -1.6203607157970996,
                    4.3740394029094976,
                    -0.9580967920748181,
                    2.671463942224071,
                    -0.4399512644258414,
                    -1.0197291449139327,
                    -0.002026014930898268,
                    0.6817410516744697,
                    -1.5461673068011472,
                    3.739591792215712,
                    -2.686043102325656,
                    0.595828475674739,
                    -4.023218176160453,
                    -2.523539101528148
                ],
                [
                    0.022551992242005214,
                    -0.6670284924180582,
                    0.2920935821332916,
                    -0.6991734507107685,
                    -1.1613112454794021,
                    0.57991919756723,
                    1.5270126137746096,
                    -1.5706872658335929,
                    1.0620552592094743,
                    -0.6274449955169062,
                    -2.3482028732266462,
                    -2.1381781733157914,
                    -1.0900408093927068,
                    -3.144969355160586,
                    -3.4521720291437896,
                    -1.5686114449498025,
                    -1.2416580267665367
                ],
                [
                    0.23801742193371844,
                    0.722851884827248,
                    0.028674199928211186,
                    -0.8980298998421986,
                    2.1904540448770384,
                    0.21820111523205987,
                    1.068346046426874,
                    0.46156549193296637,
                    -0.7673453563128234,
                    0.38179670079217476,
                    -0.7868815790734232,
                    -3.022394229420425,
                    -1.1852067429184803,
                    1.10248002748227,
                    0.7898990681597121,
                    -0.8239342878024409,
                    0.3230968578808454
                ],
                [
                    1.5774628272490903,
                    -2.758963261215504,
                    0.2698234049105771,
                    1.3861463871940307,
                    3.1935565042005702,
                    0.9952444927760017,
                    1.3988704527177391,
                    -1.6402076914286263,
                    -1.686065609049656,
                    -0.08627503759818034,
                    -0.13099747221316804,
                    0.19450265980227077,
                    2.3386834305285085,
                    -0.5158379851295849,
                    -2.753502334389276,
                    2.044120912075842,
                    -1.5946954005056222
                ],
                [
                    -2.7515239375273035,
                    1.2576218844350644,
                    1.2344510840836045,
                    -0.8353821528689194,
                    1.4354180078933538,
                    1.0858656035424308,
                    -2.8223951050217444,
                    -0.1765373499241889,
                    -1.9547730652753845,
                    1.5807153977607271,
                    3.5816233057573044,
                    0.7203248903405263,
                    -0.7071950569234157,
                    -2.0724620814047547,
                    -1.8007161084588876,
                    1.7451322287425408,
                    -2.7282916796493097
                ],
                [
                    -0.7685536500209043,
                    -1.8599053383093838,
                    -0.1261675708265375,
                    -1.701620970625905,
                    -1.0195814044914235,
                    -0.6474179123137916,
                    -5.183674594118075,
                    1.9567237018362613,
                    -0.6392791937476184,
                    -0.19074968336952225,
                    -2.6736287087734962,
                    -0.4512239341648029,
                    2.2291138434789284,
                    -1.1048511224049542,
                    -0.7376005105194632,
                    0.37341436183641286,
                    0.02133232606380897
                ],
                [
                    2.1240314667735203,
                    -0.2563850165634982,
                    3.2302922913835226,
                    0.6822115153229967,
                    -1.0036697209773198,
                    1.2348253368247608,
                    -4.603349356039826,
                    -0.9281639851258117,
                    0.5683023676597473,
                    0.5990955690902737,
                    -3.1769577749643374,
                    0.2728348722599879,
                    -1.7439322198920084,
                    1.7411084281910862,
                    -1.5432508428098344,
                    1.2809193499984854,
                    0.6893544470942842
                ],
                [
                    0.9037557428972844,
                    -0.5958318753628599,
                    1.4163924437771713,
                    -5.189944211639881,
                    3.840968303918015,
                    -3.1565796268892905,
                    -1.0064511730672465,
                    0.31066671262451173,
                    1.1412414738233905,
                    0.014146753240881327,
                    -0.6386393685531506,
                    -0.451136810602599,
                    -2.016511476107153,
                    1.4448346492985862,
                    -1.7175384511705145,
                    -0.5553644003994324,
                    -0.4809671574281065
                ],
                [
                    1.9126504584313555,
                    1.8061788512609454,
                    0.931673189925781,
                    2.0287255333651375,
                    -1.0488877981133569,
                    0.6889318245824914,
                    -1.5184036465520778,
                    -1.5566948054940242,
                    0.6699993859421983,
                    -0.2542341903497177,
                    0.6575175877628653,
                    4.609482635899117,
                    -1.3916425357498043,
                    -0.035728845366353346,
                    -0.8116633716947904,
                    0.02717022519221368,
                    0.983793972162412
                ],
                [
                    1.3338934897072663,
                    -2.6700741203657,
                    -0.8848146058790973,
                    -1.302727799781751,
                    0.6216542047667938,
                    0.6478908169070458,
                    0.6701908296376787,
                    0.5570419065459229,
                    1.1886066767628995,
                    1.4873300459951835,
                    1.4394798756802292,
                    0.1885641320262451,
                    2.0668174195365077,
                    -0.4604810349837255,
                    -1.2568797321237715,
                    -0.7341151387484675,
                    2.353666413615878
                ],
                [
                    2.020721483007827,
                    -1.1679468645142013,
                    0.9040942903786555,
                    -0.5009569970129237,
                    1.1801539479392076,
                    -0.2854198683146615,
                    -0.08786978308250593,
                    -0.09087130897937223,
                    0.39308471968674774,
                    -0.8629110756610988,
                    -0.07168325752726101,
                    2.0515021885295646,
                    1.7096861840773183,
                    2.601898608166509,
                    -3.514724600040041,
                    0.5109984958269405,
                    1.8727627552064003
                ],
                [
                    3.8721250274486074,
                    -3.262833586745624,
                    2.100210926310076,
                    -0.1600933792954582,
                    -0.5006953989180765,
                    -0.45094619986387185,
                    -0.49994934790543666,
                    0.0033995317469935893,
                    0.9165413318891691,
                    -5.045120418301994,
                    -3.0359107047191682,
                    -1.0700585980383033,
                    -1.0486628298189462,
                    -1.3113848675864115,
                    0.8587621427474884,
                    1.471480028530483,
                    2.5083078304870874
                ],
                [
                    2.00532406655167,
                    0.7402252178363862,
                    0.002106912805840744,
                    -0.6967183646724795,
                    0.6720845339934486,
                    -2.2048048438231906,
                    0.6602480386547319,
                    0.8830692254037742,
                    1.4465281732547748,
                    -3.448575593048162,
                    0.28842697934298034,
                    -0.7327869956393189,
                    -1.1277039678558607,
                    0.2321502858682758,
                    -1.2489637485007883,
                    -1.4206452805871013,
                    -1.7485274683078083
                ],
                [
                    -1.2711300079947838,
                    -2.150880157936096,
                    0.07034383306442193,
                    0.27719750081074346,
                    3.2848030832764756,
                    1.0167339100581236,
                    2.2050321815389173,
                    -2.8269753771252506,
                    1.4440896449368532,
                    0.6263764288055168,
                    -2.5710235257659484,
                    1.9235725261467467,
                    -0.32233761697915186,
                    -0.7537568321696088,
                    0.6694073494855304,
                    2.1687856974852275,
                    1.1558219387247572
                ],
                [
                    1.784364082759225,
                    0.4013691834390226,
                    -0.5575290090114977,
                    1.1319119341146129,
                    0.0010173620771328773,
                    1.0015738297391528,
                    1.2446446716734887,
                    0.5217032942759199,
                    1.5860766169767055,
                    0.3105129031859619,
                    -1.0800088044959426,
                    0.2458396854944861,
                    -4.248953953273417,
                    2.4929625698849938,
                    -1.379699521196474,
                    -1.2264070580997988,
                    0.4187451309556388
                ],
                [
                    0.29781580651692663,
                    5.855975927002712,
                    -2.284503616833941,
                    -0.05023754954171589,
                    -3.1343345746014624,
                    0.35317634326690117,
                    -0.8268124993983728,
                    -1.340990905517247,
                    3.7892055477326894,
                    -1.816078079778848,
                    -0.11150465539876298,
                    0.7455055832182922,
                    2.7607372923613562,
                    -0.18874260072995608,
                    -0.7504561536295703,
                    2.0941830617846495,
                    -1.7157398781075848
                ]
            ],
            "weightsHO": [
                [
                    0.4941653066547127,
                    -2.829719921316423,
                    -0.19144805512900476,
                    -1.2648507620351626,
                    0.21467605980803528,
                    2.1473629147545203,
                    3.0714079089817394,
                    0.6350501521358335,
                    2.4297059183372416,
                    -0.8566160214785533,
                    1.3143830818412785,
                    1.869383498178658,
                    -5.384672243737955,
                    1.5422395860093228,
                    -1.0168855753752835,
                    -0.5004958281000974
                ],
                [
                    2.0630367398082594,
                    -0.6603861594498269,
                    -0.8237003002286472,
                    2.4531702332019023,
                    1.6859510106567306,
                    -0.2637438597634787,
                    -0.48813878630177754,
                    -0.3596747863492762,
                    1.2261032366962197,
                    1.1981136887916468,
                    -0.7660945142153859,
                    0.04936652624232263,
                    -1.9968047508025226,
                    0.8701613683001637,
                    0.2807400064949127,
                    -2.8045396883390286
                ]
            ],
            "biasH": [
                1.4995815679725781,
                0.3349110268660057,
                1.0113456555913627,
                -2.2328638581347815,
                -1.4864517874876215,
                -0.6472478028848044,
                -0.23221884627589118,
                0.953086460121036,
                -1.0695885986854137,
                0.5693137333426415,
                -0.7854949514504084,
                -0.6573893834504123,
                -0.5219144563293572,
                3.356833181481881,
                0.8723568527375444,
                -0.5569644847691428
            ],
            "biasO": [
                -1.4892820012479464,
                -0.20622690528875376
            ]
        },
        {
            "inputNodes": 17,
            "hiddenNodes": 16,
            "outputNodes": 2,
            "weightsIH": [
                [
                    -2.5627927213421793,
                    -1.617924751727764,
                    0.24903097467036361,
                    -2.3312905160794646,
                    4.510171293420722,
                    -0.5788291254235529,
                    -0.18680899626299463,
                    -1.5454639661274445,
                    0.06067194444135893,
                    0.4119706566745912,
                    -0.24549344178040178,
                    -1.3412451743742775,
                    3.1277394214712695,
                    -2.5969238526042786,
                    -0.2947156241484201,
                    -3.48862856121072,
                    -2.0832099788024068
                ],
                [
                    -1.915266439198461,
                    0.1453488007412952,
                    0.14533518317999783,
                    -1.3019052063159289,
                    -2.1521872855596884,
                    -0.5259801363664453,
                    1.2452112917695488,
                    -1.8592506771109156,
                    0.47467805243418026,
                    -1.128266627855721,
                    -1.5643872862988717,
                    -3.4144455147248296,
                    1.0476701392573533,
                    -2.047256911181312,
                    -3.5200373639492675,
                    -0.958407946935255,
                    -1.2136253367627934
                ],
                [
                    0.28453926261007034,
                    0.38318396331669347,
                    2.2845155461398243,
                    -0.3141350903227471,
                    3.028612319548597,
                    2.2444393056112526,
                    2.013909074489579,
                    -0.9287633967879867,
                    0.4072067649852026,
                    -0.6508868855895253,
                    -0.5983287731668758,
                    -2.355366619273079,
                    0.2680061814557285,
                    0.9572517054756318,
                    2.3230744571626256,
                    -1.1570576651841267,
                    1.4167725982634745
                ],
                [
                    1.4571259194368884,
                    -0.5829907697373774,
                    -1.3058787734786592,
                    0.9936976796787393,
                    2.1465735623898503,
                    1.2492709293803266,
                    0.6795954724241404,
                    -2.7048751477296222,
                    -0.6927660474443188,
                    -0.5852804988629793,
                    2.1855911372609023,
                    -2.1138804195331398,
                    1.9945046180561539,
                    -1.496699008136361,
                    -0.6170700447867751,
                    1.1193372103589025,
                    -2.0694822170132117
                ],
                [
                    -3.4323376958810665,
                    1.0595260254200967,
                    0.5242826915939844,
                    -1.8152629515589225,
                    2.0568726871072376,
                    2.553972860428366,
                    -2.4945161774503144,
                    1.087634451805271,
                    -1.1983306194499228,
                    0.11421873282539863,
                    2.4013050015313113,
                    -0.6077744109370162,
                    0.5386802585957865,
                    -1.5319752530958248,
                    -3.4575781538308354,
                    2.256242620923225,
                    -0.7398307948203796
                ],
                [
                    -2.103607590042171,
                    -1.3814043159110185,
                    -1.3709984471237535,
                    -2.94349432824459,
                    0.3268777634205383,
                    -2.2052507827867025,
                    -1.3858414574054918,
                    1.502741554543583,
                    0.23192674734158614,
                    0.30695537035877907,
                    -0.5350580649515219,
                    0.0507422515614957,
                    0.31430983645765354,
                    -0.824909214637647,
                    1.1531509124909158,
                    1.0159174160789126,
                    -0.055461521384168155
                ],
                [
                    1.0812917672514017,
                    -0.6210855398636689,
                    3.1143470905102038,
                    0.057043373176655865,
                    -2.3191582062074856,
                    -1.875013853141152,
                    -2.397569908029052,
                    -0.30435752448376696,
                    0.6369774295600187,
                    -1.387974016594645,
                    -5.029166302882401,
                    1.542947220685083,
                    0.7162208685036395,
                    0.7553385652393406,
                    -0.22243813483812858,
                    1.0641351013357336,
                    -0.521586251398619
                ],
                [
                    0.6468480890791211,
                    -0.712651274838458,
                    2.9490138064087135,
                    -4.0506057107800455,
                    4.774628717077888,
                    -2.7167896606687187,
                    -1.1232906989258533,
                    -1.5779712013545404,
                    1.7301719123612633,
                    -0.14314344635243137,
                    1.1812952857506862,
                    0.17060164965278313,
                    -0.6253115023832888,
                    0.2676244182560411,
                    -2.5507425593689548,
                    0.5125209648179724,
                    0.5825431963859475
                ],
                [
                    1.6707235552218074,
                    1.9905235186012131,
                    0.4317608649525648,
                    0.508347855510136,
                    0.09522765237757846,
                    -0.7552411282312468,
                    -1.5064433664510826,
                    -1.9419481445685443,
                    1.4454800948841604,
                    -2.1497486692348144,
                    -0.660068084239625,
                    5.2654360712098285,
                    -1.7472015361588475,
                    -0.09183198781493984,
                    -2.1874079158619164,
                    -0.49601207772461653,
                    -2.0836587195224063
                ],
                [
                    0.5413726977505763,
                    -2.7636548362691404,
                    0.20136200540344995,
                    -2.656788062023111,
                    0.9188923140605927,
                    1.1471276908633434,
                    -1.0339766335059772,
                    1.0908420073921539,
                    0.09683792871538055,
                    1.5058442015078557,
                    2.519745045552032,
                    0.45801727839965833,
                    1.656907072004893,
                    -0.9372826135906267,
                    -0.4075026082637112,
                    0.1886354110936721,
                    0.9318546340073017
                ],
                [
                    1.503437514070388,
                    0.02698226744169674,
                    0.2921921495751082,
                    0.46955461107955265,
                    0.7991447779235886,
                    0.5543746830024029,
                    -0.3568382930861703,
                    0.888592798320966,
                    0.5750070265611584,
                    -0.2517875439420286,
                    0.21309250077668107,
                    1.7580195565450176,
                    0.0040458583828764105,
                    1.730572331128537,
                    -4.329929508520596,
                    -0.11037902952631407,
                    2.5884932906396125
                ],
                [
                    2.8895344399117637,
                    -2.4127131287094365,
                    0.0818204231917049,
                    1.2808984108226902,
                    -0.1277044007781346,
                    1.5448522208392719,
                    -1.8341008252109452,
                    0.14410745561555904,
                    0.6525294355956249,
                    -5.521720163492533,
                    -3.4127826494564455,
                    -0.5298197172460728,
                    -2.0303613131288594,
                    -0.8413171949524201,
                    -1.4908907960914417,
                    1.3794926980201079,
                    2.24892966015913
                ],
                [
                    -0.03956109628234694,
                    0.9960098443556947,
                    -0.22629542198341202,
                    0.3181297143009093,
                    0.7097879739447959,
                    -2.9353454690552154,
                    1.7207723734691804,
                    -0.033213741931110485,
                    2.0158389432073345,
                    -3.811560583540722,
                    0.4832900422051474,
                    -1.2862762706549278,
                    -1.949908087000181,
                    -0.2130578146819554,
                    -0.23342590342540126,
                    -0.6275002687645775,
                    -1.8345257242895905
                ],
                [
                    -1.5767568275450938,
                    -2.551016614630078,
                    -0.6304217959875954,
                    -1.3536725250550115,
                    1.400161123964922,
                    2.8350386414995565,
                    1.452817477579149,
                    -1.3699027175890457,
                    1.2272167213241103,
                    -2.3797450049460194,
                    -2.77583332548995,
                    4.439787808019041,
                    -0.013380933784596816,
                    0.36599285534724724,
                    -0.5843853191934646,
                    1.491769635244196,
                    0.4451729598504064
                ],
                [
                    0.6774269493873813,
                    1.258212466767315,
                    -0.9289406058000177,
                    2.2013124091806406,
                    -0.24995136389051187,
                    2.869489841547094,
                    -0.40481306659306004,
                    -0.3171299876717578,
                    1.0410633757392813,
                    -0.23778883358586245,
                    -0.5590705769398133,
                    -0.2073942548759209,
                    -1.6953958883007223,
                    0.683723012995778,
                    -0.10921842917135482,
                    -0.45886122900012405,
                    1.0812834407493732
                ],
                [
                    -0.4949636123822828,
                    5.1633008744000755,
                    -1.7982225211153677,
                    -0.8005765183974255,
                    -1.816441843137,
                    0.9371016114453217,
                    -0.8138829114006054,
                    -0.9074051709303421,
                    4.810868113406579,
                    -2.376170776514187,
                    -0.11879360789681614,
                    0.9419920262976385,
                    2.769719752817384,
                    0.560272330835523,
                    -1.9619792747510503,
                    2.505847318767955,
                    -0.32822733506612156
                ]
            ],
            "weightsHO": [
                [
                    -2.112970679129675,
                    -1.7737525699974708,
                    -0.0710105107134752,
                    0.5167715905607199,
                    1.6426340624655615,
                    1.6990878283076363,
                    3.5386622106683543,
                    -0.1494955401698157,
                    1.5070486161681411,
                    -0.5324317914407003,
                    0.26151972064599316,
                    3.5205604733530977,
                    -3.688483607712316,
                    -0.7508856443515394,
                    -2.1088429322768674,
                    -0.3094287317468326
                ],
                [
                    2.1630714987526627,
                    -2.9020801060956325,
                    -1.2339827933836354,
                    0.7226107132633252,
                    2.96534689583628,
                    1.5021443119683926,
                    0.1196118815683378,
                    -0.49114293176043045,
                    -0.5969422836049182,
                    1.9407395298505752,
                    -0.5475518113746719,
                    0.35588465179975104,
                    -0.6691870296654178,
                    -0.9553972374099489,
                    0.44390772967671677,
                    -2.5238788736108306
                ]
            ],
            "biasH": [
                0.9296974917800097,
                -0.8878137877210763,
                1.6454581387972287,
                -1.0373003913511574,
                -0.8367524683887222,
                0.542714967263442,
                0.9230970152402855,
                -0.4767614746563298,
                0.9976821324200473,
                1.5555311729446966,
                0.04760803224314658,
                -0.25134759138602547,
                0.22070204520595826,
                4.760567108740463,
                0.444327489571679,
                -0.40306387462738635
            ],
            "biasO": [
                -0.3859117090062214,
                0.37804279164827437
            ]
        },
        {
            "inputNodes": 17,
            "hiddenNodes": 16,
            "outputNodes": 2,
            "weightsIH": [
                [
                    -4.923118823472782,
                    -1.1535818268020035,
                    0.46491802434709417,
                    -1.6203607157970996,
                    4.3740394029094976,
                    -0.9580967920748181,
                    2.671463942224071,
                    -0.6168176476499134,
                    -1.4424556930421162,
                    0.10658846429210811,
                    0.6817410516744697,
                    -2.0347287713945303,
                    3.883965644847171,
                    -3.108363717311612,
                    0.595828475674739,
                    -3.6994266489812193,
                    -2.523539101528148
                ],
                [
                    0.022551992242005214,
                    -0.6670284924180582,
                    0.2920935821332916,
                    -0.45375518288555994,
                    -1.1613112454794021,
                    0.57991919756723,
                    1.5270126137746096,
                    -1.5706872658335929,
                    1.0620552592094743,
                    -0.6274449955169062,
                    -2.3482028732266462,
                    -2.4201669104597263,
                    -1.4461050153998287,
                    -3.144969355160586,
                    -2.9782786322431516,
                    -1.5686114449498025,
                    -1.2416580267665367
                ],
                [
                    0.23801742193371844,
                    0.737561856688743,
                    -0.38034402941892875,
                    -0.8540002592484652,
                    2.1904540448770384,
                    0.21820111523205987,
                    1.068346046426874,
                    0.46156549193296637,
                    -0.9159893853521487,
                    0.38179670079217476,
                    -0.7868815790734232,
                    -3.022394229420425,
                    -1.1852067429184803,
                    1.10248002748227,
                    0.7698599779967922,
                    -0.8239342878024409,
                    0.5653421243784179
                ],
                [
                    1.5774628272490903,
                    -2.4365929065934404,
                    0.3134040250535386,
                    1.3861463871940307,
                    3.1935565042005702,
                    0.9952444927760017,
                    1.0122295735732316,
                    -1.6402076914286263,
                    -1.686065609049656,
                    -0.08627503759818034,
                    -0.13120430906107738,
                    0.19450265980227077,
                    2.3386834305285085,
                    -0.5158379851295849,
                    -2.753502334389276,
                    2.044120912075842,
                    -1.049653772216651
                ],
                [
                    -2.7515239375273035,
                    1.2576218844350644,
                    1.2344510840836045,
                    -0.8353821528689194,
                    1.4354180078933538,
                    1.1332296246443891,
                    -2.8223951050217444,
                    -0.1765373499241889,
                    -1.5518007462714158,
                    1.683182216984635,
                    3.5816233057573044,
                    0.7203248903405263,
                    -1.1241111542362288,
                    -1.946091497054492,
                    -1.8007161084588876,
                    1.7451322287425408,
                    -2.314790181640624
                ],
                [
                    -1.0860913254268665,
                    -1.8599053383093838,
                    -0.1948955414325101,
                    -1.701620970625905,
                    -1.0195814044914235,
                    -0.6474179123137916,
                    -5.038478170874702,
                    1.9567237018362613,
                    -0.2677001351681715,
                    -0.19074968336952225,
                    -2.741111726976433,
                    0.04198799347643134,
                    2.2291138434789284,
                    -1.2460699013178176,
                    -0.7376005105194632,
                    0.4467886247710139,
                    0.02133232606380897
                ],
                [
                    2.1240314667735203,
                    -0.2563850165634982,
                    3.2302922913835226,
                    0.6822115153229967,
                    -1.0036697209773198,
                    1.636512088167159,
                    -4.603349356039826,
                    -0.9281639851258117,
                    0.5683023676597473,
                    0.5990955690902737,
                    -2.734830891460246,
                    0.2728348722599879,
                    -2.1149967282802797,
                    1.7411084281910862,
                    -1.5432508428098344,
                    1.4484654734473537,
                    1.018382209912811
                ],
                [
                    0.9037557428972844,
                    -0.6046427481658713,
                    1.2523929864274677,
                    -5.189944211639881,
                    3.840968303918015,
                    -3.1565796268892905,
                    -0.5784047602748812,
                    0.31066671262451173,
                    1.1412414738233905,
                    0.014146753240881327,
                    -0.9329151638813512,
                    -0.35185037463884783,
                    -2.016511476107153,
                    1.4448346492985862,
                    -1.7175384511705145,
                    -0.5553644003994324,
                    -0.4809671574281065
                ],
                [
                    1.9126504584313555,
                    2.1903602082220512,
                    1.179135760889824,
                    2.0287255333651375,
                    -1.2095580429703738,
                    0.29847851537521164,
                    -1.5184036465520778,
                    -1.9421132897342197,
                    0.6699993859421983,
                    -0.2542341903497177,
                    0.6575175877628653,
                    4.189316427657627,
                    -1.3916425357498043,
                    -0.035728845366353346,
                    -0.8116633716947904,
                    0.02717022519221368,
                    0.983793972162412
                ],
                [
                    1.3133930865523962,
                    -2.6700741203657,
                    -0.8848146058790973,
                    -1.302727799781751,
                    0.4329180936982342,
                    0.6478908169070458,
                    0.6701908296376787,
                    0.5570419065459229,
                    0.7800507504560674,
                    1.4873300459951835,
                    1.4394798756802292,
                    0.1885641320262451,
                    2.3889107151806934,
                    -0.4604810349837255,
                    -1.2568797321237715,
                    -0.7341151387484675,
                    2.353666413615878
                ],
                [
                    2.020721483007827,
                    -0.9647337051349988,
                    0.5692121323273288,
                    -0.5009569970129237,
                    1.3761951733338358,
                    -0.2854198683146615,
                    -0.08786978308250593,
                    -0.09087130897937223,
                    0.11646783872146027,
                    -0.8629110756610988,
                    -0.4326273901981267,
                    2.0515021885295646,
                    1.7096861840773183,
                    2.601898608166509,
                    -3.668051370600009,
                    0.5109984958269405,
                    1.6055991650336012
                ],
                [
                    3.8721250274486074,
                    -3.262833586745624,
                    2.100210926310076,
                    -0.1600933792954582,
                    -0.5006953989180765,
                    -0.8952683726607717,
                    -0.49994934790543666,
                    0.0033995317469935893,
                    0.7859916184416124,
                    -5.045120418301994,
                    -3.3150892358409307,
                    -1.0700585980383033,
                    -1.0486628298189462,
                    -1.3113848675864115,
                    0.8587621427474884,
                    1.8770407553076338,
                    2.5083078304870874
                ],
                [
                    2.00532406655167,
                    0.7402252178363862,
                    0.002106912805840744,
                    -0.6967183646724795,
                    0.6720845339934486,
                    -1.907182339524869,
                    0.341834893632216,
                    0.8830692254037742,
                    1.4465281732547748,
                    -3.448575593048162,
                    0.28842697934298034,
                    -0.29046887562528234,
                    -1.4333728262464176,
                    0.5229492934759418,
                    -1.376777569194219,
                    -1.8728636109214003,
                    -1.96393140428565
                ],
                [
                    -1.0894331611886436,
                    -2.150880157936096,
                    -0.06754711853715356,
                    0.4290280233279534,
                    3.2848030832764756,
                    0.6947028389827219,
                    2.2050321815389173,
                    -2.8269753771252506,
                    1.3622079837399204,
                    0.8840789976757889,
                    -2.5710235257659484,
                    1.9235725261467467,
                    -0.32233761697915186,
                    -0.7537568321696088,
                    0.6694073494855304,
                    2.1687856974852275,
                    1.1558219387247572
                ],
                [
                    1.913405263806267,
                    0.02387444322574661,
                    -0.09189121519228649,
                    1.6054177864786623,
                    0.028980181598753707,
                    1.0015738297391528,
                    1.2446446716734887,
                    0.5217032942759199,
                    1.5860766169767055,
                    0.29465077395633343,
                    -1.0800088044959426,
                    0.2458396854944861,
                    -4.248953953273417,
                    2.4929625698849938,
                    -1.379699521196474,
                    -1.2264070580997988,
                    0.4187451309556388
                ],
                [
                    0.42512764084059695,
                    5.8063202316666915,
                    -1.920459163172866,
                    -0.4503054055770289,
                    -3.1343345746014624,
                    0.7613613593603602,
                    -0.8995863430986034,
                    -1.340990905517247,
                    3.7892055477326894,
                    -1.7306285155978207,
                    -0.09437618358952826,
                    0.7455055832182922,
                    2.7607372923613562,
                    -0.4421624731822834,
                    -0.7504561536295703,
                    2.3717557066622033,
                    -1.4884795980395196
                ]
            ],
            "weightsHO": [
                [
                    0.4941653066547127,
                    -2.9840540698856515,
                    -0.193277468003063,
                    -1.2648507620351626,
                    0.21467605980803528,
                    2.1698466225808177,
                    3.0714079089817394,
                    0.6350501521358335,
                    2.4297059183372416,
                    -0.8566160214785533,
                    0.9088622885435266,
                    1.869383498178658,
                    -5.140568211591034,
                    1.5422395860093228,
                    -0.9071979612113718,
                    -0.5004958281000974
                ],
                [
                    1.5951431452870704,
                    -0.8962926710967993,
                    -0.8237003002286472,
                    2.4531702332019023,
                    1.6859510106567306,
                    0.08702958937526517,
                    -0.48813878630177754,
                    0.022042277787191922,
                    1.2261032366962197,
                    1.1981136887916468,
                    -0.7660945142153859,
                    0.04936652624232263,
                    -1.7314202305847002,
                    0.43954597889986213,
                    0.2807400064949127,
                    -3.1272128788378635
                ]
            ],
            "biasH": [
                1.4995815679725781,
                0.30112854116722276,
                1.0113456555913627,
                -2.2328638581347815,
                -1.4864517874876215,
                -0.6667831041417435,
                -0.24748993975985012,
                0.953086460121036,
                -1.1628205140383048,
                0.5693137333426415,
                -0.8429881784369975,
                -0.4011007391625808,
                -0.045560522941321624,
                3.356833181481881,
                0.8723568527375444,
                -0.716824845026286
            ],
            "biasO": [
                -1.4892820012479464,
                -0.20622690528875376
            ]
        },
        {
            "inputNodes": 17,
            "hiddenNodes": 16,
            "outputNodes": 2,
            "weightsIH": [
                [
                    -2.5627927213421793,
                    -1.9553250566070126,
                    -0.6290569761258252,
                    -2.4788675896998695,
                    4.510171293420722,
                    -0.6916014990781993,
                    0.48482236069655604,
                    -1.7783491660719593,
                    -0.04482718779072559,
                    0.17944039151433377,
                    0.22644693523074022,
                    -1.6616899488531631,
                    3.4422786800047094,
                    -3.504681011126963,
                    0.4744034633773937,
                    -3.302736459970318,
                    -2.010488928499123
                ],
                [
                    -1.9883440889549029,
                    0.38260541354924527,
                    0.26517432284148323,
                    -1.3691039183549836,
                    -1.5701522648899109,
                    -0.5259801363664453,
                    1.2452112917695488,
                    -1.9145513852308258,
                    0.7583622270751493,
                    -1.7310315909661707,
                    -1.788760592329476,
                    -3.502896694535724,
                    1.606444850762596,
                    -1.2403108597891688,
                    -2.8273712108654587,
                    -1.6360383428903607,
                    -1.715353992632124
                ],
                [
                    0.28453926261007034,
                    0.6514520298271492,
                    2.1916264372160663,
                    -0.3141350903227471,
                    2.9970105016037336,
                    2.7287783387127433,
                    1.8142212461359004,
                    0.5064156328414998,
                    0.005195666651793496,
                    -0.6508868855895253,
                    -0.9115874350337161,
                    -2.1178203787450744,
                    -0.041945432539365335,
                    0.8893687927968126,
                    2.269905453309728,
                    -1.059155567864102,
                    0.5966791979624442
                ],
                [
                    2.2419434242744836,
                    -0.9657553431028222,
                    -0.5993462752466415,
                    1.1050765463610954,
                    2.542150949573593,
                    0.9770332910971709,
                    -0.14423505117336344,
                    -2.3224946086003824,
                    0.3037777501362441,
                    -0.7990851293023346,
                    1.3851779693694057,
                    -2.8772309601772954,
                    2.179546621100408,
                    -1.4054869275530155,
                    -0.5014700675822747,
                    0.6214434135870321,
                    -2.1063181995930957
                ],
                [
                    -3.8373843059008155,
                    1.0848621103454295,
                    0.7232441665417161,
                    -1.8152629515589225,
                    2.400838333611296,
                    2.0027100034587626,
                    -2.022063621844504,
                    1.2326729826740257,
                    -1.045731369022312,
                    0.41640659444655814,
                    2.284901432509481,
                    -0.6096326952628885,
                    -0.19700854557515246,
                    -1.9969689404320108,
                    -3.5141161896006214,
                    2.256242620923225,
                    -1.5915887649366947
                ],
                [
                    -2.3909729082369147,
                    -1.6014933289837474,
                    -1.5952070363505793,
                    -2.567428927859067,
                    -0.09999400598736918,
                    -1.741313985872796,
                    -1.517350716817813,
                    1.488077140204822,
                    0.6369311853405655,
                    -0.04304015567975261,
                    -0.15940342671560592,
                    -0.00947982067915698,
                    0.31430983645765354,
                    -1.3049629172240662,
                    0.9662614594211116,
                    1.7080278611499788,
                    -0.7150659225707535
                ],
                [
                    1.5055345667167992,
                    -0.5598935791384204,
                    3.2128460320200283,
                    0.10002428403274488,
                    -1.5310770701022567,
                    -1.1947443167269434,
                    -2.863257075491443,
                    -0.30435752448376696,
                    0.6369774295600187,
                    -1.387974016594645,
                    -4.357294752255886,
                    1.1967046545695221,
                    0.949589384727643,
                    1.095488166039773,
                    -0.3091871151778123,
                    1.0641351013357336,
                    -0.6535433490842235
                ],
                [
                    0.6150626012255653,
                    -0.8291866594006501,
                    1.8315388418649845,
                    -3.655147664177374,
                    4.572534988788669,
                    -2.984049982997359,
                    -0.865424741006086,
                    -1.20701981389107,
                    1.4255047095897646,
                    -0.5749013417893343,
                    0.4994021973244489,
                    0.5307718414187399,
                    -0.15648242621110509,
                    1.4922150673749177,
                    -2.0341177798373242,
                    0.3293926436274086,
                    0.28631724570949635
                ],
                [
                    1.7549558618623946,
                    2.446976993747186,
                    0.6546573847157705,
                    0.07963324372865921,
                    -0.014345952197032275,
                    -0.7552411282312468,
                    -1.0670857978164914,
                    -2.097576426846388,
                    0.7806258633874252,
                    -1.7319148910007383,
                    -0.5594648511709062,
                    4.863493560261544,
                    -1.1239374521283294,
                    -0.2918403205395723,
                    -2.6932266826508773,
                    -0.8071129776273103,
                    -1.6162931202669495
                ],
                [
                    0.39429992286839555,
                    -2.788569007762284,
                    -0.37763276918713384,
                    -2.545135770214996,
                    0.9188923140605927,
                    1.432589187912209,
                    -1.7844120512490556,
                    1.4108218359105504,
                    0.7109226410606369,
                    1.5058442015078557,
                    2.519745045552032,
                    0.22006365584123522,
                    2.1451950057688314,
                    -1.0231775375645955,
                    -1.0034877877040542,
                    0.6081725345935589,
                    0.7540301714866517
                ],
                [
                    1.503437514070388,
                    0.20491463704742185,
                    0.6920127531238889,
                    0.017172308287720983,
                    0.7866163359446852,
                    0.04045283887248041,
                    0.7452635759936211,
                    0.855317253617779,
                    0.6308676699408765,
                    -0.2517875439420286,
                    0.21309250077668107,
                    1.7580195565450176,
                    -0.21077853992756646,
                    2.0521199536928867,
                    -4.343471703284503,
                    -0.05442136086407967,
                    2.5884932906396125
                ],
                [
                    3.298082902611018,
                    -2.401782237678966,
                    0.16493467276962126,
                    2.0298611631086128,
                    -0.03379995509609224,
                    1.1899809207521308,
                    -1.7402855137733875,
                    -0.742758200863781,
                    0.9103994714976773,
                    -5.700612300665576,
                    -3.0499484977793303,
                    -0.8888182913893842,
                    -1.9312181114887292,
                    -0.836527749624219,
                    -1.7138545094869113,
                    2.190243847249633,
                    2.131056958395626
                ],
                [
                    0.07360433135687905,
                    1.3004613213904346,
                    -0.7051478974435353,
                    -0.785490883982612,
                    0.5790005794304773,
                    -2.841883719052869,
                    1.285949980671993,
                    0.11812007679669156,
                    1.1105381952006597,
                    -3.8415180968956517,
                    0.3339949013618483,
                    -1.7707038887789914,
                    -1.5922443484121895,
                    0.1498721230626261,
                    -0.31602502729111803,
                    -0.6275002687645775,
                    -1.866984180188731
                ],
                [
                    -1.7788208037834305,
                    -2.968758518973157,
                    -0.44694104947370394,
                    -1.165369711067619,
                    1.8973175102168967,
                    2.803981967243118,
                    1.4977614979508558,
                    -1.7213039146088938,
                    1.6221855755737735,
                    -2.3797450049460194,
                    -3.1169918241150407,
                    3.2143943645889634,
                    -0.013380933784596816,
                    0.4856221897947116,
                    -0.16350160154416848,
                    1.592970555341449,
                    0.280485344698414
                ],
                [
                    1.1600136041923568,
                    1.053844468757781,
                    -0.9289406058000177,
                    2.0127866373010352,
                    0.0535344445550654,
                    2.0023571868333647,
                    -0.40481306659306004,
                    -0.22432207645928104,
                    1.0945549343399508,
                    -1.332708848200052,
                    -0.5257799643655694,
                    -0.42518235080811895,
                    -1.778443048062166,
                    1.0083132830405708,
                    0.2133011111973866,
                    -0.5709213270912036,
                    1.0812834407493732
                ],
                [
                    -1.180926763078197,
                    4.846017775019552,
                    -1.7982225211153677,
                    -0.717532229899728,
                    -2.252262217844924,
                    0.6340790114686925,
                    -1.67423487961904,
                    -0.6185607970946068,
                    5.457936887413158,
                    -2.502840020248008,
                    0.32503882323396904,
                    1.0929429452659551,
                    3.6751399256078243,
                    0.10309175025053219,
                    -1.9039097646432865,
                    2.4053556120705974,
                    -1.1039938763835795
                ]
            ],
            "weightsHO": [
                [
                    -2.5664036719661505,
                    -1.4697168521891706,
                    0.43118242871303414,
                    0.31555187901027126,
                    1.8043836749915831,
                    1.6680875006264877,
                    3.210817653287252,
                    1.161383688617242,
                    1.0705018401728883,
                    -0.5074726811053818,
                    0.3149931890329962,
                    3.3242280904141315,
                    -4.4482415693552015,
                    -0.4085793607178463,
                    -1.478039148282726,
                    -0.5754153055576238
                ],
                [
                    2.377880837636259,
                    -2.63962626823563,
                    -1.2339827933836354,
                    0.4042412116795113,
                    2.963952124472579,
                    1.1329938105809525,
                    0.1196118815683378,
                    -0.6555136286014936,
                    -0.5199153335634779,
                    1.8692106512944389,
                    -1.1026907656631395,
                    0.0788620540383772,
                    -1.3746945342593344,
                    0.05656053862236432,
                    0.1488271174017166,
                    -2.7004096140614573
                ]
            ],
            "biasH": [
                0.9296974917800097,
                -1.3964966364853066,
                2.004532233206373,
                -0.5865340759088102,
                -0.4305584356483939,
                0.30410167629453444,
                0.6975989907860151,
                -0.1632146016410604,
                0.9976821324200473,
                0.6780829928752796,
                -0.5829637521388225,
                0.41544494300451673,
                -0.27851179422590133,
                4.604057780398523,
                -0.05740497957326263,
                -0.19662684712523615
            ],
            "biasO": [
                0.15635042727496817,
                0.30491788971321865
            ]
        },
        {
            "inputNodes": 17,
            "hiddenNodes": 16,
            "outputNodes": 2,
            "weightsIH": [
                [
                    -2.6949620837574564,
                    -1.617924751727764,
                    0.24903097467036361,
                    -2.3312905160794646,
                    4.510171293420722,
                    -0.5788291254235529,
                    -0.37717137409738566,
                    -1.5454639661274445,
                    -0.14196998220936496,
                    0.4119706566745912,
                    0.19685714000808607,
                    -1.3412451743742775,
                    3.1277394214712695,
                    -2.5969238526042786,
                    -0.2947156241484201,
                    -3.48862856121072,
                    -2.0832099788024068
                ],
                [
                    -1.6205401081522393,
                    0.1453488007412952,
                    0.14533518317999783,
                    -1.3019052063159289,
                    -2.1521872855596884,
                    -0.5259801363664453,
                    1.2452112917695488,
                    -1.8592506771109156,
                    0.7006597469921519,
                    -1.128266627855721,
                    -1.5643872862988717,
                    -3.4144455147248296,
                    1.3539582507743124,
                    -1.8369462832543206,
                    -3.5200373639492675,
                    -0.958407946935255,
                    -1.2136253367627934
                ],
                [
                    0.28453926261007034,
                    0.38318396331669347,
                    2.2845155461398243,
                    -0.3141350903227471,
                    3.028612319548597,
                    2.2444393056112526,
                    2.013909074489579,
                    -0.9287633967879867,
                    0.4072067649852026,
                    -0.6508868855895253,
                    -1.0913839846693172,
                    -2.355366619273079,
                    0.2133017444737313,
                    0.9572517054756318,
                    2.3230744571626256,
                    -1.1570576651841267,
                    1.4167725982634745
                ],
                [
                    1.7761628210500606,
                    -0.5829907697373774,
                    -1.3058787734786592,
                    0.9936976796787393,
                    2.1465735623898503,
                    1.2492709293803266,
                    0.6795954724241404,
                    -2.7048751477296222,
                    -0.6927660474443188,
                    -0.5852804988629793,
                    2.1855911372609023,
                    -2.1138804195331398,
                    1.9945046180561539,
                    -1.496699008136361,
                    -0.6170700447867751,
                    1.1193372103589025,
                    -2.0694822170132117
                ],
                [
                    -3.4323376958810665,
                    1.0595260254200967,
                    0.5242826915939844,
                    -1.8152629515589225,
                    1.5621598139999109,
                    2.553972860428366,
                    -2.4945161774503144,
                    1.087634451805271,
                    -1.2738239663082782,
                    0.11421873282539863,
                    2.4013050015313113,
                    -0.7480936694038642,
                    0.5386802585957865,
                    -1.5319752530958248,
                    -3.4575781538308354,
                    2.256242620923225,
                    -0.9889978887622269
                ],
                [
                    -2.103607590042171,
                    -1.3814043159110185,
                    -1.3709984471237535,
                    -2.94349432824459,
                    0.3268777634205383,
                    -2.2052507827867025,
                    -1.3858414574054918,
                    1.502741554543583,
                    0.23192674734158614,
                    0.49450416734276936,
                    -0.5350580649515219,
                    0.0507422515614957,
                    0.5573947067060406,
                    -0.824909214637647,
                    1.1531509124909158,
                    1.0159174160789126,
                    -0.055461521384168155
                ],
                [
                    1.0812917672514017,
                    -0.6041671933671857,
                    3.1143470905102038,
                    0.057043373176655865,
                    -2.3191582062074856,
                    -1.875013853141152,
                    -2.658228776432617,
                    -0.30435752448376696,
                    0.6369774295600187,
                    -1.0948220776988604,
                    -4.810061019257941,
                    1.542947220685083,
                    0.7162208685036395,
                    0.7553385652393406,
                    -0.22243813483812858,
                    1.0641351013357336,
                    -0.521586251398619
                ],
                [
                    0.6468480890791211,
                    -0.712651274838458,
                    2.9490138064087135,
                    -4.0506057107800455,
                    4.774628717077888,
                    -3.109710556985394,
                    -1.1232906989258533,
                    -1.4632937200614071,
                    1.7301719123612633,
                    -0.14314344635243137,
                    1.1812952857506862,
                    0.10268174891249948,
                    -0.6253115023832888,
                    0.2676244182560411,
                    -2.5507425593689548,
                    0.5125209648179724,
                    0.5825431963859475
                ],
                [
                    1.3925787124516633,
                    1.9905235186012131,
                    0.7181623165152575,
                    0.508347855510136,
                    0.20182342652269136,
                    -0.5099760883854463,
                    -1.5064433664510826,
                    -1.9419481445685443,
                    1.4454800948841604,
                    -2.1497486692348144,
                    -0.773742569383979,
                    5.2654360712098285,
                    -1.7472015361588475,
                    -0.09183198781493984,
                    -2.1874079158619164,
                    -0.49601207772461653,
                    -2.0836587195224063
                ],
                [
                    0.5413726977505763,
                    -2.7636548362691404,
                    0.19936306947109317,
                    -3.013058111624987,
                    0.9188923140605927,
                    1.1471276908633434,
                    -1.0339766335059772,
                    1.0908420073921539,
                    0.09683792871538055,
                    1.5058442015078557,
                    2.519745045552032,
                    0.45801727839965833,
                    1.656907072004893,
                    -0.8238225014088963,
                    -0.4075026082637112,
                    0.1886354110936721,
                    0.9318546340073017
                ],
                [
                    1.503437514070388,
                    0.02698226744169674,
                    0.2921921495751082,
                    0.46955461107955265,
                    0.7991447779235886,
                    0.5543746830024029,
                    -0.3568382930861703,
                    0.888592798320966,
                    0.5750070265611584,
                    -0.2517875439420286,
                    0.21309250077668107,
                    1.7580195565450176,
                    0.0040458583828764105,
                    1.730572331128537,
                    -4.329929508520596,
                    -0.11037902952631407,
                    2.5884932906396125
                ],
                [
                    2.8895344399117637,
                    -2.4127131287094365,
                    0.0818204231917049,
                    1.2808984108226902,
                    -0.1277044007781346,
                    1.5448522208392719,
                    -1.8341008252109452,
                    0.14410745561555904,
                    0.4294446169869447,
                    -5.521720163492533,
                    -3.4127826494564455,
                    -0.5298197172460728,
                    -2.0303613131288594,
                    -0.8413171949524201,
                    -1.4908907960914417,
                    0.9818913810536507,
                    2.24892966015913
                ],
                [
                    -0.34301097746741804,
                    0.9960098443556947,
                    -0.22629542198341202,
                    0.6880442422953039,
                    0.7097879739447959,
                    -2.9353454690552154,
                    1.7207723734691804,
                    -0.033213741931110485,
                    2.0158389432073345,
                    -3.811560583540722,
                    0.1259433274578241,
                    -0.8330462895089745,
                    -1.949908087000181,
                    0.13794707685657437,
                    -0.23342590342540126,
                    -0.6275002687645775,
                    -1.8345257242895905
                ],
                [
                    -1.5767568275450938,
                    -2.551016614630078,
                    -0.6304217959875954,
                    -1.3536725250550115,
                    0.9127968728793375,
                    2.8350386414995565,
                    1.452817477579149,
                    -1.3699027175890457,
                    1.2272167213241103,
                    -2.3797450049460194,
                    -2.7688938777856142,
                    4.439787808019041,
                    -0.013380933784596816,
                    0.7571071803260724,
                    -0.5843853191934646,
                    1.491769635244196,
                    0.4451729598504064
                ],
                [
                    0.6774269493873813,
                    1.258212466767315,
                    -0.9289406058000177,
                    2.2013124091806406,
                    -0.24995136389051187,
                    2.869489841547094,
                    -0.40481306659306004,
                    -0.3171299876717578,
                    1.0410633757392813,
                    -0.23778883358586245,
                    -0.5590705769398133,
                    -0.2073942548759209,
                    -1.6953958883007223,
                    0.683723012995778,
                    -0.10921842917135482,
                    -0.45886122900012405,
                    1.0812834407493732
                ],
                [
                    -0.4949636123822828,
                    5.1633008744000755,
                    -2.1646386596364224,
                    -0.8005765183974255,
                    -1.816441843137,
                    0.9371016114453217,
                    -0.8138829114006054,
                    -0.9074051709303421,
                    4.810868113406579,
                    -2.678685035641125,
                    -0.11879360789681614,
                    0.9419920262976385,
                    2.769719752817384,
                    0.560272330835523,
                    -1.94577254376705,
                    2.505847318767955,
                    -0.32822733506612156
                ]
            ],
            "weightsHO": [
                [
                    -2.112970679129675,
                    -1.7737525699974708,
                    -0.0710105107134752,
                    0.5167715905607199,
                    1.6426340624655615,
                    1.6990878283076363,
                    3.5386622106683543,
                    -0.1494955401698157,
                    1.5070486161681411,
                    -0.5324317914407003,
                    0.26151972064599316,
                    3.5205604733530977,
                    -3.4290729017615846,
                    -0.7508856443515394,
                    -2.1088429322768674,
                    -0.3094287317468326
                ],
                [
                    2.1630714987526627,
                    -2.9020801060956325,
                    -1.2339827933836354,
                    0.29851333119781365,
                    2.96534689583628,
                    1.5021443119683926,
                    0.51766872929944,
                    -0.49114293176043045,
                    -0.5969422836049182,
                    1.9407395298505752,
                    -0.1769955534518266,
                    0.35588465179975104,
                    -0.6691870296654178,
                    -0.9553972374099489,
                    0.44390772967671677,
                    -2.5238788736108306
                ]
            ],
            "biasH": [
                0.9296974917800097,
                -0.8878137877210763,
                1.6454581387972287,
                -1.0373003913511574,
                -0.8367524683887222,
                0.542714967263442,
                1.4146985553405553,
                -0.4767614746563298,
                0.9976821324200473,
                1.9018045564073607,
                0.04760803224314658,
                -0.25134759138602547,
                0.22070204520595826,
                4.760567108740463,
                0.444327489571679,
                -0.40306387462738635
            ],
            "biasO": [
                -0.3859117090062214,
                0.4319596252286756
            ]
        },
        {
            "inputNodes": 17,
            "hiddenNodes": 16,
            "outputNodes": 2,
            "weightsIH": [
                [
                    -3.2686210364224615,
                    -1.8711552120875152,
                    -0.3143254380150181,
                    -2.487586291397932,
                    4.9733028702727236,
                    -0.6435995065771037,
                    -0.7391267689311345,
                    -1.2440197818177254,
                    0.23247642893859055,
                    -0.05534398560632925,
                    0.45446896927362945,
                    -1.4077766125194116,
                    3.1277394214712695,
                    -3.4927475863521185,
                    0.3995086716418059,
                    -3.3216004398081163,
                    -2.010488928499123
                ],
                [
                    -1.9883440889549029,
                    0.6948680178826954,
                    0.2862922819306889,
                    -1.6809444314172115,
                    -2.5044917600545697,
                    -0.5259801363664453,
                    1.2452112917695488,
                    -2.0202461030010586,
                    0.801083652965666,
                    -0.8263596756976039,
                    -1.6259866235878557,
                    -3.9196038970797398,
                    2.169982247100381,
                    -1.1695681381923757,
                    -2.524199969433666,
                    -1.819963955977407,
                    -1.725550435329346
                ],
                [
                    0.22859469807829913,
                    0.6261030088185058,
                    1.6535731039181552,
                    0.839528869829171,
                    2.848754133014819,
                    2.2287990155064654,
                    1.8907190033317471,
                    0.1370033194741448,
                    -0.8796045663948144,
                    -1.2335299544295886,
                    -0.9115874350337161,
                    -2.2223990304687415,
                    -0.041945432539365335,
                    0.9572517054756318,
                    2.269905453309728,
                    -1.059155567864102,
                    0.6343796344385719
                ],
                [
                    1.7203643539376277,
                    -1.375067631863292,
                    -0.8734155806542384,
                    0.6174664588225178,
                    2.6725104091672893,
                    0.8102829321115459,
                    -0.41008394175394425,
                    -2.2337399594552823,
                    -0.18575905231301337,
                    -0.9213971560107569,
                    1.3397651628348521,
                    -2.445826924903688,
                    2.16124956649846,
                    -1.825845983536114,
                    -0.9820889634331111,
                    0.5051177319639008,
                    -2.0812732239885814
                ],
                [
                    -4.2537422360911625,
                    1.0848621103454295,
                    -0.026178794910065584,
                    -1.2802887291937566,
                    2.3228375407384263,
                    2.9390708064465,
                    -1.8170099502908288,
                    1.8633718382976008,
                    -1.643919653940813,
                    0.028642540212414636,
                    1.6754464464062453,
                    -1.89447124819571,
                    -0.03704593662622879,
                    -1.2636682177112566,
                    -2.3620185086185606,
                    1.5502568465382016,
                    -2.563818526551503
                ],
                [
                    -2.479148811630279,
                    -1.404833075141887,
                    -1.8449714169210536,
                    -2.087338953387856,
                    -0.22099876425126463,
                    -1.9262660733896646,
                    -1.8325357198857657,
                    1.3329038383398624,
                    0.1375957168267946,
                    0.30695537035877907,
                    -0.05722099713026474,
                    0.2731807213648797,
                    0.36202831364653376,
                    -1.3342597744199156,
                    0.3484951744307748,
                    1.4199463839493882,
                    -0.06477569639975123
                ],
                [
                    1.1486406231740005,
                    -0.3395598170933497,
                    3.2128460320200283,
                    0.7888162783415241,
                    -1.2790912376664054,
                    -0.838632791319375,
                    -2.5509318281128004,
                    -0.26860185187133057,
                    0.6521835135459254,
                    -0.9800890051079388,
                    -4.761323497921247,
                    1.1939419895381453,
                    1.1103694907523953,
                    0.33326542757780764,
                    -0.4378557105864551,
                    0.886750849714952,
                    -0.8360591389712347
                ],
                [
                    0.6150626012255653,
                    -0.6664034552586268,
                    1.985474626563533,
                    -4.358849272349727,
                    5.271479097300102,
                    -3.24307708075197,
                    -1.1785052552085178,
                    -1.0704642881917261,
                    1.5774572698463545,
                    0.2741645885704683,
                    0.10503142965084689,
                    0.5271276254639704,
                    -0.11394349150020167,
                    1.2452489818755856,
                    -2.328064354136464,
                    0.21115710856117498,
                    0.28631724570949635
                ],
                [
                    1.2566467974359101,
                    1.3107250763360605,
                    0.09549084605444469,
                    0.6286941570237394,
                    -0.6820471941177543,
                    -0.28652886010081524,
                    -1.2062414179440206,
                    -2.065722497212942,
                    0.7258960023233128,
                    -2.3632677699898816,
                    -0.7552108773926541,
                    4.8672192854888054,
                    -1.288349114602435,
                    -0.4741902104111849,
                    -2.6155086129807437,
                    -0.8071129776273103,
                    -1.7376052166257847
                ],
                [
                    1.1951625843143014,
                    -3.183679159189471,
                    0.10872026998388573,
                    -2.329940238792923,
                    1.2145410449265466,
                    1.1856066116115556,
                    -1.3013287062212182,
                    0.6549705742746508,
                    0.6645239830345167,
                    1.5058442015078557,
                    2.2604876353992434,
                    0.021444154459653086,
                    1.9351574196084393,
                    -1.0818235556085414,
                    -2.0812056882152827,
                    0.39892068730124164,
                    0.2980700558184616
                ],
                [
                    1.244111929557321,
                    -0.09747007999451252,
                    0.7486006614261979,
                    0.017172308287720983,
                    0.8126974224597748,
                    0.3570537972466019,
                    -0.1109882971214945,
                    0.9363934490490765,
                    0.8645474477012242,
                    -0.2571106621619599,
                    0.38404961549607675,
                    1.3963844043241918,
                    0.2871684747822172,
                    2.4208123468212186,
                    -3.432042514411245,
                    -0.8927193084980948,
                    2.5884932906396125
                ],
                [
                    3.228559728490695,
                    -2.419383593007364,
                    0.9115647426090433,
                    1.446475721523238,
                    -0.706074066531073,
                    0.6874591287238548,
                    -1.5267831014678388,
                    -0.7500259555212919,
                    0.8334494417204685,
                    -5.660083763648773,
                    -3.2428119515000104,
                    -0.9125566063320032,
                    -2.1634058266465774,
                    -1.322125813504027,
                    -1.4090019722119562,
                    1.8221089131355728,
                    2.2602078626261823
                ],
                [
                    -0.2755633327572403,
                    1.3004613213904346,
                    -0.7051478974435353,
                    -0.002952485560727136,
                    0.9075002908020484,
                    -2.6699825468215344,
                    0.580541232014948,
                    0.39466592200780715,
                    0.5923287663343407,
                    -3.2717535288917046,
                    0.2056170586745012,
                    -1.1866937275186265,
                    -1.1678933036399872,
                    0.18050899306214674,
                    -0.1683980474723642,
                    -0.18546578688388815,
                    -1.202414118205503
                ],
                [
                    -2.094017721815737,
                    -2.8301896566451816,
                    -0.4605431931524475,
                    -0.4085883971707779,
                    2.4197324546503833,
                    2.301221777628788,
                    1.452817477579149,
                    -1.996150175098399,
                    1.658911874918306,
                    -1.6919675171104673,
                    -3.1169918241150407,
                    4.028804199296146,
                    -0.013380933784596816,
                    0.3438333222720945,
                    -0.16745594652971485,
                    1.3522753213198162,
                    -0.016356411211302935
                ],
                [
                    1.3837954462308102,
                    1.6275672277850695,
                    -1.1885588209654683,
                    2.0127866373010352,
                    0.0535344445550654,
                    2.3425046724609766,
                    -0.40481306659306004,
                    -0.22432207645928104,
                    1.5686051985345628,
                    -1.21922827632946,
                    -0.35161405291314085,
                    -1.0156079830767828,
                    -2.2650794063180912,
                    0.31203184441903986,
                    0.030782750397496228,
                    -0.08989817987753423,
                    1.1741302366241873
                ],
                [
                    -0.323658393009575,
                    5.0808956836689365,
                    -2.0975645126934594,
                    -0.33783031741205616,
                    -2.413250850793241,
                    0.07119549898997934,
                    -1.3439587124100387,
                    -0.6985330043528313,
                    4.756988354089138,
                    -2.711055871972296,
                    -0.3282791195467829,
                    1.0929429452659551,
                    3.2917031105696806,
                    0.502934398177489,
                    -1.2666079346041241,
                    1.915801371538525,
                    -0.7556840420500808
                ]
            ],
            "weightsHO": [
                [
                    -2.434679700038215,
                    -2.1360401951076096,
                    0.43118242871303414,
                    0.7224655782950598,
                    2.3997373414977035,
                    1.541191243692127,
                    3.6085829901502224,
                    0.45338488199634364,
                    0.8555459422200602,
                    -0.467715482299342,
                    0.26151972064599316,
                    3.574505836196385,
                    -4.686941054383704,
                    -0.7508856443515394,
                    -2.1325448864268925,
                    -1.4278936059585092
                ],
                [
                    1.913592341261686,
                    -2.624418140758522,
                    -1.1955184187717531,
                    0.6591676690683801,
                    2.5402902027550884,
                    0.91807115309354,
                    0.450431265525977,
                    -1.1187282730721173,
                    -0.9434392906128128,
                    2.2166105713304605,
                    -0.4773597183316485,
                    0.503802005004796,
                    -0.8852658111748603,
                    0.3490750441662749,
                    0.44835382672610835,
                    -2.5232764320813557
                ]
            ],
            "biasH": [
                -0.14123205468125988,
                -1.277091058729673,
                2.2059821556953194,
                -0.9629669318870296,
                -0.5557331549601466,
                -0.3220810891364885,
                0.8868606361274421,
                0.1281806066361676,
                0.7954065564502439,
                1.4474532981309483,
                0.37183639754273656,
                0.40883823074803627,
                -1.042556414632011,
                5.4389748445829635,
                0.11080168170364812,
                -0.7453484384611383
            ],
            "biasO": [
                -0.5905736022814504,
                -0.06138864901521157
            ]
        },
        {
            "inputNodes": 17,
            "hiddenNodes": 16,
            "outputNodes": 2,
            "weightsIH": [
                [
                    -2.5627927213421793,
                    -1.7047299708953698,
                    -0.023369283348017134,
                    -2.184440559990123,
                    4.494055203302335,
                    -0.5262963063799256,
                    -0.2702524088768081,
                    -1.3075405822989246,
                    0.0505605718692147,
                    0.17944039151433377,
                    0.4281980899854846,
                    -1.3412451743742775,
                    3.1277394214712695,
                    -3.123224796567799,
                    0.20484127175567235,
                    -3.6315858342176073,
                    -1.5783609873897784
                ],
                [
                    -1.9883440889549029,
                    0.38260541354924527,
                    0.4744168250903127,
                    -1.5776734016500933,
                    -1.4936405075232584,
                    -1.0130431790232282,
                    1.2452112917695488,
                    -1.4771434443036306,
                    0.7583622270751493,
                    -1.2642653907464576,
                    -1.6815999366150023,
                    -2.9726764742795035,
                    1.3737291998467898,
                    -1.212501791467727,
                    -2.9004177479974973,
                    -1.6360383428903607,
                    -1.725550435329346
                ],
                [
                    0.28453926261007034,
                    0.33298562083589367,
                    2.0197414033803014,
                    0.07483522989225466,
                    2.7729765720511996,
                    2.0113770917834546,
                    1.8907190033317471,
                    -1.2678131152041736,
                    -0.3938681777145141,
                    -1.194853033680092,
                    -0.7883896780169518,
                    -2.1835207484864476,
                    -0.0139169429152175,
                    0.9572517054756318,
                    2.7377899190043293,
                    -0.786339991990723,
                    1.043279921351778
                ],
                [
                    1.4705821017757619,
                    -0.7343622658516891,
                    -0.8734155806542384,
                    1.1050765463610954,
                    1.7627276978588486,
                    0.9770332910971709,
                    0.5354274203173429,
                    -2.2581484505110203,
                    -0.12802046481700624,
                    -0.8242238516764421,
