{
    "generation": 355,
    "totalTime": 15904.266666519377,
    "allTimeBestScore": 959.1820569992493,
    "brains": [
        {
            "inputNodes": 17,
            "hiddenNodes": 16,
            "outputNodes": 2,
            "weightsIH": [
                [
                    -1.9791419506072998,
                    -5.312371253967285,
                    1.5248006582260132,
                    -2.5593507289886475,
                    4.49330997467041,
                    0.9269556403160095,
                    -0.7263096570968628,
                    -0.07936237752437592,
                    2.619051694869995,
                    -0.3792414963245392,
                    1.4426716566085815,
                    -4.5616774559021,
                    1.5478683710098267,
                    -2.622774600982666,
                    0.668185830116272,
                    -4.428853511810303,
                    -0.4347701072692871
                ],
                [
                    -0.3602442741394043,
                    1.1694493293762207,
                    -0.7452771663665771,
                    -4.054270267486572,
                    1.1466823816299438,
                    0.1406669020652771,
                    -0.2135055512189865,
                    -1.304134488105774,
                    3.6907589435577393,
                    -1.9138656854629517,
                    -2.8525469303131104,
                    -1.0075572729110718,
                    0.4817067086696625,
                    -1.2577526569366455,
                    -2.426511287689209,
                    -1.6834251880645752,
                    -1.2753586769104004
                ],
                [
                    2.524171829223633,
                    -0.12218297272920609,
                    1.0284900665283203,
                    2.0969998836517334,
                    4.918640613555908,
                    1.3451639413833618,
                    0.7304486632347107,
                    -2.588285207748413,
                    0.07127399742603302,
                    0.24429555237293243,
                    1.1776026487350464,
                    -0.7385561466217041,
                    1.2941416501998901,
                    1.081480860710144,
                    1.4028451442718506,
                    0.33021050691604614,
                    1.5635627508163452
                ],
                [
                    1.8906687498092651,
                    -1.9220014810562134,
                    0.4169403314590454,
                    1.8681824207305908,
                    2.16858172416687,
                    1.234304666519165,
                    2.5276622772216797,
                    -4.05178165435791,
                    2.0326154232025146,
                    0.7348595857620239,
                    2.4703516960144043,
                    -3.318513870239258,
                    6.214380264282227,
                    2.4544806480407715,
                    0.7522056698799133,
                    -0.9066065549850464,
                    -3.425018787384033
                ],
                [
                    -3.0658044815063477,
                    1.3990955352783203,
                    1.248876690864563,
                    -1.4840799570083618,
                    1.268543004989624,
                    0.43372711539268494,
                    -2.959062337875366,
                    2.303102970123291,
                    -2.2271888256073,
                    -1.3491904735565186,
                    0.6250112652778625,
                    -2.363539695739746,
                    2.938324213027954,
                    -1.5982130765914917,
                    -2.9250965118408203,
                    -0.03709768131375313,
                    -0.6602751612663269
                ],
                [
                    -4.020036220550537,
                    -0.035900238901376724,
                    -0.8835513591766357,
                    -4.0503435134887695,
                    0.02629234828054905,
                    -2.8685481548309326,
                    -1.0135551691055298,
                    1.129970908164978,
                    -0.6702311635017395,
                    -0.4106554687023163,
                    -1.7800240516662598,
                    0.5237607955932617,
                    2.000398635864258,
                    -2.928037643432617,
                    -0.8760319352149963,
                    1.2689985036849976,
                    -0.4490002691745758
                ],
                [
                    3.0817766189575195,
                    -1.0650279521942139,
                    2.606025218963623,
                    -0.5994771122932434,
                    -2.461705207824707,
                    -2.1999905109405518,
                    -1.9501049518585205,
                    -2.1073427200317383,
                    1.733083963394165,
                    -4.170350074768066,
                    -1.9407904148101807,
                    1.453995943069458,
                    -1.525126576423645,
                    -1.2985587120056152,
                    -0.8323127031326294,
                    2.1457901000976562,
                    -1.0255459547042847
                ],
                [
                    0.5344474911689758,
                    -0.6447543501853943,
                    4.126364707946777,
                    -3.76102614402771,
                    7.855350494384766,
                    -2.946950912475586,
                    -1.819562315940857,
                    -2.19522762298584,
                    0.6638196110725403,
                    0.5434614419937134,
                    1.0774424076080322,
                    0.0717138797044754,
                    -1.5881214141845703,
                    -0.7352432608604431,
                    -1.5289720296859741,
                    0.8363116383552551,
                    -1.4450430870056152
                ],
                [
                    -0.4691634178161621,
                    1.4628933668136597,
                    1.4254273176193237,
                    0.6148146986961365,
                    -0.5264458656311035,
                    -0.14681877195835114,
                    -1.2561020851135254,
                    -4.2063469886779785,
                    -1.147563099861145,
                    -0.19987605512142181,
                    -0.20355962216854095,
                    5.247623920440674,
                    -0.003301262855529785,
                    -3.0383195877075195,
                    -0.5358223915100098,
                    2.107118606567383,
                    0.7084665298461914
                ],
                [
                    -1.6462727785110474,
                    -2.837606430053711,
                    0.9906347393989563,
                    -4.771462440490723,
                    0.46749240159988403,
                    -0.9158247113227844,
                    -0.16448074579238892,
                    0.5286373496055603,
                    2.7165255546569824,
                    2.767094612121582,
                    2.6680338382720947,
                    -1.9575084447860718,
                    2.948986530303955,
                    -1.352850079536438,
                    0.7668647766113281,
                    1.5301690101623535,
                    2.7804079055786133
                ],
                [
                    0.724895179271698,
                    -1.3168898820877075,
                    -2.326803207397461,
                    -0.8685497045516968,
                    -1.882338523864746,
                    -0.18867307901382446,
                    0.039087552577257156,
                    -1.3151865005493164,
                    1.842856526374817,
                    -0.7139666080474854,
                    -0.8055208325386047,
                    3.0759060382843018,
                    1.707689642906189,
                    3.0520949363708496,
                    -5.865129470825195,
                    -0.665572464466095,
                    2.2591023445129395
                ],
                [
                    4.865598201751709,
                    -4.310484409332275,
                    0.7743464708328247,
                    2.0442378520965576,
                    -1.0321667194366455,
                    0.5419344305992126,
                    -1.2338999509811401,
                    -2.6390411853790283,
                    1.4080790281295776,
                    -7.216625213623047,
                    -7.256623268127441,
                    0.4027509391307831,
                    -4.071227550506592,
                    -1.1762456893920898,
                    -1.2819557189941406,
                    0.3579627573490143,
                    1.1061890125274658
                ],
                [
                    -1.3359706401824951,
                    0.6566529273986816,
                    2.3512229919433594,
                    -0.051128022372722626,
                    2.685330867767334,
                    -3.9472620487213135,
                    3.261441230773926,
                    0.176687091588974,
                    2.3358492851257324,
                    -4.222047328948975,
                    1.1924374103546143,
                    -1.5112563371658325,
                    -1.9795258045196533,
                    1.6299018859863281,
                    -0.5417528748512268,
                    0.9387251734733582,
                    -1.890339732170105
                ],
                [
                    -3.2257871627807617,
                    -5.045383930206299,
                    -0.5440458059310913,
                    -0.9510541558265686,
                    3.150402784347534,
                    1.8847702741622925,
                    -0.7045512795448303,
                    0.6775521039962769,
                    1.5531840324401855,
                    -4.316250324249268,
                    -3.787386894226074,
                    5.845095157623291,
                    0.6651096940040588,
                    2.2110707759857178,
                    1.4066264629364014,
                    5.558534622192383,
                    2.0872268676757812
                ],
                [
                    1.1564861536026,
                    -0.14440226554870605,
                    -1.7388619184494019,
                    0.7698118686676025,
                    -0.59378582239151,
                    1.1452066898345947,
                    -0.4238438606262207,
                    -0.4368399381637573,
                    3.7034120559692383,
                    0.15230397880077362,
                    -3.2301242351531982,
                    1.2800670862197876,
                    -3.1940598487854004,
                    -1.185807466506958,
                    -2.3935086727142334,
                    0.7393617630004883,
                    2.522601842880249
                ],
                [
                    -1.068906307220459,
                    2.1257412433624268,
                    -2.3116111755371094,
                    0.6531970500946045,
                    -1.637175440788269,
                    0.6092603206634521,
                    0.2819148600101471,
                    0.4004431366920471,
                    5.643616199493408,
                    -1.2353246212005615,
                    -2.781008005142212,
                    -0.6438649892807007,
                    3.2982563972473145,
                    -0.12238723039627075,
                    -0.5552960634231567,
                    6.050928115844727,
                    -1.144795536994934
                ]
            ],
            "weightsHO": [
                [
                    -1.2875818014144897,
                    -4.864026069641113,
                    0.2857268452644348,
                    -0.4034123420715332,
                    3.3662757873535156,
                    2.112008571624756,
                    4.2864298820495605,
                    1.9413714408874512,
                    2.988464832305908,
                    -2.8807685375213623,
                    2.7147927284240723,
                    1.065868616104126,
                    -4.466819763183594,
                    -1.2442008256912231,
                    -0.00034144119126722217,
                    -1.1146814823150635
                ],
                [
                    1.6067135334014893,
                    -5.538387775421143,
                    -0.7795678973197937,
                    -0.00014589430065825582,
                    3.974010705947876,
                    3.7570393085479736,
                    0.99918532371521,
                    1.9671462774276733,
                    -0.5322591066360474,
                    4.097169399261475,
                    -1.5383787155151367,
                    0.419849693775177,
                    -1.8614362478256226,
                    -1.0327928066253662,
                    1.3689169883728027,
                    -1.6428217887878418
                ]
            ],
            "biasH": [
                2.0268783569335938,
                -0.4188814163208008,
                0.7578620910644531,
                -1.4242688417434692,
                0.03789811581373215,
                -0.3476681709289551,
                2.9763541221618652,
                -0.46497371792793274,
                1.191598653793335,
                0.5261257886886597,
                -0.09745994210243225,
                0.8873412609100342,
                1.0505110025405884,
                4.893271446228027,
                -0.6378700137138367,
                0.7969561815261841
            ],
            "biasO": [
                0.7697369456291199,
                -0.9132587313652039
            ]
        },
        {
            "inputNodes": 17,
            "hiddenNodes": 16,
            "outputNodes": 2,
            "weightsIH": [
                [
                    -1.925107479095459,
                    -5.312371253967285,
                    1.5248006582260132,
                    -2.5593507289886475,
                    4.581861972808838,
                    1.0083154439926147,
                    -0.7263096570968628,
                    -0.08776284754276276,
                    2.4600672721862793,
                    -0.3346303105354309,
                    1.4426716566085815,
                    -4.5616774559021,
                    1.5226703882217407,
                    -2.622774600982666,
                    0.668185830116272,
                    -4.428853511810303,
                    -0.4347701072692871
                ],
                [
                    -0.3602442741394043,
                    1.1694493293762207,
                    -0.7232189178466797,
                    -4.054270267486572,
                    1.1929537057876587,
                    0.1406669020652771,
                    -0.2135055512189865,
                    -1.2589681148529053,
                    3.6907589435577393,
                    -1.6801711320877075,
                    -2.8525469303131104,
                    -1.0075572729110718,
                    0.5151116847991943,
                    -1.1599901914596558,
                    -2.426511287689209,
                    -1.7519093751907349,
                    -1.2753586769104004
                ],
                [
                    2.524171829223633,
                    -0.3663220703601837,
                    0.9414170980453491,
                    2.175448179244995,
                    4.918640613555908,
                    1.3451639413833618,
                    0.7304486632347107,
                    -2.588285207748413,
                    -0.036198440939188004,
                    0.24429555237293243,
                    1.1776026487350464,
                    -0.7385561466217041,
                    1.2941416501998901,
                    1.081480860710144,
                    1.4028451442718506,
                    0.33021050691604614,
                    1.5635627508163452
                ],
                [
                    1.8906687498092651,
                    -1.9220014810562134,
                    0.4169403314590454,
                    1.8681824207305908,
                    2.16858172416687,
                    1.234304666519165,
                    2.5276622772216797,
                    -3.9154272079467773,
                    2.1062300205230713,
                    0.7348595857620239,
                    2.4695286750793457,
                    -3.318513870239258,
                    6.214380264282227,
                    2.4544806480407715,
                    0.8450284600257874,
                    -0.9066065549850464,
                    -3.569110631942749
                ],
                [
                    -3.1369597911834717,
                    1.3990955352783203,
                    1.2320681810379028,
                    -1.4840799570083618,
                    1.268543004989624,
                    0.43372711539268494,
                    -2.8688061237335205,
                    2.303102970123291,
                    -2.2001535892486572,
                    -1.3491904735565186,
                    0.6250112652778625,
                    -2.363539695739746,
                    2.938324213027954,
                    -1.5982130765914917,
                    -2.9250965118408203,
                    -0.03709768131375313,
                    -0.6839874386787415
                ],
                [
                    -3.931396961212158,
                    0.1041182279586792,
                    -0.8835513591766357,
                    -4.1540703773498535,
                    -0.0024793846532702446,
                    -2.8685481548309326,
                    -1.0135551691055298,
                    1.129970908164978,
                    -0.6702311635017395,
                    -0.4106554687023163,
                    -1.7800240516662598,
                    0.5237607955932617,
                    1.8153141736984253,
                    -2.928037643432617,
                    -0.965217113494873,
                    1.2689985036849976,
                    -0.4490002691745758
                ],
                [
                    3.0817766189575195,
                    -1.0650279521942139,
                    2.6162331104278564,
                    -0.7959907054901123,
                    -2.5477395057678223,
                    -2.1999905109405518,
                    -1.9501049518585205,
                    -2.032707691192627,
                    1.733083963394165,
                    -4.052439212799072,
                    -1.9407904148101807,
                    1.5433706045150757,
                    -1.4553638696670532,
                    -1.3851678371429443,
                    -0.8323127031326294,
                    2.1072425842285156,
                    -1.0255459547042847
                ],
                [
                    0.5344474911689758,
                    -0.6447543501853943,
                    4.126364707946777,
                    -3.6222012042999268,
                    7.855350494384766,
                    -2.9735910892486572,
                    -1.9142643213272095,
                    -2.19522762298584,
                    0.6638196110725403,
                    0.6933481693267822,
                    1.0774424076080322,
                    0.0717138797044754,
                    -1.7061705589294434,
                    -0.7352432608604431,
                    -1.4931139945983887,
                    0.8363116383552551,
                    -1.30880606174469
                ],
                [
                    -0.4691634178161621,
                    1.5359565019607544,
                    1.3017505407333374,
                    0.6148146986961365,
                    -0.5264458656311035,
                    -0.09744356572628021,
                    -1.2561020851135254,
                    -4.2063469886779785,
                    -1.147563099861145,
                    -0.19987605512142181,
                    -0.22924649715423584,
                    5.334042549133301,
                    0.1340138167142868,
                    -3.205871105194092,
                    -0.5358223915100098,
                    2.107118606567383,
                    0.7084665298461914
                ],
                [
                    -1.6462727785110474,
                    -2.7044694423675537,
                    1.0860164165496826,
                    -4.702199459075928,
                    0.46749240159988403,
                    -0.9158247113227844,
                    -0.10255877673625946,
                    0.17476944625377655,
                    2.628305196762085,
                    2.767094612121582,
                    2.6028804779052734,
                    -1.9575084447860718,
                    2.948986530303955,
                    -1.427495002746582,
                    0.731296718120575,
                    1.5301690101623535,
                    2.692852020263672
                ],
                [
                    0.724895179271698,
                    -1.3168898820877075,
                    -2.326803207397461,
                    -0.7356125116348267,
                    -1.882338523864746,
                    -0.18867307901382446,
                    0.039087552577257156,
                    -1.2334849834442139,
                    1.7277430295944214,
                    -0.7139666080474854,
                    -0.8055208325386047,
                    3.0759060382843018,
                    1.707689642906189,
                    3.0520949363708496,
                    -5.545712947845459,
                    -0.665572464466095,
                    2.2591023445129395
                ],
                [
                    4.865598201751709,
                    -4.310484409332275,
                    0.6978740096092224,
                    2.0442378520965576,
                    -1.0321667194366455,
                    0.5259044766426086,
                    -1.2338999509811401,
                    -2.6078763008117676,
                    1.4080790281295776,
                    -7.216625213623047,
                    -7.256623268127441,
                    0.4027509391307831,
                    -4.071227550506592,
                    -1.2519739866256714,
                    -1.3230546712875366,
                    0.3579627573490143,
                    1.2052974700927734
                ],
                [
                    -1.3359706401824951,
                    0.6566529273986816,
                    2.224452018737793,
                    -0.051128022372722626,
                    2.685330867767334,
                    -3.9472620487213135,
                    3.261441230773926,
                    0.176687091588974,
                    2.3358492851257324,
                    -4.222047328948975,
                    1.1924374103546143,
                    -1.5112563371658325,
                    -1.8907009363174438,
                    1.6299018859863281,
                    -0.5417528748512268,
                    0.9387251734733582,
                    -1.890339732170105
                ],
                [
                    -3.147362470626831,
                    -5.048917770385742,
                    -0.7674488425254822,
                    -0.9510541558265686,
                    3.150402784347534,
                    1.8847702741622925,
                    -0.7529799938201904,
                    0.6775521039962769,
                    1.463906168937683,
                    -4.17213249206543,
                    -3.787386894226074,
                    5.845095157623291,
                    0.6651096940040588,
                    2.2110707759857178,
                    1.4066264629364014,
                    5.558534622192383,
                    2.0333375930786133
                ],
                [
                    1.1564861536026,
                    -0.15994150936603546,
                    -1.7388619184494019,
                    0.7698118686676025,
                    -0.59378582239151,
                    1.018950343132019,
                    -0.4238438606262207,
                    -0.4862114191055298,
                    3.7034120559692383,
                    0.15230397880077362,
                    -3.2301242351531982,
                    1.3943172693252563,
                    -3.319971799850464,
                    -1.2351152896881104,
                    -2.3935086727142334,
                    0.7393617630004883,
                    2.522601842880249
                ],
                [
                    -1.043661117553711,
                    2.2412993907928467,
                    -2.300668239593506,
                    0.6531970500946045,
                    -1.4603230953216553,
                    0.6092603206634521,
                    0.2728409171104431,
                    0.4071120023727417,
                    5.643616199493408,
                    -1.2353246212005615,
                    -2.781008005142212,
                    -0.7735844254493713,
                    3.2982563972473145,
                    -0.12238723039627075,
                    -0.6867257952690125,
                    6.050928115844727,
                    -1.144795536994934
                ]
            ],
            "weightsHO": [
                [
                    -1.2444943189620972,
                    -4.864026069641113,
                    0.2857268452644348,
                    -0.4230939447879791,
                    3.3662757873535156,
                    2.112008571624756,
                    4.2864298820495605,
                    1.9413714408874512,
                    2.988464832305908,
                    -2.8807685375213623,
                    2.6657803058624268,
                    1.1422239542007446,
                    -4.466819763183594,
                    -1.2442008256912231,
                    -0.02064874954521656,
                    -1.1146814823150635
                ],
                [
                    1.6067135334014893,
                    -5.371757507324219,
                    -0.7795678973197937,
                    -0.00014589430065825582,
                    3.974010705947876,
                    3.7570393085479736,
                    0.99918532371521,
                    1.9671462774276733,
                    -0.5322591066360474,
                    4.097169399261475,
                    -1.5311895608901978,
                    0.419849693775177,
                    -1.8491909503936768,
                    -1.0327928066253662,
                    1.3767977952957153,
                    -1.6428217887878418
                ]
            ],
            "biasH": [
                2.0268783569335938,
                -0.4188814163208008,
                0.7390871047973633,
                -1.4242688417434692,
                0.06479913741350174,
                -0.3476681709289551,
                2.9763541221618652,
                -0.46497371792793274,
                1.217968225479126,
                0.45851558446884155,
                -0.13095545768737793,
                0.8873412609100342,
                1.0505110025405884,
                4.893271446228027,
                -0.6378700137138367,
                0.7969561815261841
            ],
            "biasO": [
                0.7697369456291199,
                -0.9132587313652039
            ]
        },
        {
            "inputNodes": 17,
            "hiddenNodes": 16,
            "outputNodes": 2,
            "weightsIH": [
                [
                    -1.925107479095459,
                    -5.17465877532959,
                    1.5248006582260132,
                    -2.5593507289886475,
                    4.581861972808838,
                    0.9979732632637024,
                    -0.7263096570968628,
                    -0.08776284754276276,
                    2.4600672721862793,
                    -0.20719514787197113,
                    1.4426716566085815,
                    -4.482002258300781,
                    1.5478683710098267,
                    -2.622774600982666,
                    0.6263639330863953,
                    -4.189006328582764,
                    -0.5304669141769409
                ],
                [
                    -0.508624792098999,
                    1.1694493293762207,
                    -0.7232189178466797,
                    -4.054270267486572,
                    1.1586127281188965,
                    0.1406669020652771,
                    -0.2135055512189865,
                    -1.304134488105774,
                    3.6907589435577393,
                    -1.9138656854629517,
                    -2.8525469303131104,
                    -1.0075572729110718,
                    0.5151116847991943,
                    -1.2577526569366455,
                    -2.426511287689209,
                    -1.7519093751907349,
                    -1.2753586769104004
                ],
                [
                    2.524171829223633,
                    -0.12218297272920609,
                    0.968975841999054,
                    2.175448179244995,
                    4.682190418243408,
                    1.3451639413833618,
                    0.7304486632347107,
                    -2.588285207748413,
                    -0.036198440939188004,
                    0.24429555237293243,
                    1.1776026487350464,
                    -0.7609761953353882,
                    1.2946051359176636,
                    1.081480860710144,
                    1.4028451442718506,
                    0.33021050691604614,
                    1.4711331129074097
                ],
                [
                    1.843623161315918,
                    -1.9220014810562134,
                    0.34775614738464355,
                    1.8681824207305908,
                    2.16858172416687,
                    1.234304666519165,
                    2.5276622772216797,
                    -3.9154272079467773,
                    2.1238770484924316,
                    0.6565405130386353,
                    2.3782713413238525,
                    -3.318513870239258,
                    6.214380264282227,
                    2.4544806480407715,
                    0.8083633780479431,
                    -0.9284501671791077,
                    -3.7070653438568115
                ],
                [
                    -3.1369597911834717,
                    1.3990955352783203,
                    1.2320681810379028,
                    -1.3632715940475464,
                    1.0734639167785645,
                    0.43372711539268494,
                    -2.8688061237335205,
                    2.2433040142059326,
                    -2.2188968658447266,
                    -1.3491904735565186,
                    0.5460042357444763,
                    -2.363539695739746,
                    2.938324213027954,
                    -1.621417760848999,
                    -2.9250965118408203,
                    -0.03709768131375313,
                    -0.6839874386787415
                ],
                [
                    -4.0120110511779785,
                    0.05237230658531189,
                    -0.8305898308753967,
                    -4.1540703773498535,
                    -0.0024793846532702446,
                    -2.8685481548309326,
                    -1.0135551691055298,
                    1.129970908164978,
                    -0.6702311635017395,
                    -0.4106554687023163,
                    -1.7800240516662598,
                    0.5237607955932617,
                    1.8153141736984253,
                    -2.928037643432617,
                    -0.965217113494873,
                    1.3086559772491455,
                    -0.4490002691745758
                ],
                [
                    2.829913377761841,
                    -1.0650279521942139,
                    2.606025218963623,
                    -0.7959907054901123,
                    -2.496583938598633,
                    -2.1999905109405518,
                    -1.9501049518585205,
                    -2.032707691192627,
                    1.733083963394165,
                    -4.043741703033447,
                    -1.9407904148101807,
                    1.5433706045150757,
                    -1.4553638696670532,
                    -1.290390968322754,
                    -0.8545629382133484,
                    2.1457901000976562,
                    -1.0152390003204346
                ],
                [
                    0.5710499882698059,
                    -0.7356430888175964,
                    4.126364707946777,
                    -3.6222012042999268,
                    7.840305805206299,
                    -2.946950912475586,
                    -1.9142643213272095,
                    -2.343837261199951,
                    0.6638196110725403,
                    0.6933481693267822,
                    1.0179702043533325,
                    0.0717138797044754,
                    -1.7934486865997314,
                    -0.7352432608604431,
                    -1.4931139945983887,
                    0.8363116383552551,
                    -1.30880606174469
                ],
                [
                    -0.6171841621398926,
                    1.477385401725769,
                    0.8951048851013184,
                    0.6148146986961365,
                    -0.6761160492897034,
                    -0.10473716259002686,
                    -1.2096551656723022,
                    -4.020031452178955,
                    -1.0494948625564575,
                    -0.19987605512142181,
                    -0.2234325408935547,
                    5.242785930633545,
                    0.1340138167142868,
                    -3.190864086151123,
                    -0.5358223915100098,
                    2.107118606567383,
                    0.7084665298461914
                ],
                [
                    -1.6462727785110474,
                    -2.708864688873291,
                    1.1714649200439453,
                    -4.702199459075928,
                    0.46749240159988403,
                    -0.9158247113227844,
                    -0.10255877673625946,
                    0.1971391886472702,
                    2.712946891784668,
                    2.801453113555908,
                    2.6028804779052734,
                    -1.9575084447860718,
                    2.948986530303955,
                    -1.427495002746582,
                    0.7668647766113281,
                    1.5301690101623535,
                    2.785738468170166
                ],
                [
                    0.724895179271698,
                    -1.3573408126831055,
                    -2.2218196392059326,
                    -0.7356125116348267,
                    -1.8430570363998413,
                    -0.27444005012512207,
                    0.14706715941429138,
                    -1.2334849834442139,
                    1.7277430295944214,
                    -0.580695390701294,
                    -0.8867707848548889,
                    2.837158441543579,
                    1.707689642906189,
                    3.0520949363708496,
                    -5.7303996086120605,
                    -0.7183518409729004,
                    2.2591023445129395
                ],
                [
                    4.865598201751709,
                    -4.40373420715332,
                    0.7542506456375122,
                    2.062509059906006,
                    -1.0321667194366455,
                    0.5259044766426086,
                    -1.2338999509811401,
                    -2.6078763008117676,
                    1.4080790281295776,
                    -7.216625213623047,
                    -7.30342435836792,
                    0.4027509391307831,
                    -4.172590255737305,
                    -1.0994043350219727,
                    -1.359886884689331,
                    0.09293234348297119,
                    1.2052974700927734
                ],
                [
                    -1.3359706401824951,
                    0.6566529273986816,
                    2.224256753921509,
                    -0.07120632380247116,
                    2.685330867767334,
                    -3.952028751373291,
                    3.244122266769409,
                    0.176687091588974,
                    2.3358492851257324,
                    -4.222047328948975,
                    1.1924374103546143,
                    -1.5112563371658325,
                    -1.8181803226470947,
                    1.593854308128357,
                    -0.5417528748512268,
                    0.9387251734733582,
                    -1.890339732170105
                ],
                [
                    -3.1620676517486572,
                    -5.1018757820129395,
                    -0.5440458059310913,
                    -0.9510541558265686,
                    3.190403938293457,
                    1.9293110370635986,
                    -0.7160096168518066,
                    0.6485811471939087,
                    1.463906168937683,
                    -4.17213249206543,
                    -3.832263469696045,
                    5.845095157623291,
                    0.6498831510543823,
                    2.0747179985046387,
                    1.3685038089752197,
                    5.5113043785095215,
                    2.0333375930786133
                ],
                [
                    1.1564861536026,
                    -0.09437469393014908,
                    -1.7388619184494019,
                    0.6607527136802673,
                    -0.6397761702537537,
                    1.1452066898345947,
                    -0.4238438606262207,
                    -0.4368399381637573,
                    3.7034120559692383,
                    0.23074623942375183,
                    -3.3666930198669434,
                    1.3943172693252563,
                    -3.319971799850464,
                    -1.211634874343872,
                    -2.3793532848358154,
                    0.7393617630004883,
                    2.522601842880249
                ],
                [
                    -1.043661117553711,
                    2.2412993907928467,
                    -2.300668239593506,
                    0.6558514833450317,
                    -1.5336970090866089,
                    0.6092603206634521,
                    0.2728409171104431,
                    0.29785117506980896,
                    5.584481716156006,
                    -1.2275022268295288,
                    -2.781008005142212,
                    -0.7735844254493713,
                    3.2982563972473145,
                    -0.12238723039627075,
                    -0.6867257952690125,
                    6.064259052276611,
                    -1.144795536994934
                ]
            ],
            "weightsHO": [
                [
                    -1.2444943189620972,
                    -4.864026069641113,
                    0.2857268452644348,
                    -0.4230939447879791,
                    3.3662757873535156,
                    2.112008571624756,
                    4.269433975219727,
                    1.705247163772583,
                    2.988464832305908,
                    -2.839539051055908,
                    2.7147927284240723,
                    1.1422239542007446,
                    -4.455478191375732,
                    -1.2442008256912231,
                    -0.02064874954521656,
                    -1.1146814823150635
                ],
                [
                    1.4499590396881104,
                    -5.447742938995361,
                    -0.7795678973197937,
                    -0.046246059238910675,
                    4.152277946472168,
                    3.7092337608337402,
                    0.99918532371521,
                    1.9671462774276733,
                    -0.5613607168197632,
                    4.097169399261475,
                    -1.5311895608901978,
                    0.419849693775177,
                    -1.8491909503936768,
                    -1.0327928066253662,
                    1.3767977952957153,
                    -1.6428217887878418
                ]
            ],
            "biasH": [
                1.9286367893218994,
                -0.4776272475719452,
                0.7390871047973633,
                -1.4242688417434692,
                0.03789811581373215,
                -0.2671416997909546,
                2.9808154106140137,
                -0.4904562532901764,
                1.217968225479126,
                0.45851558446884155,
                -0.09745994210243225,
                0.8873412609100342,
                1.0505110025405884,
                4.794290542602539,
                -0.6378700137138367,
                0.7969561815261841
            ],
            "biasO": [
                0.8350614905357361,
                -0.9132587313652039
            ]
        },
        {
            "inputNodes": 17,
            "hiddenNodes": 16,
            "outputNodes": 2,
            "weightsIH": [
                [
                    -2.0213096141815186,
                    -5.312371253967285,
                    1.5610601902008057,
                    -2.477562189102173,
                    4.750906467437744,
                    1.0959633588790894,
                    -0.8207951784133911,
                    0.014806801453232765,
                    2.543052911758423,
                    -0.3849450349807739,
                    1.3700774908065796,
                    -4.607419013977051,
                    1.6387505531311035,
                    -2.622774600982666,
                    0.6263639330863953,
                    -4.115240573883057,
                    -0.4347701072692871
                ],
                [
                    -0.37426796555519104,
                    1.2970508337020874,
                    -0.629149317741394,
                    -4.054270267486572,
                    1.1929537057876587,
                    0.1406741887331009,
                    -0.1967947632074356,
                    -1.304134488105774,
                    3.6907589435577393,
                    -1.6801711320877075,
                    -2.815493583679199,
                    -1.1142374277114868,
                    0.5151116847991943,
                    -1.2165330648422241,
                    -2.426511287689209,
                    -1.956339955329895,
                    -1.2753586769104004
                ],
                [
                    2.5345661640167236,
                    -0.2828574478626251,
                    1.0391498804092407,
                    2.175448179244995,
                    4.877739906311035,
                    1.3453080654144287,
                    0.7304486632347107,
                    -2.588285207748413,
                    0.07127399742603302,
                    0.24429555237293243,
                    1.1776026487350464,
                    -0.7700532674789429,
                    1.2941416501998901,
                    1.2337249517440796,
                    1.3598415851593018,
                    0.33021050691604614,
                    1.4711331129074097
                ],
                [
                    1.8906687498092651,
                    -1.9220014810562134,
                    0.42754361033439636,
                    1.8644530773162842,
                    2.16858172416687,
                    1.1966224908828735,
                    2.5490951538085938,
                    -3.9154272079467773,
                    2.1238770484924316,
                    0.7445511817932129,
                    2.4020915031433105,
                    -3.4431333541870117,
                    6.23463773727417,
                    2.718336343765259,
                    0.8450284600257874,
                    -0.9066065549850464,
                    -3.7070653438568115
                ],
                [
                    -3.228397846221924,
                    1.3990955352783203,
                    1.3720710277557373,
                    -1.3632715940475464,
                    1.186160922050476,
                    0.43372711539268494,
                    -2.868338108062744,
                    2.049060821533203,
                    -2.268125534057617,
                    -1.4254212379455566,
                    0.5460042357444763,
                    -2.4473626613616943,
                    2.7902846336364746,
                    -1.5982130765914917,
                    -2.9983632564544678,
                    -0.03709768131375313,
                    -0.7994468808174133
                ],
                [
                    -4.0120110511779785,
                    0.1041182279586792,
                    -0.8835513591766357,
                    -4.1540703773498535,
                    0.0666012093424797,
                    -2.8685481548309326,
                    -1.0135551691055298,
                    1.129970908164978,
                    -0.6702311635017395,
                    -0.4106554687023163,
                    -1.7791693210601807,
                    0.5572251677513123,
                    1.932887077331543,
                    -2.928037643432617,
                    -0.8763828277587891,
                    1.3536545038223267,
                    -0.2699843943119049
                ],
                [
                    3.0817766189575195,
                    -1.0650279521942139,
                    2.606025218963623,
                    -0.6646673679351807,
                    -2.4671168327331543,
                    -2.229356050491333,
                    -1.9501049518585205,
                    -2.0492613315582275,
                    1.733083963394165,
                    -4.043741703033447,
                    -1.9052848815917969,
                    1.5433706045150757,
                    -1.4553638696670532,
                    -1.3851678371429443,
                    -0.8323127031326294,
                    2.0659971237182617,
                    -1.1018823385238647
                ],
                [
                    0.5710499882698059,
                    -0.6987113952636719,
                    4.126364707946777,
                    -3.769157886505127,
                    7.815389156341553,
                    -2.946950912475586,
                    -1.7758121490478516,
                    -2.343837261199951,
                    0.7198613286018372,
                    0.4815733730792999,
                    1.0179702043533325,
                    0.0717138797044754,
                    -1.7849832773208618,
                    -0.7352432608604431,
                    -1.4931139945983887,
                    0.8363116383552551,
                    -1.2816613912582397
                ],
                [
                    -0.6171841621398926,
                    1.5359565019607544,
                    0.8546239137649536,
                    0.49637216329574585,
                    -0.5942469239234924,
                    -0.10473716259002686,
                    -1.2561020851135254,
                    -4.2063469886779785,
                    -1.147563099861145,
                    -0.30625659227371216,
                    -0.22924649715423584,
                    5.242785930633545,
                    0.007256343495100737,
                    -3.205871105194092,
                    -0.5358223915100098,
                    2.107118606567383,
                    0.620022714138031
                ],
                [
                    -1.5797162055969238,
                    -2.708864688873291,
                    1.0860164165496826,
                    -4.793735980987549,
                    0.46749240159988403,
                    -0.9957348108291626,
                    -0.016537955030798912,
                    0.1971391886472702,
                    2.70888352394104,
                    2.886993169784546,
                    2.6028804779052734,
                    -1.9575084447860718,
                    2.948986530303955,
                    -1.3538532257080078,
                    0.7668647766113281,
                    1.5301690101623535,
                    2.829231023788452
                ],
                [
                    0.7239006757736206,
                    -1.2730062007904053,
                    -2.326803207397461,
                    -0.9009108543395996,
                    -1.8406546115875244,
                    -0.3464042842388153,
                    0.039087552577257156,
                    -1.3499490022659302,
                    1.842856526374817,
                    -0.7139666080474854,
                    -0.8470340371131897,
                    3.0759060382843018,
                    1.772559404373169,
                    3.0520949363708496,
                    -5.7303996086120605,
                    -0.6933251023292542,
                    2.327779769897461
                ],
                [
                    4.865598201751709,
                    -4.40373420715332,
                    0.6978740096092224,
                    2.0442378520965576,
                    -0.9294741153717041,
                    0.5419344305992126,
                    -1.2338999509811401,
                    -2.5828192234039307,
                    1.2396856546401978,
                    -7.169192314147949,
                    -7.256623268127441,
                    0.4027509391307831,
                    -4.071227550506592,
                    -1.2497673034667969,
                    -1.2670657634735107,
                    0.28751933574676514,
                    1.2052974700927734
                ],
                [
                    -1.394217848777771,
                    0.7346975803375244,
                    2.224452018737793,
                    -0.051128022372722626,
                    2.67630672454834,
                    -4.024013519287109,
                    3.2940866947174072,
                    0.2038460075855255,
                    2.3358492851257324,
                    -4.207513809204102,
                    1.1924374103546143,
                    -1.5112563371658325,
                    -1.8907009363174438,
                    1.6299018859863281,
                    -0.639362633228302,
                    0.9387251734733582,
                    -1.971460223197937
                ],
                [
                    -3.2257871627807617,
                    -5.222491264343262,
                    -0.7745848298072815,
                    -0.9189587235450745,
                    3.193765640258789,
                    1.8847702741622925,
                    -0.7529799938201904,
                    0.7838461399078369,
                    1.657193899154663,
                    -4.2199387550354,
                    -3.6951661109924316,
                    5.845095157623291,
                    0.6498831510543823,
                    2.1268115043640137,
                    1.4066264629364014,
                    5.5113043785095215,
                    2.0333375930786133
                ],
                [
                    1.105711817741394,
                    -0.14456960558891296,
                    -1.7830296754837036,
                    0.6607527136802673,
                    -0.6397761702537537,
                    1.018950343132019,
                    -0.3546355366706848,
                    -0.3982201814651489,
                    3.7034120559692383,
                    0.15230397880077362,
                    -3.3666930198669434,
                    1.5317283868789673,
                    -3.319971799850464,
                    -1.1652673482894897,
                    -2.384354829788208,
                    0.841529905796051,
                    2.522601842880249
                ],
                [
                    -1.043661117553711,
                    2.155435800552368,
                    -2.296586751937866,
                    0.6558514833450317,
                    -1.5524901151657104,
                    0.6092603206634521,
                    0.23227651417255402,
                    0.29785117506980896,
                    5.666199684143066,
                    -1.2368419170379639,
                    -2.781008005142212,
                    -0.6438649892807007,
                    3.2982563972473145,
                    -0.11438696086406708,
                    -0.6477243900299072,
                    6.050928115844727,
                    -1.0534080266952515
                ]
            ],
            "weightsHO": [
                [
                    -1.3588182926177979,
                    -4.864026069641113,
                    0.2779693305492401,
                    -0.3526819348335266,
                    3.3904669284820557,
                    2.112008571624756,
                    4.2864298820495605,
                    1.705187439918518,
                    3.096630811691284,
                    -2.8807685375213623,
                    2.8058762550354004,
                    1.1422239542007446,
                    -4.466819763183594,
                    -1.2442008256912231,
                    -0.02064874954521656,
                    -1.0127187967300415
                ],
                [
                    1.4499590396881104,
                    -5.371757507324219,
                    -0.7795678973197937,
                    0.032758161425590515,
                    3.974010705947876,
                    3.8287582397460938,
                    0.99918532371521,
                    1.9671462774276733,
                    -0.5322591066360474,
                    4.097169399261475,
                    -1.3564655780792236,
                    0.4404146373271942,
                    -1.8614362478256226,
                    -1.0327928066253662,
                    1.3689169883728027,
                    -1.7189068794250488
                ]
            ],
            "biasH": [
                1.9328434467315674,
                -0.48343923687934875,
                0.7390871047973633,
                -1.4242688417434692,
                0.06479913741350174,
                -0.2671416997909546,
                2.9808154106140137,
                -0.39247840642929077,
                1.2589714527130127,
                0.45990878343582153,
                -0.13095545768737793,
                0.8873412609100342,
                0.9934260845184326,
                4.783519268035889,
                -0.6378700137138367,
                0.7969561815261841
            ],
            "biasO": [
                0.8350614905357361,
                -0.9132587313652039
            ]
        },
        {
            "inputNodes": 17,
            "hiddenNodes": 16,
            "outputNodes": 2,
            "weightsIH": [
                [
                    -2.0324478149414062,
                    -5.17465877532959,
                    1.5610601902008057,
                    -2.5593507289886475,
                    4.581861972808838,
                    1.0959633588790894,
                    -0.7263096570968628,
                    -0.0682678148150444,
                    2.383986473083496,
                    -0.4035700559616089,
                    1.3700774908065796,
                    -4.527161121368408,
                    1.5811249017715454,
                    -2.622774600982666,
                    0.6263639330863953,
                    -4.1887054443359375,
                    -0.5269867777824402
                ],
                [
                    -0.34522444009780884,
                    1.261652946472168,
                    -0.7728449702262878,
                    -4.054270267486572,
                    1.1466823816299438,
                    0.1406669020652771,
                    -0.2135055512189865,
                    -1.304134488105774,
                    3.728165864944458,
                    -1.9138656854629517,
                    -2.8525469303131104,
                    -1.1935070753097534,
                    0.5151116847991943,
                    -1.2577526569366455,
                    -2.46756649017334,
                    -1.6689053773880005,
                    -1.2753586769104004
                ],
                [
                    2.5345661640167236,
                    -0.3663220703601837,
                    0.9932006597518921,
                    2.175448179244995,
                    4.682190418243408,
                    1.4610322713851929,
                    0.7304486632347107,
                    -2.588285207748413,
                    0.07127399742603302,
                    0.24429555237293243,
                    1.1631518602371216,
                    -0.7425646781921387,
                    1.2946051359176636,
                    1.081480860710144,
                    1.4028451442718506,
                    0.36001887917518616,
                    1.4711331129074097
                ],
                [
                    1.843623161315918,
                    -1.9220014810562134,
                    0.34775614738464355,
                    1.8261038064956665,
                    2.16858172416687,
                    1.1966224908828735,
                    2.5185141563415527,
                    -3.9763264656066895,
                    2.1238770484924316,
                    0.6565405130386353,
                    2.3782713413238525,
                    -3.399273633956909,
                    6.214380264282227,
                    2.718336343765259,
                    0.8450284600257874,
                    -0.9341155290603638,
                    -3.5188260078430176
                ],
                [
                    -3.1369597911834717,
                    1.3990955352783203,
                    1.248876690864563,
                    -1.3632715940475464,
                    1.1559103727340698,
                    0.43372711539268494,
                    -2.959062337875366,
                    2.303102970123291,
                    -2.2001535892486572,
                    -1.2992417812347412,
                    0.4379241168498993,
                    -2.363539695739746,
                    2.728851795196533,
                    -1.5982130765914917,
                    -2.9470174312591553,
                    -0.03528319299221039,
                    -0.7994468808174133
                ],
                [
                    -4.010807991027832,
                    0.05237230658531189,
                    -0.8305898308753967,
                    -4.0503435134887695,
                    0.025383830070495605,
                    -2.8685481548309326,
                    -0.9994967579841614,
                    1.129970908164978,
                    -0.552090585231781,
                    -0.4106554687023163,
                    -1.7800240516662598,
                    0.5572251677513123,
                    1.892313838005066,
                    -2.804443597793579,
                    -0.965217113494873,
                    1.3086559772491455,
                    -0.4490002691745758
                ],
                [
                    3.0817766189575195,
                    -1.021376371383667,
                    2.6952531337738037,
                    -0.7959907054901123,
                    -2.5543601512908936,
                    -2.1999905109405518,
                    -1.9501049518585205,
                    -2.1073427200317383,
                    1.6730982065200806,
                    -4.099024772644043,
                    -1.9052848815917969,
                    1.5433706045150757,
                    -1.4960343837738037,
                    -1.3960858583450317,
                    -0.8928715586662292,
                    2.1072425842285156,
                    -1.1018823385238647
                ],
                [
                    0.4553135633468628,
                    -0.7356430888175964,
                    4.041572570800781,
                    -3.76102614402771,
                    7.815389156341553,
                    -2.946950912475586,
                    -1.7830157279968262,
                    -2.19522762298584,
                    0.6638196110725403,
                    0.4815733730792999,
                    1.1227763891220093,
                    0.0717138797044754,
                    -1.5881214141845703,
                    -0.6000935435295105,
                    -1.5370877981185913,
                    0.8363116383552551,
                    -1.3996647596359253
                ],
                [
                    -0.6171841621398926,
                    1.477385401725769,
                    0.8759748935699463,
                    0.6148146986961365,
                    -0.6761160492897034,
                    -0.10473716259002686,
                    -1.1681468486785889,
                    -4.134820938110352,
                    -1.147563099861145,
                    -0.19987605512142181,
                    -0.2675866186618805,
                    5.242785930633545,
                    0.1340138167142868,
                    -2.9495203495025635,
                    -0.6074393391609192,
                    2.0748472213745117,
                    0.7606600522994995
                ],
                [
                    -1.713915228843689,
                    -2.708864688873291,
                    1.0860164165496826,
                    -4.752001762390137,
                    0.46749240159988403,
                    -0.9428250193595886,
                    -0.10255877673625946,
                    0.1971391886472702,
                    2.644808769226074,
                    2.87184739112854,
                    2.5930910110473633,
                    -1.9575084447860718,
                    2.879561185836792,
                    -1.3538532257080078,
                    0.8492029905319214,
                    1.5301690101623535,
                    2.785738468170166
                ],
                [
                    0.7239006757736206,
                    -1.2730062007904053,
                    -2.2918331623077393,
                    -0.9235312342643738,
                    -1.8406546115875244,
                    -0.18867307901382446,
                    0.24097922444343567,
                    -1.3821641206741333,
                    1.842856526374817,
                    -0.7113770246505737,
                    -0.8655872344970703,
                    2.8978271484375,
                    1.513068437576294,
                    3.1312549114227295,
                    -5.475466251373291,
                    -0.5339565873146057,
                    2.335752010345459
                ],
                [
                    4.722981929779053,
                    -4.40373420715332,
                    0.7542506456375122,
                    2.1398072242736816,
                    -0.9294741153717041,
                    0.5259044766426086,
                    -1.2338999509811401,
                    -2.6078763008117676,
                    1.3309868574142456,
                    -7.216625213623047,
                    -7.256623268127441,
                    0.4027509391307831,
                    -4.04943323135376,
                    -1.0994043350219727,
                    -1.2819557189941406,
                    0.29077717661857605,
                    1.2052974700927734
                ],
                [
                    -1.3359706401824951,
                    0.6352279782295227,
                    2.224256753921509,
                    -0.07120632380247116,
                    2.685330867767334,
                    -3.9905126094818115,
                    3.261441230773926,
                    0.176687091588974,
                    2.2498538494110107,
                    -4.345155239105225,
                    1.1924374103546143,
                    -1.5857164859771729,
                    -1.912001609802246,
                    1.593854308128357,
                    -0.6513891816139221,
                    0.855975329875946,
                    -1.890339732170105
                ],
                [
                    -3.2257871627807617,
                    -5.088211536407471,
                    -0.5440458059310913,
                    -0.9497309327125549,
                    3.190403938293457,
                    1.9485740661621094,
                    -0.7160096168518066,
                    0.658060610294342,
                    1.568140983581543,
                    -4.086846351623535,
                    -3.645111083984375,
                    5.845095157623291,
                    0.6498831510543823,
                    2.2110707759857178,
                    1.3685038089752197,
                    5.412834644317627,
                    2.0333375930786133
                ],
                [
                    1.0400923490524292,
                    -0.09437469393014908,
                    -1.7830296754837036,
                    0.8176276087760925,
                    -0.6397761702537537,
                    1.063146710395813,
                    -0.4238438606262207,
                    -0.4368399381637573,
                    3.7034120559692383,
                    0.15230397880077362,
                    -3.3666930198669434,
                    1.3943172693252563,
                    -3.319971799850464,
                    -1.211634874343872,
                    -2.378204822540283,
                    0.675922691822052,
                    2.522601842880249
                ],
                [
                    -1.043661117553711,
                    2.1904098987579346,
                    -2.3116111755371094,
                    0.6558514833450317,
                    -1.4603230953216553,
                    0.6092603206634521,
                    0.2234119176864624,
                    0.29785117506980896,
                    5.584481716156006,
                    -1.2424664497375488,
                    -2.8397490978240967,
                    -0.6438649892807007,
                    3.2957122325897217,
                    -0.12238723039627075,
                    -0.4599572718143463,
                    6.064259052276611,
                    -1.144795536994934
                ]
            ],
            "weightsHO": [
                [
                    -1.3588182926177979,
                    -4.864026069641113,
                    0.2779693305492401,
                    -0.4760796129703522,
                    3.3662757873535156,
                    2.071521520614624,
                    4.255782127380371,
                    1.7169089317321777,
                    3.0239524841308594,
                    -2.839539051055908,
                    2.8058762550354004,
                    1.1422239542007446,
                    -4.379948616027832,
                    -1.2442008256912231,
                    -0.02064874954521656,
                    -1.0127187967300415
                ],
                [
                    1.3573269844055176,
                    -5.371757507324219,
                    -0.6367781162261963,
                    -0.01675722375512123,
                    4.152277946472168,
                    3.7092337608337402,
                    0.8711165189743042,
                    1.9671462774276733,
                    -0.5322591066360474,
                    4.181610584259033,
                    -1.5583324432373047,
                    0.41568341851234436,
                    -1.8491909503936768,
                    -1.0889829397201538,
                    1.3534165620803833,
                    -1.7189068794250488
                ]
            ],
            "biasH": [
                1.9504907131195068,
                -0.5959412455558777,
                0.7855361104011536,
                -1.3956581354141235,
                0.1830630749464035,
                -0.342619925737381,
                3.0573554039001465,
                -0.39247840642929077,
                1.217968225479126,
                0.5362384915351868,
                -0.09745994210243225,
                0.9186872243881226,
                1.0505110025405884,
                4.794290542602539,
                -0.6378700137138367,
                0.7969561815261841
            ],
            "biasO": [
                0.8350614905357361,
                -0.8749874234199524
            ]
        },
        {
            "inputNodes": 17,
            "hiddenNodes": 16,
            "outputNodes": 2,
            "weightsIH": [
                [
                    -1.988981008529663,
                    -5.312371253967285,
                    1.5274837017059326,
                    -2.436427354812622,
                    4.581861972808838,
                    1.1599658727645874,
                    -0.7263096570968628,
                    -0.07936237752437592,
                    2.4600672721862793,
                    -0.3792414963245392,
                    1.4426716566085815,
                    -4.482002258300781,
                    1.5455516576766968,
                    -2.514965534210205,
                    0.5684724450111389,
                    -4.148766040802002,
                    -0.4317663013935089
                ],
                [
                    -0.508624792098999,
                    1.141430377960205,
                    -0.7452771663665771,
                    -4.054270267486572,
                    1.0799387693405151,
                    0.23776645958423615,
                    -0.17648537456989288,
                    -1.5215520858764648,
                    3.7525951862335205,
                    -1.9138656854629517,
                    -2.815493583679199,
                    -1.1156787872314453,
                    0.5151116847991943,
                    -1.2577526569366455,
                    -2.426511287689209,
                    -1.6480674743652344,
                    -1.2753586769104004
                ],
                [
                    2.441697597503662,
                    -0.2828574478626251,
                    0.9758155345916748,
                    2.0676121711730957,
                    4.689211368560791,
                    1.4610322713851929,
                    0.7304486632347107,
                    -2.588285207748413,
                    -0.036198440939188004,
                    0.18275222182273865,
                    1.1776026487350464,
                    -0.726818859577179,
                    1.4021919965744019,
                    1.081480860710144,
                    1.4028451442718506,
                    0.33021050691604614,
                    1.6556661128997803
                ],
                [
                    1.9124573469161987,
                    -1.7905311584472656,
                    0.2700473666191101,
                    1.889480710029602,
                    2.16858172416687,
                    1.1103572845458984,
                    2.4809093475341797,
                    -3.985595226287842,
                    2.1238770484924316,
                    0.6565405130386353,
                    2.4441330432891846,
                    -3.3219656944274902,
                    6.23463773727417,
                    2.4131011962890625,
                    0.7522056698799133,
                    -0.9284501671791077,
                    -3.425018787384033
                ],
                [
                    -3.128970146179199,
                    1.2766917943954468,
                    1.324861764907837,
                    -1.4840799570083618,
                    1.186160922050476,
                    0.425674170255661,
                    -2.959062337875366,
                    2.2433040142059326,
                    -2.2001535892486572,
                    -1.5076736211776733,
                    0.4379241168498993,
                    -2.363539695739746,
                    2.7097280025482178,
                    -1.621417760848999,
                    -2.9983632564544678,
                    -0.03528319299221039,
                    -0.7396935820579529
                ],
                [
                    -4.020036220550537,
                    0.05237230658531189,
                    -0.8781092166900635,
                    -4.1540703773498535,
                    0.15442779660224915,
                    -2.8685481548309326,
                    -1.0135551691055298,
                    1.129970908164978,
                    -0.6702311635017395,
                    -0.31232407689094543,
                    -1.9048248529434204,
                    0.5072984099388123,
                    1.892313838005066,
                    -2.911166191101074,
                    -0.9232587218284607,
                    1.146745204925537,
                    -0.47767019271850586
                ],
                [
                    2.907336473464966,
                    -1.1252238750457764,
                    2.606025218963623,
                    -0.5994771122932434,
                    -2.4609951972961426,
                    -2.272273302078247,
                    -2.0093517303466797,
                    -2.1053848266601562,
                    1.8228708505630493,
                    -4.170350074768066,
                    -1.9407904148101807,
                    1.5433706045150757,
                    -1.4553638696670532,
                    -1.290390968322754,
                    -0.9465125203132629,
                    1.9803557395935059,
                    -1.0255459547042847
                ],
                [
                    0.5710499882698059,
                    -0.5928338170051575,
                    4.224250316619873,
                    -3.76102614402771,
                    7.815389156341553,
                    -2.946950912475586,
                    -1.7851554155349731,
                    -2.1526806354522705,
                    0.623935878276825,
                    0.6765775680541992,
                    1.1103994846343994,
                    0.22657713294029236,
                    -1.7061705589294434,
                    -0.7352432608604431,
                    -1.5289720296859741,
                    0.8499012589454651,
                    -1.30880606174469
                ],
                [
                    -0.517609179019928,
                    1.386811375617981,
                    0.8759748935699463,
                    0.6148146986961365,
                    -0.6761160492897034,
                    -0.09744356572628021,
                    -1.1412287950515747,
                    -4.134820938110352,
                    -1.147563099861145,
                    -0.35230517387390137,
                    -0.22924649715423584,
                    5.242785930633545,
                    0.007256343495100737,
                    -2.9495203495025635,
                    -0.6841782331466675,
                    2.207493782043457,
                    0.7084665298461914
                ],
                [
                    -1.6462727785110474,
                    -2.837606430053711,
                    1.0860164165496826,
                    -4.706946849822998,
                    0.46749240159988403,
                    -0.9458115100860596,
                    -0.016537955030798912,
                    0.23009663820266724,
                    2.628305196762085,
                    2.8572745323181152,
                    2.6028804779052734,
                    -2.162902355194092,
                    2.879561185836792,
                    -1.3046231269836426,
                    0.8492029905319214,
                    1.457140564918518,
                    2.8202083110809326
                ],
                [
                    0.7239006757736206,
                    -1.340211033821106,
                    -2.2918331623077393,
                    -0.9235312342643738,
                    -1.8406546115875244,
                    -0.27444005012512207,
                    0.08062588423490524,
                    -1.3237732648849487,
                    1.7415660619735718,
                    -0.7139666080474854,
                    -0.8187951445579529,
                    2.8978271484375,
                    1.707689642906189,
                    3.1167125701904297,
                    -5.475466251373291,
                    -0.6933251023292542,
                    2.3187901973724365
                ],
                [
                    4.722981929779053,
                    -4.40373420715332,
                    0.6978740096092224,
                    2.1398072242736816,
                    -0.8287413120269775,
                    0.5259044766426086,
                    -1.1104627847671509,
                    -2.6078763008117676,
                    1.1790711879730225,
                    -7.088595390319824,
                    -7.256623268127441,
                    0.3913082480430603,
                    -4.04943323135376,
                    -1.0994043350219727,
                    -1.397168517112732,
                    -0.007233667187392712,
                    1.2052974700927734
                ],
                [
                    -1.3491305112838745,
                    0.8367741107940674,
                    2.2967469692230225,
                    -0.051128022372722626,
                    2.67630672454834,
                    -3.952028751373291,
                    3.261441230773926,
                    0.176687091588974,
                    2.3301503658294678,
                    -4.281371593475342,
                    1.1924374103546143,
                    -1.4413816928863525,
                    -1.912001609802246,
                    1.626167893409729,
                    -0.6262097358703613,
                    0.8560508489608765,
                    -1.890339732170105
                ],
                [
                    -3.180140256881714,
                    -5.045383930206299,
                    -0.46055784821510315,
                    -1.05775785446167,
                    3.1830193996429443,
                    1.9485740661621094,
                    -0.7624286413192749,
                    0.658060610294342,
                    1.6740494966506958,
                    -4.086846351623535,
                    -3.718331813812256,
                    5.897636413574219,
                    0.6968218684196472,
                    2.281881093978882,
                    1.2733551263809204,
                    5.426239967346191,
                    2.0872268676757812
                ],
                [
                    1.2186739444732666,
                    -0.001232428359799087,
                    -1.7296247482299805,
                    0.7732682228088379,
                    -0.6915029883384705,
                    1.1452066898345947,
                    -0.3546355366706848,
                    -0.4368399381637573,
                    3.7940497398376465,
                    0.18540973961353302,
                    -3.229978084564209,
                    1.616027593612671,
                    -3.13450026512146,
                    -1.185807466506958,
                    -2.378204822540283,
                    0.675922691822052,
                    2.522601842880249
                ],
                [
                    -1.021593689918518,
                    2.298792839050293,
                    -2.300668239593506,
                    0.6558514833450317,
                    -1.4603230953216553,
                    0.5246707201004028,
                    0.16695386171340942,
                    0.29785117506980896,
                    5.584481716156006,
                    -1.2368419170379639,
                    -2.781008005142212,
                    -0.7505195736885071,
                    3.303781747817993,
                    -0.11438696086406708,
                    -0.598868191242218,
                    6.064259052276611,
                    -0.9859033823013306
                ]
            ],
            "weightsHO": [
                [
                    -1.1647356748580933,
                    -4.864026069641113,
                    0.2857268452644348,
                    -0.41509318351745605,
                    3.307485818862915,
                    2.112008571624756,
                    4.269433975219727,
                    1.705187439918518,
                    2.988464832305908,
                    -2.839539051055908,
                    2.815044641494751,
                    1.0387952327728271,
                    -4.379948616027832,
                    -1.3199318647384644,
                    0.06777128577232361,
                    -0.9803296327590942
                ],
                [
                    1.4448845386505127,
                    -5.548695087432861,
                    -0.7795678973197937,
                    -0.08757904917001724,
                    4.011739730834961,
                    3.7570393085479736,
                    0.9299096465110779,
                    1.872615098953247,
                    -0.5613607168197632,
                    4.030101299285889,
                    -1.3564655780792236,
                    0.4404146373271942,
                    -1.8491909503936768,
                    -1.1577783823013306,
                    1.3689169883728027,
                    -1.6811720132827759
                ]
            ],
            "biasH": [
                1.870061993598938,
                -0.5952731966972351,
                0.7855361104011536,
                -1.4242688417434692,
                0.1830630749464035,
                -0.15669380128383636,
                3.1772091388702393,
                -0.5367056131362915,
                1.2589714527130127,
                0.5362384915351868,
                -0.09745994210243225,
                0.9186872243881226,
                1.0505110025405884,
                4.728811740875244,
                -0.6456036567687988,
                0.7206263542175293
            ],
            "biasO": [
                0.8210257291793823,
                -0.8749874234199524
            ]
        },
        {
            "inputNodes": 17,
            "hiddenNodes": 16,
            "outputNodes": 2,
            "weightsIH": [
                [
                    -1.9963839054107666,
                    -5.272287368774414,
                    1.5610601902008057,
                    -2.5006766319274902,
                    4.627570629119873,
                    1.0706921815872192,
                    -0.8091134428977966,
                    -0.07058561593294144,
                    2.619051694869995,
                    -0.3193262219429016,
                    1.4426716566085815,
                    -4.482002258300781,
                    1.6387505531311035,
                    -2.6756796836853027,
                    0.6263639330863953,
                    -4.050719261169434,
                    -0.5068932771682739
                ],
                [
                    -0.34522444009780884,
                    1.201703429222107,
                    -0.7232189178466797,
                    -4.054270267486572,
                    1.1678051948547363,
                    0.1406669020652771,
                    -0.2135055512189865,
                    -1.3947198390960693,
                    3.6907589435577393,
                    -1.646660566329956,
                    -2.815493583679199,
                    -1.045729637145996,
                    0.5151116847991943,
                    -1.2577526569366455,
                    -2.426511287689209,
                    -1.7377203702926636,
                    -1.3378819227218628
                ],
                [
                    2.524171829223633,
                    -0.12218297272920609,
                    0.9758155345916748,
                    2.175448179244995,
                    4.682190418243408,
                    1.3453080654144287,
                    0.7304486632347107,
                    -2.588285207748413,
                    -0.036198440939188004,
                    0.24429555237293243,
                    1.1776026487350464,
                    -0.7609761953353882,
                    1.3359260559082031,
                    1.124627947807312,
                    1.4028451442718506,
                    0.46031567454338074,
                    1.5725700855255127
                ],
                [
                    1.843623161315918,
                    -1.9220014810562134,
                    0.3906816244125366,
                    1.845558762550354,
                    2.1878461837768555,
                    1.2840280532836914,
                    2.5490951538085938,
                    -4.009029865264893,
                    1.9894359111785889,
                    0.578101396560669,
                    2.429509401321411,
                    -3.3219656944274902,
                    6.193833827972412,
                    2.718336343765259,
                    0.8450284600257874,
                    -0.9703335165977478,
                    -3.5188260078430176
                ],
                [
                    -3.2365305423736572,
                    1.3691405057907104,
                    1.248876690864563,
                    -1.3632715940475464,
                    1.160163402557373,
                    0.43372711539268494,
                    -2.868338108062744,
                    2.2433040142059326,
                    -2.2001535892486572,
                    -1.2992417812347412,
                    0.4379241168498993,
                    -2.3223066329956055,
                    2.7902846336364746,
                    -1.621417760848999,
                    -2.9983632564544678,
                    -0.03528319299221039,
                    -0.7458580136299133
                ],
                [
                    -4.021700382232666,
                    0.05237230658531189,
                    -0.8162153363227844,
                    -4.155523777008057,
                    0.025383830070495605,
                    -2.8685481548309326,
                    -1.0135551691055298,
                    1.129970908164978,
                    -0.6370482444763184,
                    -0.4221748113632202,
                    -1.804908037185669,
                    0.6213961243629456,
                    1.8928078413009644,
                    -2.871617555618286,
                    -0.8144954442977905,
                    1.2689985036849976,
                    -0.34053221344947815
                ],
                [
                    3.0817766189575195,
                    -1.0650279521942139,
                    2.627018451690674,
                    -0.7406430840492249,
                    -2.546654462814331,
                    -2.229356050491333,
                    -1.9205105304718018,
                    -2.0492613315582275,
                    1.7407859563827515,
                    -4.099024772644043,
                    -2.087972402572632,
                    1.5433706045150757,
                    -1.0784878730773926,
                    -1.290390968322754,
                    -0.9465125203132629,
                    2.1457901000976562,
                    -1.0152390003204346
                ],
                [
                    0.5710499882698059,
                    -0.7356430888175964,
                    4.126364707946777,
                    -3.6222012042999268,
                    7.635467052459717,
                    -2.946950912475586,
                    -1.819562315940857,
                    -2.2022383213043213,
                    0.4671567678451538,
                    0.4815733730792999,
                    1.0179702043533325,
                    0.031616922467947006,
                    -1.7061705589294434,
                    -0.7352432608604431,
                    -1.4749751091003418,
                    0.8499012589454651,
                    -1.3599287271499634
                ],
                [
                    -0.6171841621398926,
                    1.5359565019607544,
                    1.4792208671569824,
                    0.5336911082267761,
                    -0.6761160492897034,
                    -0.16406260430812836,
                    -1.2561020851135254,
                    -4.020031452178955,
                    -1.147563099861145,
                    -0.23514918982982635,
                    -0.22924649715423584,
                    5.430699825286865,
                    0.1340138167142868,
                    -2.9495203495025635,
                    -0.6841782331466675,
                    2.148772716522217,
                    0.7084665298461914
                ],
                [
                    -1.6663806438446045,
                    -2.708864688873291,
                    1.0860164165496826,
                    -4.7071123123168945,
                    0.46749240159988403,
                    -1.1734117269515991,
                    -0.1297673135995865,
                    0.254988431930542,
                    2.657515525817871,
                    2.87184739112854,
                    2.6028804779052734,
                    -2.101621389389038,
                    2.713271141052246,
                    -1.3046231269836426,
                    0.8492029905319214,
                    1.5373928546905518,
                    2.707312822341919
                ],
                [
                    0.6592784523963928,
                    -1.2368589639663696,
                    -2.2159440517425537,
                    -0.7650033235549927,
                    -1.8430570363998413,
                    -0.27444005012512207,
                    0.039087552577257156,
                    -1.392274022102356,
                    1.842856526374817,
                    -0.7536675930023193,
                    -0.8055208325386047,
                    3.0759060382843018,
                    1.6467537879943848,
                    3.1312549114227295,
                    -5.499783992767334,
                    -0.6933251023292542,
                    2.327779769897461
                ],
                [
                    4.803167819976807,
                    -4.40373420715332,
                    0.6037389636039734,
                    2.2163407802581787,
                    -0.8287413120269775,
                    0.5259044766426086,
                    -1.0360603332519531,
                    -2.6078763008117676,
                    1.2311410903930664,
                    -7.216625213623047,
                    -7.195695400238037,
                    0.3913082480430603,
                    -4.172590255737305,
                    -1.0994043350219727,
                    -1.2819557189941406,
                    0.3282603919506073,
                    1.3362857103347778
                ],
                [
                    -1.3359706401824951,
                    0.5453856587409973,
                    2.279212474822998,
                    -0.04814077913761139,
                    2.67630672454834,
                    -3.952028751373291,
                    3.261441230773926,
                    0.17633973062038422,
                    2.293609380722046,
                    -4.171021461486816,
                    1.1045609712600708,
                    -1.5112563371658325,
                    -1.8181803226470947,
                    1.6299018859863281,
                    -0.639362633228302,
                    0.9844452142715454,
                    -1.890339732170105
                ],
                [
                    -3.208498954772949,
                    -5.045383930206299,
                    -0.6750865578651428,
                    -1.0144551992416382,
                    3.190403938293457,
                    1.9485740661621094,
                    -0.8851386904716492,
                    0.658060610294342,
                    1.5572220087051392,
                    -4.2199387550354,
                    -3.645111083984375,
                    5.851633548736572,
                    0.6651096940040588,
                    2.2110707759857178,
                    1.3685038089752197,
                    5.483499050140381,
                    2.0333375930786133
                ],
                [
                    1.150472640991211,
                    -0.09437469393014908,
                    -1.8220127820968628,
                    0.7194337248802185,
                    -0.6181158423423767,
                    1.063146710395813,
                    -0.3546355366706848,
                    -0.42745035886764526,
                    3.7034120559692383,
                    0.15230397880077362,
                    -3.149644374847412,
                    1.3943172693252563,
                    -3.319971799850464,
                    -1.4085731506347656,
                    -2.3793532848358154,
                    0.6598586440086365,
                    2.4332778453826904
                ],
                [
                    -1.1613982915878296,
                    2.2412993907928467,
                    -2.2705795764923096,
                    0.565976083278656,
                    -1.4826821088790894,
                    0.6092603206634521,
                    0.23227651417255402,
                    0.28609445691108704,
                    5.643616199493408,
                    -1.2275022268295288,
                    -2.781008005142212,
                    -0.6438649892807007,
                    3.2982563972473145,
                    -0.11438696086406708,
                    -0.6477243900299072,
                    5.969357490539551,
                    -1.0534080266952515
                ]
            ],
            "weightsHO": [
                [
                    -1.3588182926177979,
                    -5.008322238922119,
                    0.2857268452644348,
                    -0.3526819348335266,
                    3.3904669284820557,
                    2.049654006958008,
                    4.269433975219727,
                    1.705187439918518,
                    3.096630811691284,
                    -2.9121851921081543,
                    2.7317256927490234,
                    1.1422239542007446,
                    -4.453113079071045,
                    -1.1936728954315186,
                    0.00788627378642559,
                    -1.0460431575775146
                ],
                [
                    1.4499590396881104,
                    -5.447742938995361,
                    -0.7386656403541565,
                    -0.06679944694042206,
                    3.974010705947876,
                    3.7570393085479736,
                    0.8711165189743042,
                    1.9671462774276733,
                    -0.5322591066360474,
                    4.181610584259033,
                    -1.5311895608901978,
                    0.5246007442474365,
                    -1.8491909503936768,
                    -1.1614587306976318,
                    1.3534165620803833,
                    -1.6009856462478638
                ]
            ],
            "biasH": [
                2.1063830852508545,
                -0.5615318417549133,
                0.7855361104011536,
                -1.5366259813308716,
                0.1830630749464035,
                -0.2671416997909546,
                3.1772091388702393,
                -0.39247840642929077,
                1.2589714527130127,
                0.5362384915351868,
                -0.0060350364074110985,
                0.9186872243881226,
                1.095351219177246,
                4.794290542602539,
                -0.6456036567687988,
                0.7969561815261841
            ],
            "biasO": [
                0.8210257291793823,
                -0.8749874234199524
            ]
        },
        {
            "inputNodes": 17,
            "hiddenNodes": 16,
            "outputNodes": 2,
            "weightsIH": [
                [
                    -2.0370612144470215,
                    -5.242307186126709,
                    1.5610601902008057,
                    -2.477562189102173,
                    4.54784631729126,
                    1.0083154439926147,
                    -0.7263096570968628,
                    -0.08776284754276276,
                    2.6223490238189697,
                    -0.3849450349807739,
                    1.3700774908065796,
                    -4.417999267578125,
                    1.5226703882217407,
                    -2.622774600982666,
                    0.6263639330863953,
                    -4.21245813369751,
                    -0.4665263891220093
                ],
                [
                    -0.37426796555519104,
                    1.2970508337020874,
                    -0.6821289658546448,
                    -4.054270267486572,
                    1.1929537057876587,
                    0.029011055827140808,
                    -0.1967947632074356,
                    -1.304134488105774,
                    3.6907589435577393,
                    -1.8968318700790405,
                    -2.8525469303131104,
                    -1.1142374277114868,
                    0.49404314160346985,
                    -1.1599901914596558,
                    -2.4150805473327637,
                    -1.7754555940628052,
                    -1.2753586769104004
                ],
                [
                    2.5345661640167236,
                    -0.2828574478626251,
                    0.9414170980453491,
                    2.175448179244995,
                    4.877739906311035,
                    1.3453080654144287,
                    0.7304486632347107,
                    -2.560408115386963,
                    -0.11311457306146622,
                    0.2796875536441803,
                    1.1631518602371216,
                    -0.7385561466217041,
                    1.376314640045166,
                    1.2337249517440796,
                    1.4028451442718506,
                    0.35576331615448,
                    1.5635627508163452
                ],
                [
                    1.8906687498092651,
                    -1.881116509437561,
                    0.34775614738464355,
                    1.8644530773162842,
                    2.16858172416687,
                    1.4109591245651245,
                    2.4809093475341797,
                    -3.8323171138763428,
                    2.1238770484924316,
                    0.7445511817932129,
                    2.4020915031433105,
                    -3.318513870239258,
                    6.1824140548706055,
                    2.4544806480407715,
                    0.8099238276481628,
                    -0.9066065549850464,
                    -3.7070653438568115
                ],
                [
                    -3.228397846221924,
                    1.3990955352783203,
                    1.3720710277557373,
